tree
version=v3
num_class=1
num_tree_per_iteration=1
label_index=0
max_feature_idx=20
objective=binary sigmoid:1
feature_names=delta_ip beta_N HA V_LOOP BOLD03 BOLD06 BOLU03 BOLU06 SX03 SX06 EFIT_BETA_T EFIT_BETA_P EFIT_ELONGATION EFIT_LI EFIT_Q0 EFIT_QBDRY BT DENSITY W_E FIR01 FIR03
feature_infos=[-0.93734011963000663:0.5196738793645902] [-2965977.719865432:1139544301.5869524] [-0.4686752023687476:11.382254765537311] [-2.8697198436450435:12.594777732084866] [-0.17579776142845421:5.8111058156546376] [-0.13518501051291407:6.4716858192875186] [-0.25961439150826432:2.9453181750697777] [-0.2842396827742304:7.2703116649329234] [-5.6541088838902809:3.3646696702714318] [-4.917953485572748:17.043105941272117] [-694336.8125:339003296] [-0.36673429608345032:3.0621688365936279] [0.99699592590332042:1.1286561489105225] [0.84518688917160034:1.1715668439865112] [4.8826354031916715e-05:3.9861078262329102] [0.00014289026148617268:12.303122520446776] [18.272899627685547:28.342800140380859] [0.0010999999940395355:3.7699000835418701] [-7.3516998291015616:44.285598754882813] [-11448.2177734375:4136.66845703125] [-214748.359375:214748.359375]
tree_sizes=1158 1168 1174 1158 1173 1175 1181 1178 1182 1178 1176 1175 1183 1187 1179 1186 1181 1193 1177 1185 1186 1176 1180 1178 1188 1184 1192 1189 1177 1187 1188 1190 1187 1189 1180 1192 1187 1186 1191 1182 1189 1192 1182 1189 1186 1192 1194 1179 1189 1189 1189 1180 1186 1203 1187 1187 1186 1190 1194 1190 1186 1192 1195 1183 1189 1196 1186 1180 1187 1195 1195 1187 1191 1192 1194 1187 1197 1188 1189 1196 1194 1190 1194 1195 1197 1184 1193 1185 1171 1190 1191 1184 1184 1199 1190 1196 1185 1192 1180 1202 1185

Tree=0
num_leaves=10
num_cat=0
split_feature=19 15 2 5 3 16 5 19 3
split_gain=637783 135881 135538 157381 96304.3 79094.7 59221.7 46563 37285.9
threshold=843.85031127929699 3.6672922372818002 0.36075925690075367 1.7358135555946155 0.63099279549281528 21.948299407958988 3.1758463001108979 1.0000000180025095e-35 1.3202810032964232
decision_type=2 2 2 2 2 2 2 2 2
left_child=1 7 3 -2 5 6 -4 -1 -5
right_child=2 -3 4 8 -6 -7 -8 -9 -10
leaf_value=-0.27401245217309089 -3.3130622005687362 -3.4996230502943595 -2.4664838627574328 -2.2931773849483408 -0.79381216802193721 -2.6632811657883635 -0.97674893638015314 -2.3349239197064628 -0.50381151321722673
leaf_weight=156.56728947907686 669.05778498388827 2111.7986044324934 343.50483875162899 173.91226181946695 3597.3003227636218 567.43613807670772 1292.4461054299027 372.17174477316439 389.82830875366926
leaf_count=527 22370 74453 8635 4060 32224 15373 13831 8879 2320
internal_value=0 4.06247 22.2932 12.7259 24.3194 19.061 22.5892 18.3538 24.9915
internal_weight=0 2640.54 7033.49 1232.8 5800.69 2203.39 1635.95 528.739 563.741
internal_count=182672 83859 98813 28750 70063 37839 22466 9406 6380
shrinkage=1


Tree=1
num_leaves=10
num_cat=0
split_feature=19 18 5 19 18 2 19 19 18
split_gain=9803.91 11012.5 15848.8 11336.7 13876.6 9988.86 8023.47 6828.43 5697.83
threshold=622.15438842773449 9.6224503517150897 1.8473468391692218 843.85031127929699 7.8056499958038339 0.82899738297443559 700.89065551757824 1.0000000180025095e-35 23.741049766540531
decision_type=2 2 2 2 2 2 2 2 2
left_child=7 3 5 4 6 -3 -2 -1 -4
right_child=1 2 8 -5 -6 -7 -8 -9 -10
leaf_value=0.20003249863145381 0.26887627889765175 -0.021472571157541337 0.28147735324656586 0.33000667518267296 0.44477514968452425 0.22945934413975372 2.3075169890309035 -0.098976057021240627 0.19983196387004415
leaf_weight=1477.8475217223167 25.895455542951822 4201.907878678292 17257.07336224243 4964.5735398828983 199.29050552845001 2545.3207870051265 83.581137556582689 1574.9407312721014 17027.141038008034
leaf_count=2771 732 44843 22543 4698 4015 3931 318 52390 46431
internal_value=0 2.30889 2.13378 3.66962 9.52896 0.732439 18.4393 0.458226 2.40948
internal_weight=0 46304.8 41031.4 5273.34 308.767 6747.23 109.477 3052.79 34284.2
internal_count=182672 127511 117748 9763 5065 48774 1050 55161 68974
shrinkage=0.1


Tree=2
num_leaves=10
num_cat=0
split_feature=5 18 18 4 0 15 0 0 17
split_gain=6446.84 11395.1 5947.09 5122.82 4981.65 5586.74 3752.13 3168.47 3143.77
threshold=2.3494135774255738 12.325549602508547 24.5917501449585 0.79584984539103865 -0.016399614330729558 4.2360494136810312 -0.039869496911423684 0.050390577857469969 1.3637999892234804
decision_type=2 2 2 2 2 2 2 2 2
left_child=1 4 8 6 -1 -6 -3 -4 -2
right_child=2 3 7 -5 5 -7 -8 -9 -10
leaf_value=0.26027237023544475 0.49012629667291513 0.19004046962783175 0.17155288617738965 0.14227738812170945 0.18295763627855266 -0.01712754480148267 -0.083859412960549773 -0.055555779552932463 0.23885392351999379
leaf_weight=5430.210832875222 512.87988549843431 582.04746022820473 16005.596494719386 2313.8874739408493 5808.2212556526065 1835.90753409639 3454.4877178966999 637.5617496073246 17154.821765445173
leaf_count=11036 1276 1127 37954 5628 29632 44042 32003 3357 16617
internal_value=0 1.33654 2.05796 0.237401 1.87024 1.34914 -0.442601 1.62845 2.46224
internal_weight=0 19424.8 34310.9 6350.42 13074.3 7644.13 4036.54 16643.2 17667.7
internal_count=182672 123468 59204 38758 84710 73674 33130 41311 17893
shrinkage=0.1


Tree=3
num_leaves=10
num_cat=0
split_feature=16 16 3 16 19 7 0 7 4
split_gain=5139.67 5846.93 7932 5316.69 8727.31 5222.19 6024.83 4740.79 4911.91
threshold=25.486200332641605 23.22245025634766 0.63099279549281528 22.183850288391117 1285.9202880859377 0.61348997861390375 0.050390577857469969 2.6057153101139972 2.8433021177649018
decision_type=2 2 2 2 2 2 2 2 2
left_child=1 3 7 5 -5 -1 -7 -3 -9
right_child=-2 2 -4 4 -6 6 -8 8 -10
leaf_value=0.067427301679242296 -0.13777960529120326 0.13173292667602732 0.21049898529357677 -0.13146765660954515 0.15251589828955803 0.17390055290119374 -0.14048468474915154 0.86491899823403617 -0.10564688076112244
leaf_weight=5753.3760588169098 599.081020263955 170.68245810642838 3792.1798190418631 1751.7031654324383 2821.6737564355135 40566.224582819268 616.90344897098839 424.100994117558 58.746480017900467
leaf_count=57820 7996 1876 4646 21839 7446 75659 3823 879 688
internal_value=0 1.56198 2.66249 1.46685 0.437296 1.56714 1.69182 5.87479 7.46898
internal_weight=0 55955.6 4445.71 51509.9 4573.38 46936.5 41183.1 653.53 482.847
internal_count=182672 174676 8089 166587 29285 137302 79482 3443 1567
shrinkage=0.1


Tree=4
num_leaves=10
num_cat=0
split_feature=19 19 18 5 17 16 18 19 16
split_gain=4180.9 4860.65 4663.23 7526.15 5884.65 11841.7 3941.85 3221.16 3080.01
threshold=622.15438842773449 1.0000000180025095e-35 9.9174499511718768 2.6114141270950051 1.5533499717712405 20.822750091552738 22.202400207519535 1750.654724121094 21.06305027008057
decision_type=2 2 2 2 2 2 2 2 2
left_child=1 -1 -2 4 8 -6 -5 -8 -4
right_child=2 -3 3 6 5 -7 7 -9 -10
leaf_value=0.14949786929794315 0.21283486352726719 -0.099514611199953598 -0.11650845174940448 0.19916902804685166 0.1772143758861387 -0.057792603115369358 0.11118541853782216 0.21181257405465714 0.19750467165381111
leaf_weight=1504.433835465461 7366.654961803928 1630.6843644175678 341.70178931578994 11701.173026647419 3238.7737210467458 6330.8099005166441 19244.770011231303 3814.7650720849633 3440.9182238858193
leaf_count=2771 11808 52390 4848 7234 3267 46046 42095 2117 10096
internal_value=0 0.200034 1.38722 1.27363 0.635286 0.217723 1.51875 1.27856 1.69073
internal_weight=0 3135.12 55479.6 48112.9 13352.2 9569.58 34760.7 23059.5 3782.62
internal_count=182672 55161 127511 115703 64257 49313 51446 44212 14944
shrinkage=0.1


Tree=5
num_leaves=10
num_cat=0
split_feature=0 4 8 17 6 1 19 18 16
split_gain=3761.89 6707.21 4338.13 5477.22 4225.83 3302.64 4287.93 3247.62 2771.75
threshold=-0.030165454038816996 0.49525510239330611 -0.013117749251373401 0.71209999918937694 0.064047765723241445 1.7511605307256739 1714.4287109375002 28.261750221252445 25.486200332641605
decision_type=2 2 2 2 2 2 2 2 2
left_child=-1 2 3 -2 -5 8 7 -7 -3
right_child=1 5 -4 4 -6 6 -8 -9 -10
leaf_value=0.18042742936980341 0.15752807387170958 0.14641122523584207 0.17953754773576391 -0.078516832620532828 0.12006983740475963 0.098894879914880995 0.17268890140128976 -0.027580903012937898 -0.14505426812581262
leaf_weight=8173.4218033477664 1833.2279363051057 29100.124306011945 1707.6785952709615 5225.64677760005 1345.1404117252678 4393.7143889293075 3506.9438068643212 3770.3869558274746 327.86641069874167
leaf_count=9362 4862 46974 6056 72009 12527 10363 2282 15597 2640
internal_value=0 1.07345 0.343708 0.0482323 -0.378291 1.25295 0.802491 0.404953 1.4315
internal_weight=0 51210.7 10111.7 8404.02 6570.79 41099 11671 8164.1 29428
internal_count=182672 173310 95454 89398 84536 77856 28242 25960 49614
shrinkage=0.1


Tree=6
num_leaves=10
num_cat=0
split_feature=0 4 15 19 17 19 10 19 18
split_gain=3451.17 6366.52 3509.8 4363.69 3435.48 3306.13 2297.95 2396.25 1873.98
threshold=-0.0050352354785465495 0.58031617745223618 2.8480997085571294 1714.4287109375002 0.72189998626708995 688.90280151367199 0.074008814990520491 642.77310180664074 10.165950298309328
decision_type=2 2 2 2 2 2 2 2 2
left_child=5 4 3 -3 -2 -1 7 -6 -7
right_child=1 2 -4 -5 6 8 -8 -9 -10
leaf_value=-0.074267241696614791 0.12768510610344336 -0.083134261157211953 0.11551734755669099 0.1482782337706752 -0.1024980066127697 0.18753795976985585 -0.094999240785725844 0.24342918238704248 0.12366074229520554
leaf_weight=734.2384632229805 1299.586284475401 2071.1552891358733 26752.780834177509 1339.4402015507221 353.25524234957993 6319.8974169790745 3346.0189819447696 455.86385032720864 16968.351751076058
leaf_count=17984 4890 10255 48652 922 12463 4682 53834 1255 27735
internal_value=0 0.853615 1.03339 0.0779403 -0.14051 1.34428 -0.584377 0.925625 1.41016
internal_weight=0 35618.1 30163.4 3410.6 5454.72 24022.5 4155.14 809.119 23288.2
internal_count=182672 132271 59829 11177 72442 50401 67552 13718 32417
shrinkage=0.1


Tree=7
num_leaves=10
num_cat=0
split_feature=16 15 19 7 19 10 18 14 10
split_gain=3073.76 2853.23 3939.36 2973.93 2996.96 3976.09 3478.47 1452.72 1256.63
threshold=25.486200332641605 2.8778284788131718 1714.4287109375002 4.0150826166872831 1031.393981933594 0.65443244576454174 21.713999748229984 0.99390676617622387 0.58129069209098827
decision_type=2 2 2 2 2 2 2 2 2
left_child=1 2 7 4 5 -3 -6 -1 -5
right_child=-2 3 -4 8 6 -7 -8 -9 -10
leaf_value=-0.13883814911837924 -0.13784650748947752 0.045093910610206255 0.13923806076494444 0.16864531197221344 0.13492997126642861 0.40728991974311451 0.063208283599202594 0.0072709466757661465 0.087869958647545959
leaf_weight=1141.936243891716 560.16565228067338 13525.543841049075 1739.7566286697984 8401.9668867886066 19165.605668669567 307.31928274780512 10461.058673433959 1677.3126866184175 2512.1358153745532
leaf_count=7120 7996 103372 1239 4795 26761 294 21222 6040 3833
internal_value=0 0.970295 0.210253 1.03401 0.91669 0.532211 1.09614 -0.519879 1.5008
internal_weight=0 58932.6 4559.01 54373.6 43459.5 13832.9 29626.7 2819.25 10914.1
internal_count=182672 174676 14399 160277 151649 103666 47983 13160 8628
shrinkage=0.1


Tree=8
num_leaves=10
num_cat=0
split_feature=0 5 18 19 16 19 14 16 19
split_gain=2920.33 4589.77 4502.49 4411.61 3600.49 3209.08 3021.98 2934.42 2722.57
threshold=-0.030165454038816996 2.754811831095815 12.845449924468996 682.41567993164074 21.081999778747562 688.90280151367199 1.2287934422492983 21.973600387573246 1.0000000180025095e-35
decision_type=2 2 2 2 2 2 2 2 2
left_child=-1 2 5 -4 -5 8 7 -3 -2
right_child=1 6 3 4 -6 -7 -8 -9 -10
leaf_value=0.14230855569148423 0.13510274725289872 0.090757011355427214 0.1489988669629346 0.03328465813797582 -0.1250665926521711 0.1027119391717202 0.13617565362423745 -0.017076424280779101 -0.099777573625950924
leaf_weight=7867.7696335539222 705.17481765523553 16574.31397806108 1207.0444782376289 2423.0975097697228 3518.0439072009176 9144.3774646613747 13285.668610563502 2975.7249495722353 1626.7518573934212
leaf_count=9362 1091 21520 4815 8204 26701 31500 11341 15221 52917
internal_value=0 0.768794 0.37217 -0.25077 -0.604971 0.760146 0.993709 0.743434 -0.286722
internal_weight=0 51460.2 18624.5 7148.19 5941.14 11476.3 32835.7 19550 2331.93
internal_count=182672 173310 125228 39720 34905 85508 48082 36741 54008
shrinkage=0.1


Tree=9
num_leaves=10
num_cat=0
split_feature=0 4 14 15 16 17 6 1 3
split_gain=2602.86 4400.04 2620.62 2245.46 1901.96 1858.82 1574.77 1521.5 1156.32
threshold=-0.0050352354785465495 0.58031617745223618 1.3102515339851379 2.8154394626617436 25.486200332641605 0.43400000035762792 0.39231386740178803 1.7592990119975151 1.7343869154365805
decision_type=2 2 2 2 2 2 2 2 2
left_child=8 2 -2 6 7 -4 -3 -5 -1
right_child=1 3 5 4 -6 -7 -8 -9 -10
leaf_value=0.089149737717107685 0.11989999184414911 -0.10227874744835504 0.13483905808948135 0.1025052367617808 -0.14244035964946339 -0.080446462151750719 0.050510893057271793 0.049721079508163214 0.13761740693127719
leaf_weight=16052.437364667654 1027.6205981764942 1102.9030776172876 445.65933141857386 19302.657408708706 361.99067602865398 3810.4717255737633 1727.3664175719023 7627.3980424851179 7123.2568224547431
leaf_count=38232 2622 5961 331 29747 3136 69489 3904 17081 12169
internal_value=0 0.60942 -0.232183 0.757055 0.84497 -0.578299 -0.0906925 0.87562 1.04062
internal_weight=0 35406.1 5283.75 30122.3 27292 4256.13 2830.27 26930.1 23175.7
internal_count=182672 132271 72442 59829 49964 69820 9865 46828 50401
shrinkage=0.1


Tree=10
num_leaves=10
num_cat=0
split_feature=0 5 13 17 16 1 19 15 15
split_gain=2348.12 3642.22 3756.55 3886.87 7070.92 2648.88 2435.98 2523.89 1481.15
threshold=-0.030165454038816996 2.754811831095815 1.0131893157958987 1.6680499911308291 21.154699325561527 1.7079904345820087 1750.654724121094 2.8154394626617436 3.2381296157836919
decision_type=2 2 2 2 2 2 2 2 2
left_child=-1 2 3 -2 -5 8 7 -7 -3
right_child=1 5 -4 4 -6 6 -8 -9 -10
leaf_value=0.1233369672308714 0.1038630022288015 0.066069492170895666 -0.068851600724702255 0.077008641838371639 -0.1156450724671385 -0.11481439193793681 0.12433665802592114 0.042557425958979607 0.12606826080084438
leaf_weight=7481.9179041050375 6904.7493015304208 6011.8261989690363 3306.8027509227395 4852.7384773716331 3132.4896864043549 1151.1092546656728 3218.9488710910082 8725.6056508980691 13112.287649439648
leaf_count=9362 29921 11362 53130 12974 29203 6409 1925 18987 9399
internal_value=0 0.63294 0.275228 0.489349 0.0141905 0.834923 0.488267 0.241886 1.0722
internal_weight=0 50416.6 18196.8 14890 7985.23 32219.8 13095.7 9876.71 19124.1
internal_count=182672 173310 125228 72098 42177 48082 27321 25396 20761
shrinkage=0.1


Tree=11
num_leaves=10
num_cat=0
split_feature=8 3 5 19 18 20 18 19 13
split_gain=2416.13 1985.14 4305.02 2941.25 2503.62 2238.42 2380.72 2167 2126.53
threshold=-0.049760599324475754 1.7343869154365805 2.6986425197794288 688.90280151367199 23.903100013732914 1537.883239746094 12.16534996032715 1714.4287109375002 1.0124942064285281
decision_type=2 2 2 2 2 2 2 2 2
left_child=-1 2 5 -3 -4 8 -7 -6 -2
right_child=1 3 4 -5 7 6 -8 -9 -10
leaf_value=0.14683413689579591 0.08152368575027881 -0.092828573702658762 0.10750750573709206 0.12710227451910905 0.033301237448431942 0.048767730803727469 -0.067136781569384796 0.11870576179433999 -0.054463050587032914
leaf_weight=3399.8613935960457 5029.7339931847528 665.36455445177853 12551.368491012603 6842.716463079676 15276.861168209463 2655.0840446902439 5316.77707926929 3686.8096274212003 1488.3821722865105
leaf_count=4344 24297 16692 10106 6575 36714 12026 30972 2378 38568
internal_value=0 0.599087 0.521219 1.07585 0.728628 0.0700577 -0.285301 0.499202 0.504613
internal_weight=0 53513.1 46005 7508.08 31515 14490 7971.86 18963.7 6518.12
internal_count=182672 178328 155061 23267 49198 105863 42998 39092 62865
shrinkage=0.1


Tree=12
num_leaves=10
num_cat=0
split_feature=8 7 18 19 20 18 10 19 15
split_gain=2048.72 1781.56 3227.16 2596.43 3389.66 2170.74 1798.57 2847.58 1529.14
threshold=-0.049760599324475754 4.0150826166872831 30.029049873352054 1031.393981933594 1381.4878540039065 21.966850280761722 0.57762503623962413 1689.487731933594 3.7228070497512822
decision_type=2 2 2 2 2 2 2 2 2
left_child=-1 2 3 4 -2 -5 -3 8 -8
right_child=1 6 -4 5 -6 -7 7 -9 -10
leaf_value=0.13591955673822223 0.058428493127471039 0.12126411494327315 -0.078021339047291249 0.092326902820060813 -0.042590956814507842 0.032404086113531648 -0.096334382422348139 0.11940242289401876 0.11143613843719746
leaf_weight=3310.490015049465 7968.7401285227388 6989.992595218122 2015.0724283568561 16373.599213201553 5691.7195501942188 9590.0575768463314 1523.2124523930252 2072.1949447840452 458.77062666416168
leaf_count=4344 74178 5455 9658 27360 33906 20010 6163 1169 429
internal_value=0 0.548301 0.453538 0.516331 0.163378 0.701995 0.905372 0.375121 -0.481514
internal_weight=0 52683.4 41639.2 39624.1 13660.5 25963.7 11044.2 4054.18 1981.98
internal_count=182672 178328 165112 155454 108084 47370 13216 7761 6592
shrinkage=0.1


Tree=13
num_leaves=10
num_cat=0
split_feature=0 4 19 11 18 18 16 16 19
split_gain=1990.88 2888.97 2327.28 2107.1 2064.11 1828.2 1973.1 2851.88 1766.88
threshold=-0.0035226506881855147 0.58031617745223618 688.90280151367199 0.25793920457363134 23.903100013732914 9.9672503471374529 21.081999778747562 21.319149971008304 1795.112731933594
decision_type=2 2 2 2 2 2 2 2 2
left_child=2 3 -1 -2 -3 -4 -7 -8 -6
right_child=1 4 5 -5 8 6 7 -9 -10
leaf_value=-0.082063155139837723 0.043013851766966725 0.083358827196544999 0.13505139387702622 -0.094835771823884266 0.014045685261908565 0.10199451729666609 -0.090945613979086376 0.060001458264254119 0.10839226043679435
leaf_weight=886.71639064140618 1937.1377297816798 11230.591038399376 5175.9501132648438 2586.5366437574849 13866.499555613846 8402.2057804372162 1505.3246902562678 7362.1767584607005 2314.0789919644594
leaf_count=21183 26321 17600 4635 40643 38387 8846 7251 16401 1405
internal_value=0 0.382065 0.766404 -0.358147 0.504247 0.829195 0.672755 0.343563 0.275552
internal_weight=0 31934.8 23332.4 4523.67 27411.2 22445.7 17269.7 8867.5 16180.6
internal_count=182672 124356 58316 66964 57392 37133 32498 23652 39792
shrinkage=0.1


Tree=14
num_leaves=10
num_cat=0
split_feature=7 18 19 10 20 18 5 10 19
split_gain=1874.49 2714.6 2200.86 3047.5 2518.16 2122.41 4670.27 1539.93 2576.61
threshold=4.0676735141079687 29.853750228881839 1031.393981933594 0.65443244576454174 1381.4878540039065 21.448449134826664 2.9641251765145831 0.58519876003265392 1689.487731933594
decision_type=2 2 2 2 2 2 2 2 2
left_child=1 2 3 4 -1 -4 -7 -2 -9
right_child=7 -3 5 -5 -6 6 -8 8 -10
leaf_value=0.040746642945517747 0.11250046873493931 -0.067321631279776292 0.086006692447547425 0.23373791038543731 -0.046530392466638558 -0.12137947836533013 0.058094595523435794 -0.05459213848648084 0.10987900844306749
leaf_weight=8020.578711730428 7490.703824069351 2216.6922439839691 16115.878576068208 604.48810150101781 5619.6948394170031 1738.9367576278746 8653.284660808742 1755.7310288920999 2075.9273799285293
leaf_count=74387 5673 10372 28370 904 34588 8575 12487 6158 1158
internal_value=0 0.403889 0.46252 0.145464 0.0478676 0.632863 0.280384 0.861292 0.345298
internal_weight=0 42969.6 40752.9 14244.8 13640.3 26508.1 10392.2 11322.4 3831.66
internal_count=182672 169683 159311 109879 108975 49432 21062 12989 7316
shrinkage=0.1


Tree=15
num_leaves=10
num_cat=0
split_feature=3 5 19 14 18 19 16 7 16
split_gain=1758.87 3419.89 2439.93 2289.43 1908.83 3305.41 2569.96 2452.15 1617.91
threshold=1.7122732446809665 2.6114141270950051 688.90280151367199 1.3215945959091189 13.026949882507326 682.41567993164074 20.806950569152836 0.64916156294217708 20.639400482177738
decision_type=2 2 2 2 2 2 2 2 2
left_child=1 4 -2 -3 7 -6 -7 8 -1
right_child=2 3 -4 -5 5 6 -8 -9 -10
leaf_value=0.083298205814101189 -0.090997315378559776 0.040518401443794219 0.10813818824128262 0.1015826282829258 0.10293510595553249 0.055083757945569134 -0.12073251813442426 0.085510707218332732 -0.06140374116229811
leaf_weight=1030.1993825184181 673.51809919625521 23516.979632066563 6887.3663871092722 8310.5135955642909 1204.0171177359298 1064.1945466585457 3774.8786259600893 3939.2434181459248 3064.8701467858627
leaf_count=3743 17108 45497 7236 6826 4067 2351 28371 18072 49401
internal_value=0 0.383193 0.90372 0.564705 -0.0272135 -0.451689 -0.820575 0.292102 -0.249684
internal_weight=0 45904.9 7560.88 31827.5 14077.4 6043.09 4839.07 8034.31 4095.07
internal_count=182672 158328 24344 52323 106005 34789 30722 71216 53144
shrinkage=0.1


Tree=16
num_leaves=10
num_cat=0
split_feature=0 5 17 16 19 18 19 14 1
split_gain=1791.34 2250.49 2119.39 4066.83 2782.03 2770.64 2147.66 2121.72 2015.6
threshold=-0.030165454038816996 3.1068047300847037 1.6680499911308291 21.161049842834476 772.36700439453136 23.386750221252449 1714.4287109375002 1.3159722685813906 1.7667985902719689
decision_type=2 2 2 2 2 2 2 2 2
left_child=-1 2 4 5 7 -4 -5 -2 -3
right_child=1 8 3 6 -6 -7 -8 -9 -10
leaf_value=0.092893830484547468 0.056424130978252496 0.075064679094177952 0.051952439847846171 -0.11939028716801872 0.094946337826221749 -0.14142728625709947 0.12143257266702645 -0.090978925946095246 0.01701222946420157
leaf_weight=6103.7177740484476 1950.1084619928151 16949.83404622972 6055.7268431345001 3827.850201102905 5084.5219486728311 841.41794316470623 407.69500284083188 1950.4924751333892 9244.4113567713648
leaf_count=9362 5467 20104 16975 34809 9666 4584 756 60628 20321
internal_value=0 0.352637 0.101076 -0.1905 0.462293 0.283131 -0.961446 -0.172962 0.54581
internal_weight=0 46312.1 20117.8 11132.7 8985.12 6897.14 4235.55 3900.6 26194.2
internal_count=182672 173310 132885 57124 75761 21559 35565 66095 40425
shrinkage=0.1


Tree=17
num_leaves=10
num_cat=0
split_feature=0 4 19 18 5 16 18 18 7
split_gain=1552.27 1879.93 1638.41 1586.78 2079.33 1609.32 1538.79 1531.99 2175.56
threshold=-0.0035226506881855147 0.52603004136667753 688.90280151367199 9.9672503471374529 1.7927224880720283 20.838549613952644 9.0269503593444842 23.903100013732914 3.4931885930945463
decision_type=2 2 2 2 2 2 2 2 2
left_child=2 6 -1 -4 5 -5 -2 -3 -9
right_child=1 7 3 4 -6 -7 -8 8 -10
leaf_value=-0.079268919910304228 0.043141260361294259 0.063003222314322385 0.11718176659944597 0.087026549174344214 0.067925435139369036 -0.071141397514372012 -0.087011649516829728 -0.035230478045391249 0.042097248933458828
leaf_weight=815.95499432459474 1415.262062959373 10652.463140356354 4532.3957773894072 914.8960780389607 12632.607595875859 2149.2954026469961 2526.6520047876984 5728.1100188475102 9961.9802353139967
leaf_count=21183 20940 20237 4635 1237 16080 15181 43375 22136 17668
internal_value=0 0.241021 0.594626 0.650687 0.500029 -0.238791 -0.402847 0.337404 0.138651
internal_weight=0 30284.5 21045.1 20229.2 15696.8 3064.19 3941.91 26342.6 15690.1
internal_count=182672 124356 58316 37133 32498 16418 64315 60041 39804
shrinkage=0.1


Tree=18
num_leaves=10
num_cat=0
split_feature=8 20 19 19 10 12 12 14 19
split_gain=1571.22 1378.5 2706.8 2467.64 2329.34 2093.11 2010.35 1577.02 1422.74
threshold=-0.049760599324475754 1627.582702636719 755.10903930664074 1082.888122558594 0.58877137303352367 1.0632113814353945 1.0273376107215884 1.1391723752021792 1428.117614746094
decision_type=2 2 2 2 2 2 2 2 2
left_child=-1 2 6 -3 8 -6 7 -2 -5
right_child=1 3 -4 4 5 -7 -8 -9 -10
leaf_value=0.10784240454381538 -0.1325935350169076 -0.046073037490992431 0.067397935707179876 0.026688096155984265 -0.083475393339261572 0.13646720264544918 -0.08460437401946129 0.10750072818036249 0.088242232487078895
leaf_weight=2826.9375108610839 340.58243176341057 5167.1175326630473 17165.078105143271 12705.838580112904 2668.3670110534877 513.72223177552223 2307.3214763691649 1347.1220323462039 5330.1336024450138
leaf_count=4344 1928 26892 32196 28735 11329 227 64595 3456 8970
internal_value=0 0.311326 0.501453 0.158813 0.309729 -0.478784 -0.239774 0.58909 0.4489
internal_weight=0 47545.3 21160.1 26385.2 21218.1 3182.09 3995.03 1687.7 18036
internal_count=182672 178328 102175 76153 49261 11556 69979 5384 37705
shrinkage=0.1


Tree=19
num_leaves=10
num_cat=0
split_feature=3 7 16 7 14 1 16 19 0
split_gain=1504.16 2289.75 1749.84 2536.09 2303.66 1907.93 1746.65 1681.92 1642.27
threshold=1.7575369091084145 0.61348997861390375 21.085199356079105 3.734750445815306 1.1763782501220705 1.6410953248000339 20.639400482177738 664.10159301757824 0.050390577857469969
decision_type=2 2 2 2 2 2 2 2 2
left_child=1 6 8 5 -5 -4 -1 -2 -3
right_child=7 2 3 4 -6 -7 -8 -9 -10
leaf_value=0.067049475159637648 -0.095498538498373448 0.062308923088029926 0.0049380802132677031 0.011602985694700146 0.11276087153088679 -0.093281319588136458 -0.07722979548618697 0.094283201691695614 -0.1497715868407816
leaf_weight=1111.8930931696668 506.75093440618366 16685.457952493802 10241.506685763597 5256.2580114789307 3936.0110636223108 2448.1971642579883 3394.3809967814013 5656.2215114794672 370.72046398930252
leaf_count=3992 16013 25019 43851 11206 2646 12135 58732 6899 2179
internal_value=0 0.258563 0.336666 0.149475 0.549388 -0.140272 -0.416098 0.786419 0.576755
internal_weight=0 43444.4 38938.2 21882 9192.27 12689.7 4506.27 6162.97 17056.2
internal_count=182672 159760 97036 69838 13852 55986 62724 22912 27198
shrinkage=0.1


Tree=20
num_leaves=10
num_cat=0
split_feature=0 5 18 13 2 20 0 16 11
split_gain=1342.04 1612.72 1576.82 2296.26 1949.05 1546.13 1482.92 1572.62 1469.38
threshold=-0.030165454038816996 3.9123892539498955 23.20515060424805 1.0131893157958987 0.95898840752993431 2138.709106445313 0.017691806402248527 20.987150192260746 0.8488917648792268
decision_type=2 2 2 2 2 2 2 2 2
left_child=-1 2 3 8 -4 -6 7 -3 -2
right_child=1 6 4 -5 5 -7 -8 -9 -10
leaf_value=0.077168482256213922 0.024881511545208655 0.11542637456734978 -0.09312859508101641 -0.0464889688363537 -0.033440783416503327 0.085924961400791242 -0.044134868439000642 0.039817918845742414 0.099490841278765257
leaf_weight=5324.3142926134169 12345.724844488781 3660.3170886710286 2951.5216967593879 3722.3795767738484 2929.6551962476224 1719.8453726321459 1550.3597136326134 11072.708123613149 3355.9664097153582
leaf_count=9362 65184 1511 13805 53783 10156 3164 5299 17408 3000
internal_value=0 0.239737 0.0899278 0.241025 -0.296137 0.107368 0.488312 0.586207 0.40843
internal_weight=0 43308.5 27025.1 19424.1 7601.02 4649.5 16283.4 14733 15701.7
internal_count=182672 173310 149092 121967 27125 13320 24218 18919 68184
shrinkage=0.1


Tree=21
num_leaves=10
num_cat=0
split_feature=14 19 7 16 17 16 3 15 4
split_gain=1323.57 1890.47 1474.23 2089.76 2558.31 2295.14 1393.61 1362.08 1077.45
threshold=1.6160629987716677 688.90280151367199 4.0676735141079687 21.081999778747562 1.654950022697449 22.485799789428714 0.25581061789354592 3.188085794448853 2.8101961163556415
decision_type=2 2 2 2 2 2 2 2 2
left_child=2 -2 3 6 7 -6 -1 -5 -4
right_child=1 -3 8 4 5 -7 -8 -9 -10
leaf_value=-0.10833220199777378 -0.10273503559082123 0.10312312157662983 0.090541766775172131 -0.11312786366519259 -0.066079120236161443 0.034028763556023058 0.043378193577275355 0.057787550203869248 0.023663818004785824
leaf_weight=626.85028136894107 501.54879091354087 3891.5091998213902 4729.1785415001214 509.34188179299235 8479.4632926872 3135.2165323114023 15904.11529227905 5225.6548045538366 4912.8860925510526
leaf_count=3149 23479 7431 3704 3039 44361 12440 41200 34638 9231
internal_value=0 0.795698 0.219884 0.121678 -0.120738 -0.390545 0.376079 0.425601 0.564826
internal_weight=0 4393.06 43522.7 33880.6 17349.7 11614.7 16531 5735 9642.06
internal_count=182672 30910 151762 138827 94478 56801 44349 37677 12935
shrinkage=0.1


Tree=22
num_leaves=10
num_cat=0
split_feature=19 15 8 3 7 19 19 17 14
split_gain=1302.6 2177.13 1202.2 1108.45 1920.91 1267.02 610.623 552.388 416.087
threshold=1855.5803833007815 2.8154394626617436 -0.049760599324475754 1.6361777078728783 0.66096599768361564 664.10159301757824 1689.487731933594 2.3224999904632573 1.0290479660034182
decision_type=2 2 2 2 2 2 2 2 2
left_child=1 6 -3 4 -4 -5 8 -8 -1
right_child=-2 2 3 5 -6 -7 7 -9 -10
leaf_value=-0.13224487458741682 0.09742572119190096 0.096804763278579412 -0.049054402861798505 -0.085474879981741733 0.023814831924884025 0.075423018050151502 0.084463234770938783 -0.19174372031350198 -0.017847247667798882
leaf_weight=1286.70581853576 2352.2368150390685 2271.9034874951467 4106.2777775656432 534.17935213726014 30249.807460081298 5575.5037356233224 350.68262457847595 88.321036402136087 423.3477123118937
leaf_count=8962 1428 3880 62268 17958 77527 8542 287 535 1285
internal_value=0 0.211224 0.260626 0.220844 0.151021 0.613225 -0.77027 0.280308 -1.04001
internal_weight=0 44886.7 42737.7 40465.8 34356.1 6109.68 2149.06 439.004 1710.05
internal_count=182672 181244 170175 166295 139795 26500 11069 822 10247
shrinkage=0.1


Tree=23
num_leaves=10
num_cat=0
split_feature=16 16 16 19 14 3 7 8 4
split_gain=1170.77 1940.72 1955.65 2987.34 2077.32 1302.72 1440.77 1138.61 804.055
threshold=25.486200332641605 23.22245025634766 22.183850288391117 1292.4387817382815 1.184921979904175 0.23189508810331919 4.2347910993989979 -0.049760599324475754 2.8433021177649018
decision_type=2 2 2 2 2 2 2 2 2
left_child=1 2 5 -4 -5 6 -1 -7 -3
right_child=-2 8 3 4 -6 7 -8 -9 -10
leaf_value=-0.11912593486036115 -0.13332994303924059 0.10218681176460061 -0.15398523931146299 -0.141834332581427 0.076568114970246751 0.10440487926682883 0.036751758568228342 0.025687055425688079 -0.15830171195294024
leaf_weight=1268.6036561150104 472.7546080192551 3596.4631844805554 1599.1282769194804 574.05218651052564 1775.1348961200565 1939.8646292239428 1109.2705087810755 34097.078120363411 120.12663228437304
leaf_count=9002 7996 7243 21957 4386 2942 1984 1768 124548 846
internal_value=0 0.243942 0.183121 -0.486835 0.23093 0.252011 -0.464502 0.299322 0.936545
internal_weight=0 46079.7 42363.1 3948.32 2349.19 38414.8 2377.87 36036.9 3716.59
internal_count=182672 174676 166587 29285 7328 137302 10770 126532 8089
shrinkage=0.1


Tree=24
num_leaves=10
num_cat=0
split_feature=19 10 7 17 10 19 20 20 12
split_gain=1118.28 1874.63 1987.61 1934.74 1998.51 1326.99 2511.65 1406.28 1218.26
threshold=1855.5803833007815 0.58129069209098827 3.734750445815306 1.8313999772071841 0.64590153098106395 991.44360351562511 1549.4724731445315 1381.4878540039065 1.0563899874687197
decision_type=2 2 2 2 2 2 2 2 2
left_child=1 2 5 4 -3 7 -7 -1 -5
right_child=-2 3 -4 8 -6 6 -8 -9 -10
leaf_value=0.015669799826181642 0.090341593532383302 -0.12253979455209348 0.071539909619108361 -0.091301107469826531 0.13642765876422053 0.089460269929547157 0.0083828093290363708 -0.061352552912179906 0.044506471887975622
leaf_weight=5719.8219791138545 2198.0003307051957 410.29721347615123 7517.1762339118868 3712.7069356087595 1069.0590442046523 5085.025792083703 15346.634814424906 4044.3363669035025 801.54065652191639
leaf_count=71162 1428 2534 7906 16128 1378 6537 44443 30009 1147
internal_value=0 0.172814 0.255379 -0.346571 0.645063 0.140802 0.285709 -0.162411 -0.671742
internal_weight=0 43706.6 37713 5993.6 1479.36 30195.8 20431.7 9764.16 4514.25
internal_count=182672 181244 160057 21187 3912 152151 50980 101171 17275
shrinkage=0.1


Tree=25
num_leaves=10
num_cat=0
split_feature=14 19 5 18 19 18 19 15 10
split_gain=1104.88 1447.68 1142.17 1839.64 2261.9 1698.74 1300.28 1488.66 1237.61
threshold=1.6160629987716677 688.90280151367199 2.754811831095815 12.608099937438967 682.41567993164074 21.448449134826664 1750.654724121094 2.7991112470626835 0.51012375950813305
decision_type=2 2 2 2 2 2 2 2 2
left_child=2 -2 3 -1 8 -4 7 -7 -5
right_child=1 -3 5 4 -6 6 -8 -9 -10
leaf_value=0.025042606991496859 -0.10227073435428001 0.091191213423411521 0.075604394453540627 0.12043713948434419 -0.070280959292844419 -0.10131541563062935 0.076957159803241512 0.011546000255284482 -0.13839642903490149
leaf_weight=8196.3766350657679 432.73211337579414 3483.2628700803034 5627.9419116079807 1066.674912665505 5927.1414712085389 1256.2439483571798 2786.2901741862297 16288.37327937223 220.86336858570576
leaf_count=62195 23479 7431 4889 2521 37061 7877 2112 33861 1246
internal_value=0 0.697548 0.141955 -0.0736862 -0.441859 0.269971 0.135331 0.0344986 0.758322
internal_weight=0 3915.99 41369.9 15411.1 7214.68 25958.8 20330.9 17544.6 1287.54
internal_count=182672 30910 151762 103023 40828 48739 43850 41738 3767
shrinkage=0.1


Tree=26
num_leaves=10
num_cat=0
split_feature=14 19 5 18 4 8 2 20 0
split_gain=946.812 1234.75 1069.15 1323.46 1796.98 1861.6 1374.27 1178.11 1118.91
threshold=1.6160629987716677 688.90280151367199 3.9123892539498955 22.62080001831055 0.52603004136667753 0.0051293617010694046 0.95898840752993431 2138.709106445313 0.015750023851935354
decision_type=2 2 2 2 2 2 2 2 2
left_child=2 -2 3 4 5 -1 -5 -8 -4
right_child=1 -3 8 6 -6 -7 7 -9 -10
leaf_value=-0.035353510204606482 -0.10192839681530685 0.084892893325821506 0.04425746346945942 -0.084183207412852096 0.045003931770904997 0.11698442725879964 -0.035122661211675101 0.067861521699603453 -0.041710009975710866
leaf_weight=7288.5243113809265 392.80962015595287 3373.6517383446917 13144.503418216482 3167.2354530729353 9705.290466485545 898.60560532938689 3231.8478037640452 1689.032228961587 1708.7921057250351
leaf_count=76130 23479 7431 18535 14909 21080 755 11102 3280 5971
internal_value=0 0.653474 0.129635 0.00727827 0.159024 -0.185988 -0.328347 0.00243156 0.343612
internal_weight=0 3766.46 40833.8 25980.5 17892.4 8187.13 8088.12 4920.88 14853.3
internal_count=182672 30910 151762 127256 97965 76885 29291 14382 24506
shrinkage=0.1


Tree=27
num_leaves=10
num_cat=0
split_feature=3 5 14 2 18 18 20 20 19
split_gain=966.984 1336.3 1780.49 1204.26 1551.48 1329.37 1108.65 1451.41 1019
threshold=1.7575369091084145 1.8669306261061174 1.4057302474975588 0.82899738297443559 9.1806502342224139 14.676650047302248 -7169.6694335937491 1.0000000180025095e-35 664.10159301757824
decision_type=2 2 2 2 2 2 2 2 2
left_child=1 3 6 4 -1 -5 -3 -8 -2
right_child=8 2 -4 5 -6 -7 7 -9 -10
leaf_value=0.022631067120554228 -0.092824186171213782 0.090910529331632919 0.068117015952987234 0.075786738450151075 -0.092464891338430083 -0.14030792924570185 -0.19671886846670331 0.0057087903300636856 0.070816497001406895
leaf_weight=1770.415604009293 412.50994490366429 1511.2370116710663 6067.1626352113672 1631.7225443706848 3451.9179551084526 342.06121262628585 356.76565581187606 23826.912835380994 4590.8473444767296
leaf_count=23934 16013 1163 9962 2645 60387 2355 1546 57768 6899
internal_value=0 0.105901 0.194057 -0.283122 -0.534545 0.381909 0.0789757 0.0270012 0.572802
internal_weight=0 38958.2 31762.1 7196.12 5222.33 1973.78 25694.9 24183.7 5003.36
internal_count=182672 159760 70439 89321 84321 5000 60477 59314 22912
shrinkage=0.1


Tree=28
num_leaves=10
num_cat=0
split_feature=16 16 16 19 15 8 20 1 19
split_gain=904.383 1382.96 1498.31 2532.98 1888.85 1069.25 1145.73 683.03 2800.46
threshold=25.486200332641605 23.22245025634766 22.183850288391117 1292.4387817382815 3.4106396436691289 -0.053263954383558264 1627.582702636719 1.5712901651313451 1454.8491210937502
decision_type=2 2 2 2 2 2 2 2 2
left_child=1 2 5 -4 -5 -1 -7 -3 -9
right_child=-2 7 3 4 -6 6 -8 8 -10
leaf_value=0.097645665364100714 -0.13028235582221756 0.10916572279185886 -0.15298955561091945 -0.14422588715197276 0.071042663041490151 0.032111708153721323 -0.0044203309623660229 -0.17703394258788993 0.1480831897911293
leaf_weight=1567.3768955487758 424.20723666856065 2251.1125581348315 1445.5799298961647 539.45136831142008 1639.142077350989 16630.258459172677 17740.877437545918 451.67951445654035 632.56296080723405
leaf_count=1398 7996 4739 21957 4476 2852 84580 51324 2705 645
internal_value=0 0.159796 0.107634 -0.504945 0.176218 0.169443 0.132565 0.777909 0.12535
internal_weight=0 42898 39562.7 3624.17 2178.59 35938.5 34371.1 3335.36 1084.24
internal_count=182672 174676 166587 29285 7328 137302 135904 8089 3350
shrinkage=0.1


Tree=29
num_leaves=10
num_cat=0
split_feature=16 17 16 5 18 16 10 4 17
split_gain=847.86 1425.29 2017.95 1997.48 2003.28 1737.32 1542.56 1308.77 1112.84
threshold=20.806950569152836 1.7199499607086184 21.02194976806641 2.6986425197794288 9.9174499511718768 21.154699325561527 0.58519876003265392 4.6548321331977585 1.8313999772071841
decision_type=2 2 2 2 2 2 2 2 2
left_child=8 2 -2 4 -3 -6 -5 -8 -1
right_child=1 3 -4 6 5 -7 7 -9 -10
leaf_value=-0.031894700591214423 -0.1280789979997991 0.057549131570577922 0.051502272573408205 0.026247434621897676 -0.02440249755887151 -0.13779542337765519 -0.062466213081222355 0.097020790882483235 0.069093041969944008
leaf_weight=1396.6576836705208 668.00074484245852 1342.2499254853465 9342.6660262099467 15328.74325909093 2817.2297515254468 2596.3758854181506 3804.134685497731 592.39314448833466 4962.8353348318487
leaf_count=10085 15218 4230 62073 27057 12451 30989 14395 627 5547
internal_value=0 0.073487 0.394865 -0.048031 -0.517208 -0.788293 0.112709 -0.409283 0.469096
internal_weight=0 36491.8 10010.7 26481.1 6755.86 5413.61 19725.3 4396.53 6359.49
internal_count=182672 167040 77291 89749 47670 43440 42079 15022 15632
shrinkage=0.1


Tree=30
num_leaves=10
num_cat=0
split_feature=20 18 7 7 16 11 18 18 16
split_gain=821.981 1131.22 1417.69 1381.24 1377.65 1141.72 3421.85 1278.97 1040.6
threshold=-65326.853515624993 28.437199592590336 3.5644730047241389 4.2347910993989979 23.355250358581547 0.8488917648792268 19.219900131225589 23.903100013732914 21.012450218200687
decision_type=2 2 2 2 2 2 2 2 2
left_child=-1 3 -3 5 8 6 -2 -7 -4
right_child=1 2 4 -5 -6 7 -8 -9 -10
leaf_value=0.10525868525471477 0.010755450107478734 -0.12610255815380997 0.044987587507006647 0.077290884754593683 0.16299803118692074 0.062067515414611862 -0.12216202222177437 0.0014782547698434648 -0.050225686079809533
leaf_weight=922.98180562071502 14731.599996954901 1188.5392358098179 1669.9036726132035 3462.4908226132393 441.08220365643501 6997.7092912280932 2227.2185114771128 6935.9761316264048 3656.73312414065
leaf_count=757 118891 8672 2375 2719 303 8995 10040 17920 12000
internal_value=0 0.0997779 -0.267894 0.174241 -0.0627275 0.107077 -0.0671772 0.319136 -0.203678
internal_weight=0 41311.3 6956.26 34355 5767.72 30892.5 16958.8 13933.7 5326.64
internal_count=182672 181915 23350 158565 14678 155846 128931 26915 14375
shrinkage=0.1


Tree=31
num_leaves=10
num_cat=0
split_feature=19 18 20 16 5 16 7 10 19
split_gain=837.796 1415.95 1451.16 1446.22 1691.81 1686.33 1196.22 1057.65 1469.22
threshold=1855.5803833007815 28.261750221252445 -7169.6694335937491 21.001399993896488 4.3861262012044957 22.485799789428714 4.1750781038323117 0.65443244576454174 1035.915710449219
decision_type=2 2 2 2 2 2 2 2 2
left_child=1 6 -3 4 -4 -5 7 8 -1
right_child=-2 2 3 5 -6 -7 -8 -9 -10
leaf_value=-0.021388750493321312 0.076469346872851313 0.085430862644671438 -0.1929736530904779 -0.12968365355293116 0.085484148659820181 0.0090047215349055177 0.072744807791141786 0.11790273665035136 0.024467422803220944
leaf_weight=11453.922735661501 1865.5008413642645 853.27993927150965 266.83584766462445 2730.4444682840258 1142.0811591222882 1290.1889232769608 3353.2559141218662 876.20085900742561 17906.496244619135
leaf_count=109145 1428 722 1541 13320 987 6786 2784 1989 43970
internal_value=0 0.0795187 -0.356104 -0.546671 0.324685 -0.852035 0.161024 0.0981446 0.0657783
internal_weight=0 39872.7 6282.83 5429.55 1408.92 4020.63 33589.9 30236.6 29360.4
internal_count=182672 181244 23356 22634 2528 20106 157888 155104 153115
shrinkage=0.1


Tree=32
num_leaves=10
num_cat=0
split_feature=3 11 10 18 12 2 16 17 5
split_gain=753.788 1203.01 1913.76 1601.7 1525.37 2179.52 1096.47 1521.76 1323.14
threshold=1.5883739334023326 0.8488917648792268 0.34758293628692633 23.903100013732914 1.026861369609833 0.82899738297443559 20.987150192260746 1.7112500071525576 3.2815810681591411
decision_type=2 2 2 2 2 2 2 2 2
left_child=1 2 4 -3 -1 -6 8 -8 -5
right_child=-2 3 -4 6 5 -7 7 -9 -10
leaf_value=0.04050660785233158 0.04308663655362896 0.058165427805502781 -0.12072771733554342 -0.10572677302265804 -0.070117568565573232 0.063060571081778802 0.069472292807521763 -0.028342126080862614 0.073210410269869172
leaf_weight=4361.6042170668952 5916.4332827599719 6955.5740463864058 1648.8824638300575 474.23747926391661 4798.6169460737146 1649.0791245335713 1872.762898221612 10465.508197329007 3099.420715354383
leaf_count=15509 29356 9016 7967 2750 74958 2813 3695 33627 2981
internal_value=0 0.0452638 -0.204725 0.181467 -0.0515189 -0.360426 0.00646043 -0.134828 0.494002
internal_weight=0 35325.7 12458.2 22867.5 10809.3 6447.7 15911.9 12338.3 3573.66
internal_count=182672 153316 101247 52069 93280 77771 43053 37322 5731
shrinkage=0.1


Tree=33
num_leaves=10
num_cat=0
split_feature=8 19 18 16 10 13 16 10 5
split_gain=732.805 727.108 1638.95 1230.48 1082.35 1215.55 1029.74 1072.37 1000.66
threshold=-0.053263954383558264 1511.585388183594 29.157500267028812 21.221099853515629 0.65443244576454174 0.9926283359527589 22.305600166320804 0.56272077560424816 3.9123892539498955
decision_type=2 2 2 2 2 2 2 2 2
left_child=-1 2 4 8 5 -2 -3 -8 -4
right_child=1 6 3 -5 -6 -7 7 -9 -10
leaf_value=0.074381415615121335 0.020462536976050185 0.013076027505484917 -0.15977741751150365 -0.14881489559201874 0.11203848503160341 -0.021175589165269085 0.13524570337843264 -0.092835348295128475 0.039645055144904622
leaf_weight=1652.3487627943978 17193.740763204405 4744.7009815601632 332.4138361075893 1222.0789477294311 945.77850473346189 11834.620135962032 1474.6331462962553 237.54592774156481 1006.4420029856265
leaf_count=2896 61210 11439 2079 8712 1887 89499 974 2037 1939
internal_value=0 0.0644328 0.00358646 -0.763825 0.0692184 0.0348652 0.370888 1.03501 -0.100942
internal_weight=0 38992 32535.1 2560.93 29974.1 29028.4 6456.88 1712.18 1338.86
internal_count=182672 179776 165326 12730 152596 150709 14450 3011 4018
shrinkage=0.1


Tree=34
num_leaves=10
num_cat=0
split_feature=20 20 15 19 17 7 16 5 19
split_gain=672.122 929.043 680.969 1038.21 894.373 770.25 1034.69 748.981 452.387
threshold=-65326.853515624993 -34702.201171874993 2.8778284788131718 1968.5317993164065 1.7615000009536745 3.9188413709403602 20.816400527954105 4.6860582901654322 1299.341979980469
decision_type=2 2 2 2 2 2 2 2 2
left_child=8 -2 3 4 -3 6 -4 -7 -1
right_child=1 2 5 -5 -6 7 -8 -9 -10
leaf_value=-0.14873439731526442 -0.28143513044636337 0.030695844833426984 0.041125758265310196 0.10305931396401269 -0.10534049083731688 0.060715228689353522 -0.0055446928518582154 -0.01220147388851084 0.11911267261414307
leaf_weight=66.355823906138539 108.97726028691977 676.34905451536179 5943.0358850522898 424.86689477413893 1680.8849116819911 5106.8874186519533 23624.113806795795 1943.6587641276419 763.551951803267
leaf_count=533 756 2433 15726 171 11310 5757 142007 3755 224
internal_value=0 0.0648199 0.0729822 -0.403725 -0.663168 0.10923 0.0383901 0.406166 0.972681
internal_weight=0 39508.8 39399.8 2782.1 2357.23 36617.7 29567.1 7050.55 829.908
internal_count=182672 181915 181159 13914 13743 167245 157733 9512 757
shrinkage=0.1


Tree=35
num_leaves=10
num_cat=0
split_feature=14 17 20 20 16 17 17 17 3
split_gain=722.134 874.483 764.278 1271.92 829.402 2176.67 2150.18 487.49 462.655
threshold=1.6160629987716677 1.1856999993324282 -7169.6694335937491 -324.86610412597651 20.984000205993656 1.8456000089645392 1.6680499911308291 2.3656500577926645 0.21919459162126595
decision_type=2 2 2 2 2 2 2 2 2
left_child=2 -2 7 -4 5 -5 -6 -1 -3
right_child=1 8 3 4 6 -7 -8 -9 -10
leaf_value=0.085883171654389204 -0.071830731966000913 -0.10853717136468242 -0.18709741797974974 -0.066886606302642079 0.041533576076899288 0.053304103464455438 -0.023952178288104344 -0.19996344460505722 0.083583426347139514
leaf_weight=1418.7525350255892 477.093949011527 129.27804961754009 354.35839567519724 1898.0182559327222 6816.8722940986045 7269.6081403195858 18934.049017202575 59.692622095346451 2630.1714943281841
leaf_count=1759 21519 2160 2729 16688 42581 9303 78445 257 7231
internal_value=0 0.528697 0.0361712 0.0066195 0.0258219 0.284074 -0.0661384 0.739864 0.744815
internal_weight=0 3236.54 36751.4 35272.9 34918.5 9167.63 25750.9 1478.45 2759.45
internal_count=182672 30910 151762 149746 147017 25991 121026 2016 9391
shrinkage=0.1


Tree=36
num_leaves=10
num_cat=0
split_feature=19 19 17 16 16 5 2 16 1
split_gain=713.192 1360.82 991.827 2466.64 1688.65 1687.01 1643.58 592.805 538.345
threshold=1.0000000180025095e-35 618.71679687500011 1.6680499911308291 21.02194976806641 20.980850219726566 2.4719725443559333 0.25524581907795146 21.081999778747562 1.4473136679236205
decision_type=2 2 2 2 2 2 2 2 2
left_child=8 -2 3 -3 6 -6 -4 -5 -1
right_child=1 2 4 7 5 -7 -8 -9 -10
leaf_value=0.110455253046244 -0.10549474849597154 -0.12764203627410231 -0.17137273841088779 0.13286765106499676 -0.068123393025254581 -0.00031659324270098517 0.049025651037594223 0.046337965280470517 -0.16533706144275084
leaf_weight=935.0477429847233 1085.2430141598452 799.84123221877962 351.64773818757385 901.50815478572622 4686.3029618109576 16870.111231056973 7499.2395738512278 6440.2124986944254 74.110998194664717
leaf_count=2048 51672 8395 2113 1386 42778 42842 9919 20796 723
internal_value=0 0.0475561 0.0794974 0.388316 -0.00602819 -0.150646 0.390963 0.570098 0.898
internal_weight=0 38634.1 37548.9 8141.56 29407.3 21556.4 7850.89 7341.72 1009.16
internal_count=182672 179901 128229 30577 97652 85620 12032 22182 2771
shrinkage=0.1


Tree=37
num_leaves=10
num_cat=0
split_feature=14 5 12 16 16 17 1 8 16
split_gain=682.971 809.087 751.234 941.687 1132.12 2397.71 1549.57 804.549 663.978
threshold=1.6131854653358462 1.5558379955379447 1.0277037024497988 25.261750221252445 20.984000205993656 1.7199499607086184 0.6214684141391168 0.7047056341707808 21.081999778747562
decision_type=2 2 2 2 2 2 2 2 2
left_child=2 -2 7 4 6 -6 -4 8 -1
right_child=1 -3 3 -5 5 -7 -8 -9 -10
leaf_value=0.042920469812537193 0.0067967974116581358 0.10903220271573895 -0.1308073929392852 0.12759428211415064 0.017974049086811602 -0.084464529702133209 0.037778550819337675 -0.098618126702535919 0.0049023209810581739
leaf_weight=7018.1820406764746 1794.3722388043534 1359.2416201047599 614.96064441371709 448.55508366553113 4033.126091371756 5265.9048001326155 4643.2234252751805 606.12109618447721 13291.361602423713
leaf_count=12418 29303 2326 11612 903 39590 33533 7619 3302 42066
internal_value=0 0.509195 0.0240217 -0.146695 -0.190768 -0.40043 0.180026 0.146505 0.180441
internal_weight=0 3153.61 35921.4 15005.8 14557.2 9299.03 5258.18 20915.7 20309.5
internal_count=182672 31629 151043 93257 92354 73123 19231 57786 54484
shrinkage=0.1


Tree=38
num_leaves=10
num_cat=0
split_feature=3 7 16 8 10 5 16 16 1
split_gain=639.208 836.691 1044.24 998.365 731.445 678.352 1374.24 1083.95 646.774
threshold=1.8679655101900441 0.60084575646180083 20.639400482177738 -0.038648542753702893 0.099528055638074889 4.4263064448536422 20.639400482177738 23.22245025634766 1.6623267583068537
decision_type=2 2 2 2 2 2 2 2 2
left_child=1 2 -1 8 -4 7 -7 -5 -3
right_child=-2 3 4 5 -6 6 -8 -9 -10
leaf_value=0.049155296611933789 0.046213544656027068 0.097887692534837062 0.0098387768244699216 -0.014785922170628475 -0.10454148657356269 -0.53672054802429159 0.030414815699687604 0.061252311677424232 -0.021230617406703171
leaf_weight=922.69671883340925 3544.4829347061459 1835.9507228857838 768.44558199471794 19228.200236078817 2044.4827354759909 40.1912846788764 7655.8288812879473 2074.5014107946772 604.85338646732271
leaf_count=4029 20048 3117 19276 74639 39212 282 13094 7243 1732
internal_value=0 0.0167454 -0.430499 0.069921 -0.733148 0.0181919 0.272599 -0.0737399 0.683773
internal_weight=0 35175.2 3735.63 31439.5 2812.93 28998.7 7696.02 21302.7 2440.8
internal_count=182672 162624 62517 100107 58488 95258 13376 81882 4849
shrinkage=0.1


Tree=39
num_leaves=10
num_cat=0
split_feature=16 16 16 3 7 16 1 16 20
split_gain=614.747 996.726 978.729 872.853 905.839 726.242 661.914 1245.36 830.677
threshold=25.486200332641605 23.22245025634766 22.602800369262699 0.23189508810331919 4.6998207106579235 22.485799789428714 1.5265999149094922 25.261750221252445 1241.402770996094
decision_type=2 2 2 2 2 2 2 2 2
left_child=1 2 3 4 -1 -5 -3 8 -8
right_child=-2 6 -4 5 -6 -7 7 -9 -10
leaf_value=-0.10490261780246385 -0.12400272691173864 0.098735339150203605 -0.12342237722187377 0.0060511036947732836 0.035576687777914368 0.11938443668165855 0.11693756106199588 0.14571094538170867 -0.14216996893986461
leaf_weight=1394.288515227614 361.81185218109749 1850.0525176092051 610.34371731663123 31887.767347533489 681.88059805333614 572.85710177198052 159.7669477686286 372.68226934596896 519.98287986032665
leaf_count=11513 7996 4671 10308 142402 1416 948 191 242 2985
internal_value=0 0.0646912 0.0181576 0.0403884 -0.587774 0.0806133 0.627615 -0.00567068 -0.810372
internal_weight=0 38049.6 35147.1 34536.8 2076.17 32460.6 2902.48 1052.43 679.75
internal_count=182672 174676 166587 156279 12929 143350 8089 3418 3176
shrinkage=0.1


Tree=40
num_leaves=10
num_cat=0
split_feature=19 19 14 5 17 12 9 0 1
split_gain=614.442 1185.72 1083.01 821.919 1112.04 808.746 584.536 546.279 457.279
threshold=1.0000000180025095e-35 618.71679687500011 1.5683122277259829 3.9468945440909207 1.5200499892234807 1.0431072711944582 0.11510798723764031 -0.028279794635477081 1.4473136679236205
decision_type=2 2 2 2 2 2 2 2 2
left_child=8 -2 3 4 -3 -5 7 -4 -1
right_child=1 2 6 5 -6 -7 -8 -9 -10
leaf_value=0.1049708428249605 -0.10509773715731792 0.03122839266732776 0.062946399950679896 0.012726735014847763 -0.025381965951361742 0.10979849367226682 0.085251732803728136 -0.061351307881077413 -0.15540495218823533
leaf_weight=861.42067947238684 989.84447618853301 4461.2410566327162 749.06516094133258 11368.698296851479 15582.894690352725 925.71590311080217 2448.2906284516212 664.71727119060233 70.71705286949873
leaf_count=2048 51672 18628 1220 23127 71024 438 6887 6905 723
internal_value=0 0.0272875 0.05685 -0.00294132 -0.127794 0.200592 0.557155 0.0449759 0.848107
internal_weight=0 37190.5 36200.6 32338.5 20044.1 12294.4 3862.07 1413.78 932.138
internal_count=182672 179901 128229 113217 89652 23565 15012 8125 2771
shrinkage=0.1


Tree=41
num_leaves=10
num_cat=0
split_feature=20 20 14 5 12 16 14 3 17
split_gain=595.285 1126.97 592.832 850.174 621.253 922.235 843.568 606.147 389.248
threshold=-7169.6694335937491 -324.86610412597651 1.5703499317169192 1.4954469706479729 1.0277828574180605 20.987150192260746 1.1241542696952822 1.3543653756161678 2.3656500577926645
decision_type=2 2 2 2 2 2 2 2 2
left_child=8 -2 4 7 6 -6 -3 -4 -1
right_child=1 2 3 -5 5 -7 -8 -9 -10
leaf_value=0.078269188852614913 -0.17652848159819773 -0.018757114835347477 -0.077783622940405348 0.088771543297776104 0.015901891179716608 -0.038950161849867541 0.025626354661230782 0.034544588154180392 -0.17701256925308315
leaf_weight=1379.351241833996 348.11456031911075 6495.6684137568809 721.91707374271937 1879.0736270616762 4973.7204322922044 7979.7683048727922 12555.368571526837 1422.287128936965 59.851122215390205
leaf_count=2012 3024 23274 21175 4862 17742 60888 31722 17716 257
internal_value=0 0.0181726 0.0355408 0.397197 -0.00995253 -0.178896 0.104926 -0.0332476 0.673301
internal_weight=0 36375.9 36027.8 4023.28 32004.5 12953.5 19051 2144.2 1439.2
internal_count=182672 180403 177379 43753 133626 78630 54996 38891 2269
shrinkage=0.1


Tree=42
num_leaves=10
num_cat=0
split_feature=19 18 20 7 16 16 7 19 20
split_gain=563.33 983.5 986.68 947.634 711.153 1094.67 946.905 681.982 1357.42
threshold=1855.5803833007815 28.261750221252445 -7169.6694335937491 4.2347910993989979 25.261750221252445 21.012450218200687 3.4931885930945463 986.94290161132824 1549.4724731445315
decision_type=2 2 2 2 2 2 2 2 2
left_child=1 3 -3 7 5 -4 -6 -1 -9
right_child=-2 2 4 -5 6 -7 -8 8 -10
leaf_value=-0.019466405843549486 0.062746588109622942 0.070557170189754409 0.0083689757967275579 0.063999358798676395 -0.12077985959922977 -0.10116389200838345 0.1453678215308018 0.06085595892801713 -0.0017602783983329756
leaf_weight=9148.2630624186713 1557.5188727732748 736.22635446488857 1316.3597644735128 2788.0620584823191 205.3252802817151 2967.2898255749606 371.74634001869708 4616.6307413810864 13818.322279037442
leaf_count=103087 1428 722 2955 2544 2634 16877 168 7489 44768
internal_value=0 0.013703 -0.371387 0.0846976 -0.534824 -0.675203 0.505408 0.0285093 0.139272
internal_weight=0 35968.2 5596.95 30371.3 4860.72 4283.65 577.072 27583.2 18435
internal_count=182672 181244 23356 157888 22634 19832 2802 155344 52257
shrinkage=0.1


Tree=43
num_leaves=10
num_cat=0
split_feature=19 19 18 5 2 14 2 6 18
split_gain=549.766 1012.25 1000.03 1016.41 1346.32 1239.17 693.384 417.976 383.988
threshold=1.0000000180025095e-35 618.71679687500011 9.0269503593444842 1.5446775928012959 0.8103257752484615 1.4299753904342654 0.24124097709061215 0.024369026074055004 24.201399803161625
decision_type=2 2 2 2 2 2 2 2 2
left_child=8 -2 6 4 -4 -5 7 -3 -1
right_child=1 2 3 5 -6 -7 -8 -9 -10
leaf_value=0.10055745351337127 -0.10455449057029727 0.11987366994515303 -0.099211318666302811 -0.004028857375859808 0.024972874790749069 0.048948212099813232 0.085786454014675106 -0.12035872128050129 -0.14698351581800509
leaf_weight=811.92782672587782 872.25146332592703 94.276158271357417 2205.7900448904838 23706.085275055375 1442.0592110138386 5422.9328709458932 2198.9360785135068 285.217465239577 65.451277213171124
leaf_count=2012 51672 184 37740 65140 3140 15493 3689 2843 759
internal_value=0 0.0169425 0.0432362 -0.00395704 -0.501367 0.0583748 0.642524 -0.602331 0.816819
internal_weight=0 36227.5 35355.3 32776.9 3647.85 29129 2578.43 379.494 877.379
internal_count=182672 179901 128229 121513 40880 80633 6716 3027 2771
shrinkage=0.1


Tree=44
num_leaves=10
num_cat=0
split_feature=8 19 18 10 18 10 16 16 19
split_gain=525.07 532.752 1113.99 1031.82 1135.7 953.234 816.41 919.35 760.419
threshold=-0.053263954383558264 1428.117614746094 29.343250274658207 0.64590153098106395 23.741049766540531 0.55529391765594494 22.485799789428714 20.974500656127933 1855.5803833007815
decision_type=2 2 2 2 2 2 2 2 2
left_child=-1 2 3 4 -2 6 7 -3 -7
right_child=1 5 -4 -5 -6 8 -8 -9 -10
leaf_value=0.06322657160466115 0.0074851083817570234 0.10244279555717727 -0.090809604115253822 0.1018523667838039 -0.041873222153814831 -0.038373591036405925 0.12206925179422537 -0.018013688463941552 0.057077802974937676
leaf_weight=1401.596286745742 18559.55565113225 999.8173702955246 1457.1337941787206 936.77090357709676 6222.2246082667261 2890.567969621392 1323.3376241540536 1719.7235090117902 1170.2544070351869
leaf_count=2896 127039 682 9443 1915 20594 11302 1122 6656 1023
internal_value=0 0.00875396 -0.0583534 -0.0101155 -0.04911 0.233744 0.577306 0.263295 -0.108453
internal_weight=0 35279.4 27175.7 25718.6 24781.8 8103.7 4042.88 2719.54 4060.82
internal_count=182672 179776 158991 149548 147633 20785 8460 7338 12325
shrinkage=0.1


Tree=45
num_leaves=10
num_cat=0
split_feature=7 1 11 16 16 16 20 20 16
split_gain=539.357 581.648 1174.84 971.962 1289.8 1077.46 579.218 988.943 716.266
threshold=5.8311932540664362 1.7079904345820087 0.95590859651565574 23.209799766540531 22.258150100708011 23.453249931335453 -7169.6694335937491 744.98159790039074 21.081999778747562
decision_type=2 2 2 2 2 2 2 2 2
left_child=1 2 3 4 -1 -5 -3 -8 -9
right_child=-2 6 -4 5 -6 -7 7 8 -10
leaf_value=-0.0043175319396097861 0.06210694436717288 0.060784020908931514 0.042597938768219545 0.1068245205427731 -0.11133172244075798 -0.12374432425791576 -0.1949684176280522 0.00083171987858570752 -0.060840498092508813
leaf_weight=15827.16143651423 1477.4717551134527 789.28396005928516 7166.5971552967094 1299.5862358408049 1209.8021845959593 237.60757990751881 340.29285847209394 5172.372306926176 2958.4721863039304
leaf_count=109388 1442 846 13141 1568 16773 8439 1707 12528 16840
internal_value=0 0.00480639 0.0821284 -0.0505843 -0.119338 0.71024 -0.210079 -0.286465 -0.21621
internal_weight=0 35001.2 25740.8 18574.2 17037 1537.19 9260.42 8471.14 8130.84
internal_count=182672 181230 149309 136168 126161 10007 31921 31075 29368
shrinkage=0.1


Tree=46
num_leaves=10
num_cat=0
split_feature=19 19 18 5 16 16 18 19 9
split_gain=487.692 892.244 864.379 1534.17 1270.02 1118.51 1027.74 736.553 423.872
threshold=1.0000000180025095e-35 618.71679687500011 11.844150066375734 2.4719725443559333 20.822750091552738 21.02194976806641 21.448449134826664 1412.408874511719 0.20536551144446727
decision_type=2 2 2 2 2 2 2 2 2
left_child=-1 -2 5 4 -4 7 -5 -3 -7
right_child=1 2 3 6 -6 8 -8 -9 -10
leaf_value=0.078440602195193887 -0.10415483023131689 -0.092471477605129235 0.023087681977737973 0.046294523883134049 -0.084789784946733393 0.023892508300871893 -0.0045907292964378144 0.12226634742011709 0.079669178066279808
leaf_weight=828.23542020609602 787.0273400467122 922.33592265052721 1544.8885929593816 5127.1647654948756 3705.6497125553433 2500.7476278794929 17539.422292710748 190.5446664467454 2999.8083220592234
leaf_count=2771 51672 8130 3732 6568 39638 15117 47878 165 7001
internal_value=0 0.00937399 0.0334096 -0.0436051 -0.530525 0.358396 0.0692361 -0.554889 0.543366
internal_weight=0 35317.6 34530.6 27917.1 5250.54 6613.44 22666.6 1112.88 5500.56
internal_count=182672 179901 128229 97816 43370 30413 54446 8295 22118
shrinkage=0.1


Tree=47
num_leaves=10
num_cat=0
split_feature=20 20 20 20 18 19 19 18 2
split_gain=453.83 810.682 458.355 908.197 533.655 377.839 340.74 30.0748 25.3525
threshold=-65326.853515624993 -34702.201171874993 -7169.6694335937491 -324.86610412597651 28.075650215148929 1299.341979980469 1261.5562744140627 12.783549785614015 0.51354711132931719
decision_type=2 2 2 2 2 2 2 2 2
left_child=5 -2 6 8 -5 -1 7 -3 -4
right_child=1 2 3 4 -6 -7 -8 -9 -10
leaf_value=-0.14674831081551501 -0.26958019484844814 -0.047820094069872449 -0.13362597393785677 0.0075613260513833908 -0.025675666882101301 0.10971135138640038 0.11543573457956068 -0.21394711667975669 -0.19896052394664665
leaf_weight=61.203451251611114 107.64884592080489 19.486590960994363 144.97193734720349 28257.773929303163 5824.0111184520647 589.35152836889029 512.39105796813965 29.657006783410907 163.45535343140364
leaf_count=533 756 332 2076 153670 23709 224 234 190 948
internal_value=0 0.00939556 0.017942 0.0032721 0.0187996 0.850576 0.911877 -1.54219 -1.69729
internal_weight=0 35059.4 34951.7 34390.2 34081.8 650.555 561.535 49.1436 308.427
internal_count=182672 181915 181159 180403 177379 757 756 522 3024
shrinkage=0.1


Tree=48
num_leaves=10
num_cat=0
split_feature=7 5 17 16 20 7 8 5 17
split_gain=500.453 730.436 906.159 1174.02 731.763 669.625 1684.49 1534.54 774.009
threshold=4.0676735141079687 4.6860582901654322 2.4536000490188603 21.888249397277836 1278.8142700195315 1.7006634044185496 0.046896679120073843 3.1068047300847037 2.2143499851226811
decision_type=2 2 2 2 2 2 2 2 2
left_child=5 -2 4 -4 -3 6 -1 -7 -9
right_child=1 2 3 -5 -6 7 -8 8 -10
leaf_value=-0.0022746761143979831 0.049433219547973042 -0.33773147306660589 -0.23337730482190683 0.040749775691522612 0.032747222826078219 -0.078017923126135813 0.095188227463320493 -0.040100125632072249 0.018182889243632785
leaf_weight=12869.485876098042 4585.8883797405288 52.438880875706673 375.94765809178352 264.68042770773172 1549.0777242705226 3372.0948765642243 2053.9301531934179 3348.3961106664501 7116.2118760552257
leaf_count=118521 6795 354 1842 830 3168 22672 2066 12196 14228
internal_value=0 0.26573 -0.201854 -1.20428 0.200505 -0.0353737 0.111543 -0.193822 -0.00471535
internal_weight=0 6828.03 2242.14 640.628 1601.52 28760.1 14923.4 13836.7 10464.6
internal_count=182672 12989 6194 2672 3522 169683 120587 49096 26424
shrinkage=0.1


Tree=49
num_leaves=10
num_cat=0
split_feature=7 16 20 18 8 19 16 10 18
split_gain=462.889 542.904 934.734 529.34 1250.63 988.483 2187.97 1004.94 777.876
threshold=5.8311932540664362 21.701700210571293 914.67971801757824 24.5917501449585 0.068135960206215027 1329.7174072265627 21.085199356079105 0.55529391765594494 12.11045026779175
decision_type=2 2 2 2 2 2 2 2 2
left_child=3 -2 -3 4 8 6 -5 -7 -1
right_child=1 2 -4 5 -6 7 -8 -9 -10
leaf_value=0.019468151927934538 0.091849161591308917 0.056293727533434749 -0.31394262229016062 0.029597701919144289 0.051685198151097102 0.047039031104087699 -0.10831296428934466 -0.026684309978729694 -0.024286696630093998
leaf_weight=7428.7363718011184 1086.1649522669613 222.47893336415291 95.143411546945572 1932.2567713223398 5232.6640762230381 3300.3555157259107 2836.5934902229346 4197.2607767651789 8961.4599231310422
leaf_count=82069 722 189 531 4556 6683 5742 16684 15241 50255
internal_value=0 0.582674 -0.563625 -0.00277355 0.091355 -0.168685 -0.524486 0.0577278 -0.0445501
internal_weight=0 1403.79 317.622 33889.3 21622.9 12266.5 4768.85 7497.62 16390.2
internal_count=182672 1442 720 181230 139007 42223 21240 20983 132324
shrinkage=0.1


Tree=50
num_leaves=10
num_cat=0
split_feature=19 15 13 5 11 12 15 12 5
split_gain=437.185 584.007 467.269 1150.43 1435.54 593.426 582.076 798.089 766.301
threshold=1968.5317993164065 2.7991112470626835 1.0088369846343999 4.3688078899849154 1.5517463088035586 1.0425034165382387 3.8928334712982182 1.0277828574180605 1.5446775928012959
decision_type=2 2 2 2 2 2 2 2 2
left_child=1 -1 6 4 -4 -5 7 -3 -8
right_child=-2 2 3 5 -6 -7 8 -9 -10
leaf_value=-0.061718237568337976 0.07171567630925843 0.011954481222560301 -0.026737817653748649 -0.037880633218230139 -0.23517425702882197 0.11494798447205412 -0.0092476630607440918 -0.03497138807769036 0.069609197494063191
leaf_weight=1459.9642917639576 871.46141627058387 16194.373725169804 5099.4906839436153 364.76781160570681 350.6449360428378 825.78782692924142 2017.2795177849475 4666.3089864572976 3161.4975589190144
leaf_count=10630 714 44379 65022 899 1878 339 26016 25671 7124
internal_value=0 0.00100029 0.0286683 -0.20806 -0.402616 0.68142 0.0890565 0.0145427 0.389032
internal_weight=0 34140.1 32680.2 6640.69 5450.14 1190.56 26039.5 20860.7 5178.78
internal_count=182672 181958 171328 68138 66900 1238 103190 70050 33140
shrinkage=0.1


Tree=51
num_leaves=10
num_cat=0
split_feature=20 20 19 19 18 14 10 19 5
split_gain=427.047 593.76 435.207 767.186 788.049 354.869 359.965 325.781 165.822
threshold=-65326.853515624993 -34702.201171874993 1.0000000180025095e-35 618.71679687500011 9.1806502342224139 1.3271852135658266 0.44750814139842993 1299.341979980469 2.0851383595764417
decision_type=2 2 2 2 2 2 2 2 2
left_child=7 -2 5 -4 -5 6 -3 -1 -7
right_child=1 2 3 4 -6 8 -8 -9 -10
leaf_value=-0.14142377629738997 -0.22614079048505364 0.12108018274712061 -0.10367274716023873 0.05546466143368857 -0.0029743066688389511 -0.15609376011377013 -0.14795124874830742 0.10772275224006743 0.15226659275004542
leaf_weight=55.539971206802875 112.68088520504534 634.50356228137389 705.75945100595709 2496.4961875528097 30074.997182660853 84.560215164441615 51.607480213046074 554.25402814522386 19.41233860515058
leaf_count=533 756 255 51394 7338 119656 1826 524 224 166
internal_value=0 0.00247111 0.0101439 -0.00730025 0.015091 0.742355 1.00325 0.844868 -0.960268
internal_weight=0 34180 34067.3 33277.3 32571.5 790.084 686.111 609.794 103.973
internal_count=182672 181915 181159 178388 126994 2771 779 757 1992
shrinkage=0.1


Tree=52
num_leaves=10
num_cat=0
split_feature=20 20 16 8 19 18 0 16 16
split_gain=409.864 975.173 992.655 1300.8 1336.37 1272.72 948.023 857.272 811.359
threshold=1619.5255126953127 2128.920776367188 19.583399772644047 0.046896679120073843 347.77879333496099 20.434650421142582 0.025767295256769254 19.725649833679203 20.984000205993656
decision_type=2 2 2 2 2 2 2 2 2
left_child=-1 2 -2 4 -4 -5 7 -3 -9
right_child=1 6 3 5 -6 -7 -8 8 -10
leaf_value=0.014254519035622483 0.075477355868304188 -0.20500166075352755 0.10682743383800825 0.075212137440760038 -0.089993714613781292 -0.033495282806259678 -0.13846278464910686 0.084451351522157714 0.01081895897827231
leaf_weight=14668.130132595426 853.36977484449744 158.66796275787055 372.02904636180028 1503.6056206561625 4392.4794284887612 3775.5237458478659 375.37959268456325 1936.6109222611412 6558.2833617206197
leaf_count=103016 595 1075 519 1152 33416 13146 3911 1557 24285
internal_value=0 -0.0776903 -0.27903 -0.367056 -0.745713 -0.025093 0.165314 0.232975 0.276277
internal_weight=0 19925.9 10897 10043.6 4764.51 5279.13 9028.94 8653.56 8494.89
internal_count=182672 79656 48828 48233 33935 14298 30828 26917 25842
shrinkage=0.1


Tree=53
num_leaves=10
num_cat=0
split_feature=8 19 16 14 17 15 19 20 20
split_gain=402.851 401.686 1089.53 1190.53 941.612 1020.22 1023.25 888.549 1285.87
threshold=-0.10691901753275471 1305.4898071289065 22.183850288391117 1.8808323144912722 2.4230500459671025 3.909207940101624 1968.5317993164065 958.58523559570324 1627.582702636719
decision_type=2 2 2 2 2 2 2 2 2
left_child=-1 2 7 -4 -3 6 -6 -2 -9
right_child=1 4 3 -5 5 -7 -8 8 -10
leaf_value=0.081540606122268516 -0.062746107330955411 0.038334443219797606 -0.099985317204062285 0.096715824260635921 -0.069039954207647816 0.050408661377565771 0.082053605617866232 0.035106229126372443 -0.019806333165372836
leaf_weight=613.86944862827659 2025.2069165504072 7010.7361701978371 2085.4769798651105 358.57806026155595 3078.1368923881091 1526.3333508069627 522.10254753381014 8409.4169593318366 8645.8075234887656
leaf_count=724 36210 16438 33660 2307 14670 2582 316 42807 32958
internal_value=0 -0.000226538 -0.0822541 -0.710481 0.145225 -0.180435 -0.470813 -0.00168975 0.0727053
internal_weight=0 33661.8 21524.5 2444.06 12137.3 5126.57 3600.24 19080.4 17055.2
internal_count=182672 181948 147942 35967 34006 17568 14986 111975 75765
shrinkage=0.1


Tree=54
num_leaves=10
num_cat=0
split_feature=7 16 9 18 8 11 6 16 2
split_gain=377.606 497.203 749.048 426.106 1237.07 961.207 955.227 849.516 650.475
threshold=5.8311932540664362 21.701700210571293 2.141325450797511 21.448449134826664 0.058875159988092757 0.82592773437500011 0.4068184707168187 19.725649833679203 0.79280773019766559
decision_type=2 2 2 2 2 2 2 2 2
left_child=3 -2 -3 4 8 6 -5 -7 -1
right_child=1 2 -4 5 -6 7 -8 -9 -10
leaf_value=-0.016293588820404319 0.087614838254118865 0.04498321575841864 -0.29433691795338413 -0.14159482137576626 0.069679256762565811 -0.20545712769603308 0.038298025843682783 -0.0018148352821404376 0.033572533355997504
leaf_weight=9320.2946341442876 1008.0674064010382 213.05792344361544 90.504259787499905 1025.0434378697537 2924.1855154973455 204.87086682021618 412.65134518221021 15194.07512394595 3633.3377175887581
leaf_count=106518 722 212 508 6163 3469 962 634 46613 16871
internal_value=0 0.538777 -0.579252 -0.00787086 0.109641 -0.118692 -0.899851 -0.0456093 -0.0230231
internal_weight=0 1311.63 303.562 32714.5 15877.8 16836.6 1437.69 15398.9 12953.6
internal_count=182672 1442 720 181230 126858 54372 6797 47575 123389
shrinkage=0.1


Tree=55
num_leaves=10
num_cat=0
split_feature=5 0 16 16 12 15 20 14 19
split_gain=385.872 852.903 760.172 941.259 719.299 798.948 924.307 775.993 819.937
threshold=4.4263064448536422 0.025767295256769254 20.693099975585941 21.001399993896488 1.0377230048179629 3.8068208694458012 1241.402770996094 1.4275099039077761 822.41339111328136
decision_type=2 2 2 2 2 2 2 2 2
left_child=4 2 -2 -4 7 6 -6 -1 -9
right_child=1 -3 3 -5 5 -7 -8 8 -10
leaf_value=-0.010552527060263548 -0.32699824298320257 -0.18763290694987153 0.093036972781586846 0.0084684580121138133 0.077138908475590601 -0.077498581807487615 -0.17774827084044978 -0.063650626908432525 0.040041381262996584
leaf_weight=15892.563904245151 56.980920165777206 185.57840141188353 1800.0859164223075 4877.438481467776 775.63493951875716 2440.1018573031761 171.36705056298524 857.41390522313304 6732.7479233323829
leaf_count=57931 284 1414 1006 11014 2058 43690 1228 35699 28348
internal_value=0 0.222703 0.281299 0.312956 -0.0420574 -0.472666 0.306268 0.0201 0.283085
internal_weight=0 6920.08 6734.51 6677.52 26869.8 3387.1 947.002 23482.7 7590.16
internal_count=182672 13718 12304 12020 168954 46976 3286 121978 64047
shrinkage=0.1


Tree=56
num_leaves=10
num_cat=0
split_feature=20 20 16 16 16 16 1 17 5
split_gain=370.4 746.906 417.357 678.441 664.985 599.104 347.096 311.091 283.414
threshold=-7169.6694335937491 -324.86610412597651 23.22245025634766 22.602800369262699 22.485799789428714 25.486200332641605 1.5265999149094922 2.3656500577926645 3.9123892539498955
decision_type=2 2 2 2 2 2 2 2 2
left_child=7 -2 3 4 -3 6 -4 8 -1
right_child=1 2 5 -5 -6 -7 -8 -9 -10
leaf_value=0.013347405700153065 -0.16136501975850234 -0.0028658461651057173 0.087220537735031453 -0.12055403696832179 0.11084589279286994 -0.11351473517629183 0.0071420881987273605 -0.17305771485609417 0.11396940093175519
leaf_weight=521.64876076788642 284.69032417470589 28564.647036371054 1363.1459510477725 478.27370127674658 520.92997597367503 228.6125147374114 897.57777349278331 53.84320156276226 603.55739934742451
leaf_count=1769 3024 150341 4372 10308 1054 7996 3308 257 243
internal_value=0 -0.00893569 0.00545485 -0.0276703 -0.00818738 0.39846 0.55476 0.561034 0.674713
internal_weight=0 32337.9 32053.2 29563.9 29085.6 2489.34 2260.72 1179.05 1125.21
internal_count=182672 180403 177379 161703 151395 15676 7680 2269 2012
shrinkage=0.1


Tree=57
num_leaves=10
num_cat=0
split_feature=19 19 17 16 2 16 12 6 14
split_gain=368.365 642.418 589.792 1881.9 1059.32 1126.43 541.388 478.736 307.988
threshold=1.0000000180025095e-35 618.71679687500011 1.6680499911308291 21.01879978179932 0.24124097709061215 20.980850219726566 1.0241873860359194 0.023208203656646515 1.3271852135658266
decision_type=2 2 2 2 2 2 2 2 2
left_child=8 -2 3 -3 7 -6 -5 -4 -1
right_child=1 2 4 6 5 -7 -8 -9 -10
leaf_value=0.098260587237244845 -0.10339652554279651 -0.12823982172916501 0.085331253653233685 -0.063755356970319504 0.034493003878451951 -0.01474694490142392 0.05186183868731007 -0.1415783608640335 -0.095573487095706677
leaf_weight=610.31335885007866 593.28282017778838 701.79463420459069 103.9276414886117 432.2880499153398 6278.6714634364471 17839.785792192677 5940.2648595226929 763.80622914561536 92.346653002081439
leaf_count=779 51672 8319 226 1906 10090 73539 20352 13797 1992
internal_value=0 -0.00532596 0.0137962 0.268638 -0.058378 -0.0192586 0.43994 -1.14212 0.725056
internal_weight=0 32653.8 32060.5 7074.35 24986.2 24118.5 6372.55 867.734 702.66
internal_count=182672 179901 128229 30577 97652 83629 22258 14023 2771
shrinkage=0.1


Tree=58
num_leaves=10
num_cat=0
split_feature=3 11 18 9 13 18 2 13 5
split_gain=347.297 572.911 949.677 1746.97 852.679 825.798 726.796 861.135 495.316
threshold=1.9372032571472946 0.8488917648792268 14.37964963912964 0.59922424258530227 0.97778066992759716 23.903100013732914 0.80435593721386667 1.0131893157958987 2.6114141270950051
decision_type=2 2 2 2 2 2 2 2 2
left_child=1 2 6 -4 -5 -3 7 -1 -7
right_child=-2 5 3 4 -6 8 -8 -9 -10
leaf_value=0.0035475162245930921 0.036444425458316713 0.040268697326803292 -0.13448675378526428 0.05641897354253176 -0.058800005831188801 -0.095309085489715964 0.059257849218567131 -0.098674674974931167 -0.00097324919272708714
leaf_weight=4489.7632313864306 2536.2859491697163 5747.3801751481369 1728.3233679311816 1211.1967975869775 1361.175686639268 579.4581143995747 1717.8063326617703 1006.5324725449318 12633.902855070774
leaf_count=42912 18616 9065 15864 2203 4654 4966 4144 42056 38192
internal_value=0 -0.0204924 -0.196408 -0.568191 -0.0454586 0.0863522 0.02536 -0.152122 -0.0512965
internal_weight=0 30475.5 11514.8 4300.7 2572.37 18960.7 7214.1 5496.3 13213.4
internal_count=182672 164056 111833 22721 6857 52223 89112 84968 43158
shrinkage=0.1


Tree=59
num_leaves=10
num_cat=0
split_feature=20 20 0 12 19 5 11 2 14
split_gain=340.212 477.741 367.662 972.612 455.763 398.909 995.382 751.087 362.359
threshold=-65326.853515624993 -34702.201171874993 0.029782897197363944 1.0203023552894595 1855.5803833007815 4.4263064448536422 1.5517463088035586 1.1352691493640357 1.3271852135658266
decision_type=2 2 2 2 2 2 2 2 2
left_child=-1 -2 5 8 -5 6 -3 -7 -4
right_child=1 2 3 4 -6 7 -8 -9 -10
leaf_value=0.080462714754306608 -0.20450110991075465 -0.00041760665451929282 0.11109116199363225 -0.12129267035890799 0.030389518171610397 0.049199486045570548 -0.1499388068234305 -0.022193049207966217 -0.24776622471213733
leaf_weight=524.88413223274983 111.59669002029113 23412.677151879412 389.02348902076483 977.46537908370374 247.00627870857716 4279.5260429298505 451.08205873193219 2244.6940239015967 27.713708193972707
leaf_count=757 756 154681 281 11169 289 5659 2066 6751 263
internal_value=0 -0.00490061 0.00238351 -0.458228 -0.906926 0.0273011 -0.0326118 0.24637 0.857357
internal_weight=0 32140.8 32029.2 1641.21 1224.47 30388 23863.8 6524.22 416.737
internal_count=182672 181915 181159 12002 11458 169157 156747 12410 544
shrinkage=0.1


Tree=60
num_leaves=10
num_cat=0
split_feature=16 16 16 16 5 3 16 9 4
split_gain=328.578 575.785 621.096 900.322 1502.56 515.84 499.887 434.306 317.117
threshold=23.22245025634766 22.530050277709964 22.485799789428714 22.183850288391117 1.0869424393095326 0.23189508810331919 25.486200332641605 1.697811161436781 2.8433021177649018
decision_type=2 2 2 2 2 2 2 2 2
left_child=1 2 3 5 -5 -1 8 -4 -2
right_child=6 -3 7 4 -6 -7 -8 -9 -10
leaf_value=-0.052425432498586381 0.057248671995224203 -0.11296733720875365 -0.16915349539181879 0.067868819786306239 -0.14058715988125312 0.0054190208933222305 -0.11224658856135064 0.14182758108706686 -0.14418079457607541
leaf_weight=1636.5720730614848 2142.2144589191303 458.58847606356721 47.585771664511412 502.22664983826689 1097.4563436493045 25870.493330432218 205.13211494788993 443.00806947238743 78.509510614909232
leaf_count=10770 7243 10818 364 1503 16420 126532 7996 180 846
internal_value=0 -0.0211436 -0.00386226 -0.0227203 -0.751355 0.0197242 0.361249 1.10874 0.499548
internal_weight=0 30055.9 29597.3 29106.7 1599.68 27507.1 2425.86 490.594 2220.72
internal_count=182672 166587 155769 155225 17923 137302 16085 544 8089
shrinkage=0.1


Tree=61
num_leaves=10
num_cat=0
split_feature=8 20 20 16 17 20 16 20 17
split_gain=334.274 326.864 664.971 1078.09 828.215 711.236 1211.51 674.191 257.72
threshold=-0.10691901753275471 -7169.6694335937491 994.74136352539074 20.806950569152836 1.9706999659538271 1619.5255126953127 20.863850593566898 2128.920776367188 2.4154000282287602
decision_type=2 2 2 2 2 2 2 2 2
left_child=-1 -2 3 8 -5 6 -4 -7 -3
right_child=1 2 5 4 -6 7 -8 -9 -10
leaf_value=0.076901316634431921 0.053303718772548074 -0.13732763821201749 -0.069844942694584772 -0.015754101911751126 -0.13154093197228769 -0.026570124771906928 0.038358456428076719 0.012207199043791583 0.090803979521623737
leaf_weight=562.19742364715785 1079.6669829357415 51.760523954639211 1181.7438891330967 1187.23181939387 1287.2388052185997 10021.469284841733 8190.3364772258792 8109.4492171045858 567.67134216055274
leaf_count=724 2227 4272 8737 37671 7415 48640 42167 30497 322
internal_value=0 -0.00700953 -0.0261137 -0.465438 -0.760685 0.0233483 0.246979 -0.0922674 0.712078
internal_weight=0 31676.6 30596.9 3093.9 2474.47 27503 9372.08 18130.9 619.432
internal_count=182672 181948 179721 49680 45086 130041 50904 79137 4594
shrinkage=0.1


Tree=62
num_leaves=10
num_cat=0
split_feature=19 19 18 2 5 2 18 16 6
split_gain=337.164 552.111 517.968 851.219 681.809 865.647 581.248 396.381 298.639
threshold=1.0000000180025095e-35 618.71679687500011 9.9174499511718768 0.24124097709061215 1.5446775928012959 0.82899738297443559 21.448449134826664 21.01879978179932 0.024369026074055004
decision_type=2 2 2 2 2 2 2 2 2
left_child=-1 -2 3 8 5 -4 -6 -5 -3
right_child=1 2 4 7 6 -7 -8 -9 -10
leaf_value=0.07191258797122084 -0.1030179310300128 0.087108648070089001 -0.10093509571219764 -0.078746824158284254 0.023047871396643146 0.015720807795502126 -0.0091388889687575529 0.074656217765524058 -0.10778805769760916
leaf_weight=647.00691714999266 517.51503928221064 93.017447058577091 1516.0362191087333 179.05258484976366 8407.2136100995122 1093.2850720195565 16852.355971054407 2372.7654651599005 448.02187253790908
leaf_count=2771 51672 300 34219 1420 25087 2594 54256 4818 5535
internal_value=0 -0.00860525 0.00856 0.396627 -0.0345414 -0.520913 0.0157516 0.638173 -0.740012
internal_weight=0 31479.3 30961.7 3092.86 27868.9 2609.32 25259.6 2551.82 541.039
internal_count=182672 179901 128229 12073 116156 36813 79343 6238 5835
shrinkage=0.1


Tree=63
num_leaves=10
num_cat=0
split_feature=7 16 20 18 11 13 16 18 16
split_gain=305.696 406.952 631.591 332.233 920.053 1181.48 852.576 825.229 635.607
threshold=5.8311932540664362 21.701700210571293 893.22180175781261 12.11045026779175 0.82592773437500011 0.97480362653732311 20.822750091552738 22.62080001831055 19.725649833679203
decision_type=2 2 2 2 2 2 2 2 2
left_child=3 -2 -3 -1 5 -5 -7 -6 -9
right_child=1 2 -4 4 7 6 -8 8 -10
leaf_value=0.017998633492465176 0.082108133357525204 0.057585799803578086 -0.23919871227243289 0.026557582871136923 0.043500560370364566 0.028175163810752791 -0.090250078079278623 -0.22370427285886288 -0.005281543049945517
leaf_weight=6835.8081763820956 929.44250352680683 194.86677370220423 109.94122745282948 1824.8779313439736 4149.0318300873041 734.44485543086194 3493.6756836437271 131.78573736082762 13433.131919006701
leaf_count=83175 722 168 552 8463 6456 1431 35916 770 45019
internal_value=0 0.492809 -0.506461 -0.0142503 -0.070132 -0.40662 -0.696733 0.0448925 -0.0744918
internal_weight=0 1234.25 304.808 30602.8 23766.9 6053 4228.12 17713.9 13564.9
internal_count=182672 1442 720 181230 98055 45810 37347 52245 45789
shrinkage=0.1


Tree=64
num_leaves=10
num_cat=0
split_feature=19 16 16 1 16 16 0 5 5
split_gain=321.83 721.801 750.526 1184.34 699.249 639.766 589.356 792.483 581.895
threshold=1428.117614746094 22.183850288391117 23.235099792480472 1.5712901651313451 22.22970008850098 23.453249931335453 0.029782897197363944 0.3197404337599527 1.1292568528811917
decision_type=2 2 2 2 2 2 2 2 2
left_child=1 6 -3 5 -2 -4 8 -8 -1
right_child=4 2 3 -5 -6 -7 7 -9 -10
leaf_value=-0.055040211973339338 0.0013420244654529772 -0.10421614763003693 0.093095632427105182 -0.14444562404547953 0.07367206927798739 -0.11131579991363334 0.066832971003320585 -0.15172612110090389 0.0091600350095847327
leaf_weight=1520.7740170207107 5470.0942267440259 1405.4360651997267 839.88531938008964 410.29593325615861 1766.0653086842503 184.63020155939739 238.10919304052368 534.33715414104518 19244.605555485818
leaf_count=41075 16008 24645 1188 4561 5434 8780 347 6720 73914
internal_value=0 -0.0499521 -0.523534 -0.0144705 0.190169 0.560537 0.0125584 -0.843526 0.0445138
internal_weight=0 24378.1 2840.25 1434.81 7236.16 1024.52 21537.8 772.446 20765.4
internal_count=182672 161230 39174 14529 21442 9968 122056 7067 114989
shrinkage=0.1


Tree=65
num_leaves=10
num_cat=0
split_feature=4 18 17 7 20 10 8 12 18
split_gain=311.258 403.444 759.949 700.033 615.228 600.821 577.331 899.086 446.074
threshold=4.6548321331977585 28.075650215148929 2.4973500967025766 4.5355419634541372 442.30780029296881 0.65443244576454174 0.015741677555011685 1.0563899874687197 22.62080001831055
decision_type=2 2 2 2 2 2 2 2 2
left_child=1 3 -3 5 -5 8 -4 -8 -1
right_child=-2 2 6 4 -6 -7 7 -9 -10
leaf_value=0.0067203892621537408 0.081324923217729467 -0.001020650575060549 0.06361306480939026 -0.34969491152518178 0.073761327663814089 0.086505903554048927 -0.16765198942092518 -0.001125313521011137 -0.023057127592194776
leaf_weight=15480.265976244147 465.86170544149354 3791.9572253839578 229.66779164131731 32.293529592454433 1720.5178518835455 773.34703417459968 885.23494254937395 510.77337103337049 7449.2392259247135
leaf_count=129230 721 17140 276 175 1418 2007 5840 1053 24812
internal_value=0 -0.00787812 -0.255598 0.0448642 0.654165 -0.000263436 -0.826971 -1.06848 -0.0295509
internal_weight=0 30873.3 5417.63 25455.7 1752.81 23702.9 1625.68 1396.01 22929.5
internal_count=182672 181951 24309 157642 1593 156049 7169 6893 154042
shrinkage=0.1


Tree=66
num_leaves=10
num_cat=0
split_feature=19 16 16 10 4 4 17 16 19
split_gain=299.572 606.49 632.684 930.851 586.672 644.4 645.334 578.144 510.657
threshold=1428.117614746094 22.19175052642823 23.235099792480472 0.4636885821819306 2.6698580847376672 3.8308189442646396 2.4230500459671025 23.453249931335453 1285.9202880859377
decision_type=2 2 2 2 2 2 2 2 2
left_child=1 -1 8 7 -2 6 -6 -4 -3
right_child=4 2 3 -5 5 -7 -8 -9 -10
leaf_value=0.00069002305184934654 0.039499981517798766 -0.14828827192611524 0.085366162201322218 -0.13943222645743666 -0.0065510873812127546 0.047304591864971157 -0.13509355237245887 -0.10902077309186553 -0.021812405015661684
leaf_weight=21347.152378273779 4630.933673817548 807.62219718360575 803.54587621893734 355.67428529332392 977.1580689153634 902.13943471573293 648.21891581546515 186.30828990522423 528.6384505762253
leaf_count=122520 12360 21578 1234 4222 3846 1771 3465 9073 2603
internal_value=0 -0.0494336 -0.497407 -0.0130659 0.183586 -0.203765 -0.579603 0.485732 -0.984045
internal_weight=0 24028.9 2681.79 1345.53 7158.45 2527.52 1625.38 989.854 1336.26
internal_count=182672 161230 38710 14529 21442 9082 7311 10307 24181
shrinkage=0.1


Tree=67
num_leaves=10
num_cat=0
split_feature=5 0 2 16 16 12 17 9 15
split_gain=285.828 606.25 595.301 674.794 844.897 557.096 617.568 749.203 598.482
threshold=4.4263064448536422 0.025767295256769254 1.1352691493640357 21.05830001831055 21.429800033569339 1.0377230048179629 2.7934000492095952 1.308264425499065 3.8068208694458012
decision_type=2 2 2 2 2 2 2 2 2
left_child=5 2 3 -2 -5 6 -1 -8 -7
right_child=1 -3 -4 4 -6 8 7 -9 -10
leaf_value=0.005384672586388784 0.085796627934289355 -0.1740766531435809 -0.018306928936867441 -0.13281578587429801 0.035679210344109917 0.02626193812885716 -0.15876987796698785 -0.0044931326073923859 -0.072888355297184182
leaf_weight=20262.507415507134 2110.838182663545 155.53449509385973 2160.9011141960509 362.89283174090087 1595.8295644600876 846.62220847490244 516.44607007945888 799.93187663983554 2153.0543380297022
leaf_count=114725 1424 1414 6721 1390 2769 3286 5363 1890 43690
internal_value=0 0.191956 0.240963 0.466099 0.0431659 -0.0454615 0.0106905 -0.652288 -0.44905
internal_weight=0 6386 6230.46 4069.56 1958.72 24578.6 21578.9 1316.38 2999.68
internal_count=182672 13718 12304 5583 4159 168954 121978 7253 46976
shrinkage=0.1


Tree=68
num_leaves=10
num_cat=0
split_feature=14 19 8 20 12 16 16 14 11
split_gain=288.261 516.596 534.145 649.796 475.272 602.876 579.029 954.97 900.135
threshold=1.5683122277259829 688.90280151367199 -0.023661769061404551 1402.435241699219 1.0276283025741579 25.261750221252445 20.980850219726566 1.0779250860214236 0.41693206131458282
decision_type=2 2 2 2 2 2 2 2 2
left_child=4 -2 3 -3 -1 6 8 -8 -6
right_child=1 2 -4 -5 5 -7 7 -9 -10
leaf_value=0.0078467695876129461 -0.10274272433534014 0.072355535631308351 0.090015608151002138 -0.059285610885171397 -0.14858707784683131 0.11454322756615382 0.054570897566182289 -0.055625369635251658 0.021137475253473793
leaf_weight=16603.789658996335 266.4894644250744 698.39503795059863 1270.2999961969908 803.20350356103154 338.2702656526817 326.14113365870435 906.18396264209878 5850.5131735667237 3727.4186761192977
leaf_count=55635 32535 3319 1501 7936 9215 883 2839 60673 8136
internal_value=0 0.295542 0.423645 0.0195939 -0.0287604 -0.18844 -0.228924 -0.408294 0.0692357
internal_weight=0 3038.39 2771.9 1501.6 27752.3 11148.5 10822.4 6756.7 4065.69
internal_count=182672 45291 12756 11255 137381 81746 80863 63512 17351
shrinkage=0.1


Tree=69
num_leaves=10
num_cat=0
split_feature=8 5 16 18 19 8 16 8 18
split_gain=295.217 452.857 557.337 442.583 905.28 1267.78 1075.62 838.897 501.402
threshold=0.51448025368481509 4.4263064448536422 20.693099975585941 21.448449134826664 1376.4940185546877 0.0024311983254624889 21.176850318908695 0.058875159988092757 13.089149951934816
decision_type=2 2 2 2 2 2 2 2 2
left_child=1 3 -3 7 5 -5 -6 8 -1
right_child=-2 2 -4 4 6 -7 -8 -9 -10
leaf_value=0.013780692946404363 -0.037421402157577104 -0.2654848251362148 0.034313248083276585 0.01068088026720336 -0.037606014143691004 -0.081942983730920002 0.065825236171226736 0.06419911967253944 -0.029815631101512221
leaf_weight=7181.7033486996952 1939.7589404201135 60.059780836105347 4850.1143398052081 2542.7507227131864 1869.2770397295244 3523.2791973418789 2169.5159589413088 2280.9567541063298 4166.0372944680275
leaf_count=93893 8520 276 8111 9158 6040 18329 5746 3121 29478
internal_value=0 0.0286264 0.304974 -0.0285743 -0.187139 -0.431294 0.179604 0.0890037 -0.0222772
internal_weight=0 28643.7 4910.17 23733.5 10104.8 6066.03 4038.79 13628.7 11347.7
internal_count=182672 174152 8387 165765 39273 27487 11786 126492 123371
shrinkage=0.1


Tree=70
num_leaves=10
num_cat=0
split_feature=20 20 20 0 14 20 16 16 17
split_gain=298.999 567.476 294.719 721.014 541.573 532.337 1042.81 536.244 230.313
threshold=-7169.6694335937491 -324.86610412597651 1006.9180908203126 -0.013104771191502967 1.0128734707832339 1610.9857177734377 20.851200103759769 20.816400527954105 2.3656500577926645
decision_type=2 2 2 2 2 2 2 2 2
left_child=8 -2 3 -3 -5 6 -4 -7 -1
right_child=1 2 5 4 -6 7 -8 -9 -10
leaf_value=0.062306901875499934 -0.1535467543814788 0.044680296569067163 -0.072965199150810275 0.036071719444778612 -0.094129216753024658 0.03143664224838922 0.0357400386734655 -0.014905840644043608 -0.15156843382554352
leaf_weight=1027.538720341865 240.99295006552711 851.80776092672022 994.68631593626924 405.73653212422505 1477.4833480233792 3005.4188498668373 7660.9579752860009 14689.693691799475 50.330009065568447
leaf_count=2012 3024 6924 7685 995 40248 5516 41153 74858 257
internal_value=0 -0.0160788 -0.00334322 -0.315621 -0.660642 0.0290978 0.232281 -0.0703095 0.519532
internal_weight=0 29326.8 29085.8 2735.03 1883.22 26350.8 8655.64 17695.1 1077.87
internal_count=182672 180403 177379 48167 41243 129212 48838 80374 2269
shrinkage=0.1


Tree=71
num_leaves=10
num_cat=0
split_feature=20 20 20 20 18 17 16 17 8
split_gain=254.004 405.512 303.893 496.566 404.417 241.97 95.8897 17.305 7.84408
threshold=-65326.853515624993 -34702.201171874993 -7169.6694335937491 -324.86610412597651 28.075650215148929 2.2143499851226811 23.453249931335453 1.7008500099182131 -0.046176296753050385
decision_type=2 2 2 2 2 2 2 2 2
left_child=6 -2 5 8 -5 -3 7 -1 -4
right_child=1 2 3 4 -6 -7 -8 -9 -10
leaf_value=0.045284983693035304 -0.19141232035544367 -0.16887122695576509 -0.039524803816826742 0.0049771251455038813 -0.026746804423723604 0.099459071150258982 -0.10943139132790565 0.095040721084819701 -0.15228161408536264
leaf_weight=98.082836295012385 108.49882823042572 33.88058225507848 8.7985862283967418 24192.648714457115 4815.9464639505604 437.23534291982651 24.762726795859635 342.05797037482262 216.48899258323945
leaf_count=175 756 488 182 153670 23709 268 308 274 2842
internal_value=0 -0.00873472 -0.00159572 -0.0144726 -0.0029157 0.792782 0.733983 0.843135 -1.48427
internal_weight=0 29813.5 29705 29233.9 29008.6 471.116 464.904 440.141 225.288
internal_count=182672 181915 181159 180403 177379 756 757 449 3024
shrinkage=0.1


Tree=72
num_leaves=10
num_cat=0
split_feature=19 19 10 16 17 14 17 10 5
split_gain=301.289 474.253 1248.49 1410.88 1090.99 884.763 652.479 912.848 759.933
threshold=1.0000000180025095e-35 938.99127197265636 0.65443244576454174 21.546800613403324 1.3757999539375307 1.5900055170059206 1.6680499911308291 0.031336504966020591 2.4719725443559333
decision_type=2 2 2 2 2 2 2 2 2
left_child=-1 2 3 5 -5 -2 7 -3 -8
right_child=1 6 -4 4 -6 -7 8 -9 -10
leaf_value=0.07003014481902696 -0.12741491017199102 -0.30120076284846375 0.12443430646312387 0.054104022115397644 -0.071227009584016066 0.028387205534052759 -0.038106183454896678 0.059309322118299791 0.008755032129023092
leaf_weight=603.48240681190509 1933.5450346508296 69.346697568893433 496.17903190292418 1789.9543244630622 1131.0441578097525 447.85953318467364 4369.0871101259836 2754.5361785914283 16599.030759255285
leaf_count=2771 35245 350 763 29028 15860 13808 35726 4118 45003
internal_value=0 -0.0118375 -0.268205 -0.410327 0.055518 -0.981137 0.0506671 0.501676 -0.0101296
internal_weight=0 29590.6 5798.58 5302.4 2921 2381.4 23792 2823.88 20968.1
internal_count=182672 179901 94704 93941 44888 49053 85197 4468 80729
shrinkage=0.1


Tree=73
num_leaves=10
num_cat=0
split_feature=19 19 10 5 14 19 2 14 10
split_gain=253.637 419.105 404.811 654.456 819.279 706.352 424.779 249.604 291.065
threshold=1.0000000180025095e-35 618.71679687500011 0.096090730279684081 1.5558379955379447 1.4299753904342654 1058.814392089844 0.25524581907795146 1.3271852135658266 0.44750814139842993
decision_type=2 2 2 2 2 2 2 2 2
left_child=7 -2 6 5 -5 -4 -3 8 -1
right_child=1 2 3 4 -6 -7 -8 -9 -10
leaf_value=0.11532381127432503 -0.10261336726911603 -0.11313963478913236 -0.12021029290056702 -0.0061535197066889466 0.042559798516078773 -0.01322253297848024 0.055082969907824991 -0.0929821001630666 -0.15216605991834836
leaf_weight=457.92452105600387 398.17249442482716 159.90518984454684 924.40226397447987 19883.446413709549 4175.0756367779686 1847.8373595762532 1966.5301385580096 82.9757883901475 42.22403943631798
leaf_count=255 51672 3162 25080 64613 14046 15450 5878 1992 524
internal_value=0 -0.0107527 0.00330526 -0.0299965 0.0230392 -0.489833 0.423002 0.653731 0.920193
internal_weight=0 29355.4 28957.2 26830.8 24058.5 2772.24 2126.44 583.124 500.149
internal_count=182672 179901 128229 119189 78659 40530 9040 2771 779
shrinkage=0.1


Tree=74
num_leaves=10
num_cat=0
split_feature=8 16 20 0 20 16 20 7 10
split_gain=250.9 355.995 400.951 782.255 530.041 523.065 531.506 341.583 554.74
threshold=-0.042913029561234377 23.22245025634766 1627.582702636719 0.024084829216811047 2138.709106445313 22.183850288391117 1070.4246215820315 3.0380552718671283 0.38479615747928625
decision_type=2 2 2 2 2 2 2 2 2
left_child=-1 2 5 4 -4 6 -2 8 -3
right_child=1 7 3 -5 -6 -7 -8 -9 -10
leaf_value=0.031232835653237187 -0.018535135267097821 0.047695440774572967 -0.029657014698650647 -0.1332746378546335 0.0099797197667514919 -0.14348637964639915 0.027645326456313141 0.074213991633368781 -0.13118956320655881
leaf_weight=2391.9978592450207 3820.5280264054891 517.59418836358236 7600.4229421078344 551.36415722529637 6062.8539557637414 219.17624024843099 7157.0798769289395 1127.9482303045224 257.2025602334179
leaf_count=14475 48116 7102 36067 7142 19914 11980 31704 2309 3863
internal_value=0 -0.0252431 -0.0564991 -0.167969 -0.120702 0.0850189 0.115723 0.391642 -0.119403
internal_weight=0 27314.2 25411.4 14214.6 13663.3 11196.8 10977.6 1902.74 774.797
internal_count=182672 168197 154923 63123 55981 91800 79820 13274 10965
shrinkage=0.1


Tree=75
num_leaves=10
num_cat=0
split_feature=19 2 16 17 1 16 18 5 5
split_gain=241.769 1013.53 1201.97 857.799 850.035 725.734 644.398 1886.1 727.237
threshold=938.99127197265636 0.99506946516727901 21.685899734497074 1.3113499879837038 1.6410953248000339 21.742799758911136 20.434650421142582 3.0695876812601077 1.4954469706479729
decision_type=2 2 2 2 2 2 2 2 2
left_child=1 2 -1 4 -4 -3 8 -8 -2
right_child=6 5 3 -5 -6 -7 7 -9 -10
leaf_value=-0.092638059376628418 -0.020133523333848612 0.081797812807865189 0.093578324457803397 -0.059612420727241801 -0.12642267753092995 -0.13450125600613969 -0.10684203645469222 0.0049538425906640341 0.043734075604127128
leaf_weight=2255.0251244044048 2465.9585392480367 1271.7500382929575 1169.1163201974996 1038.4508181315905 204.08690137509257 174.06364936521277 1706.695079861558 12871.744581360836 6419.7612829269492
leaf_count=49009 21762 5258 20623 16829 1915 3841 13535 34835 15065
internal_value=0 -0.175385 -0.402018 0.0887791 0.6069 0.55547 0.0478593 -0.0815175 0.260085
internal_weight=0 6112.49 4666.68 2411.65 1373.2 1445.81 23464.2 14578.4 8885.72
internal_count=182672 97475 88376 39367 22538 9099 85197 48370 36827
shrinkage=0.1


Tree=76
num_leaves=10
num_cat=0
split_feature=20 20 18 5 20 13 4 18 8
split_gain=230.257 399.717 346.182 496.095 560.558 478.298 428.671 324.88 218.905
threshold=-7169.6694335937491 -324.86610412597651 28.075650215148929 4.4263064448536422 736.88940429687511 0.9897037446498872 3.6981339453968061 21.448449134826664 0.0099507626025565343
decision_type=2 2 2 2 2 2 2 2 2
left_child=-1 -2 3 7 -5 8 -7 -3 -4
right_child=1 2 5 4 -6 6 -8 -9 -10
leaf_value=0.047632029853778651 -0.14193085702760716 0.0078487362169330204 0.06624478203399585 -0.36210534755316348 0.042283345724022439 -0.027624090557869414 0.05110088912146428 -0.018925805028697763 -0.094436501331242401
leaf_weight=983.91692914580926 198.49725723965093 12624.63565910561 90.272220246843062 31.852202840149403 3597.8306916952133 2669.2179855171125 930.49896998237818 7066.0481877247803 1047.9108626267407
leaf_count=2269 3024 123210 166 177 4683 14025 2100 25600 7418
internal_value=0 -0.0151155 -0.00504084 0.0450318 0.384594 -0.251391 -0.0724973 -0.0176053 -0.815595
internal_weight=0 28256.8 28058.3 23320.4 3629.68 4737.9 3599.72 19690.7 1138.18
internal_count=182672 180403 177379 153670 4860 23709 16125 148810 7584
shrinkage=0.1


Tree=77
num_leaves=10
num_cat=0
split_feature=19 1 20 4 2 18 19 11 18
split_gain=240.627 555.182 476.853 464.665 417.845 1020.47 1029.69 587.226 763.07
threshold=1329.7174072265627 1.7890986335257983 2565.3010253906255 2.9099789147071484 1.1589266121780006 20.434650421142582 755.10903930664074 0.88423633575439464 12.16534996032715
decision_type=2 2 2 2 2 2 2 2 2
left_child=2 3 4 -2 7 -6 -7 8 -1
right_child=1 -3 -4 -5 5 6 -8 -9 -10
leaf_value=0.011527075841710772 0.040651741948752575 -0.014339232904390115 -0.13870845169583454 -0.081134150331081067 0.041215484593932011 0.098047284906685503 -0.1070441854586664 0.023639326061344182 -0.047777638744985279
leaf_weight=4819.6057097320736 5290.1311332948972 4278.3202442534966 265.79082767630462 330.44146641017869 1072.1122691096389 281.50134803401306 1780.7883091286058 7026.155311581213 3941.8649895782582
leaf_count=76999 13666 16237 2895 1553 4610 229 10693 18947 36843
internal_value=0 0.127995 -0.0639433 0.334547 -0.045155 -0.378491 -0.789536 0.021077 -0.15161
internal_weight=0 9898.89 19187.8 5620.57 18922 3134.4 2062.29 15787.6 8761.47
internal_count=182672 31456 151216 15219 148321 15532 10922 132789 113842
shrinkage=0.1


Tree=78
num_leaves=10
num_cat=0
split_feature=2 19 16 11 5 5 4 0 18
split_gain=235.043 662.198 885.417 844.279 862.079 810.376 729.603 711.454 561.632
threshold=0.73929737945012197 947.36318969726574 21.685899734497074 1.1252598166465761 4.276379991892763 1.43172602212123 0.22514090385749133 0.012874264123982843 20.434650421142582
decision_type=2 2 2 2 2 2 2 2 2
left_child=1 2 6 5 -5 -3 -1 -7 -2
right_child=8 3 -4 4 -6 7 -8 -9 -10
leaf_value=0.029347112940662751 0.038103206278526904 -0.064616456210370918 0.0012425365292879497 -0.13832431883949933 0.021534403610476673 0.04298747907049124 -0.13421776187641177 -0.088117868867147314 -0.0031086304339132077
leaf_weight=342.99930076079909 4457.5389664379763 991.90768060291884 1782.1144623013388 755.66392934625037 606.35825698799454 5422.8212972832262 1311.0121670690132 445.50753307528794 12784.672520886525
leaf_count=4507 22066 16138 35459 4526 1762 14007 37409 3911 42887
internal_value=0 -0.10831 -0.476788 0.0457843 -0.672558 0.188622 -1.00304 0.329968 0.075499
internal_weight=0 11658.4 3436.13 8222.26 1362.02 6860.24 1654.01 5868.33 17242.2
internal_count=182672 117719 77375 40344 6288 34056 41916 17918 64953
shrinkage=0.1


Tree=79
num_leaves=10
num_cat=0
split_feature=19 15 7 5 17 11 10 20 20
split_gain=251.202 319.631 272.005 701.29 771.446 505.528 449.242 349.983 215.762
threshold=1968.5317993164065 2.7991112470626835 4.0676735141079687 4.6860582901654322 2.4973500967025766 1.6373441219329836 0.65443244576454174 1089.1828613281252 1796.5150146484377
decision_type=2 2 2 2 2 2 2 2 2
left_child=1 8 5 7 -5 6 -3 -4 -1
right_child=-2 2 3 4 -6 -7 -8 -9 -10
leaf_value=-0.016128408193368617 0.058965070170984152 -0.0051158023576920331 -0.022817677972644317 -0.00068512902310109941 -0.18628936992469947 -0.14472592574380125 0.072142696784345969 0.060220404201263282 -0.10549299790870388
leaf_weight=639.85834462405182 704.58529152721167 20886.392481549206 613.00877794064581 1113.3590159295127 277.55956481769681 249.44968305109069 777.9926274032332 2911.5106187434867 466.51188866316807
leaf_count=3819 714 158946 1307 2678 1468 1338 1759 3832 6811
internal_value=0 -0.0137681 0.00797773 0.220509 -0.380226 -0.0397151 -0.0233232 0.457704 -0.539825
internal_weight=0 27935.6 26829.3 4915.44 1390.92 21913.8 21664.4 3524.52 1106.37
internal_count=182672 181958 171328 9285 4146 162043 160705 5139 10630
shrinkage=0.1


Tree=80
num_leaves=10
num_cat=0
split_feature=19 16 16 16 10 10 9 5 10
split_gain=218.999 706.559 613.787 604.795 631.826 540.424 570.536 604.432 477.869
threshold=1305.4898071289065 22.19175052642823 20.750050544738773 23.254099845886234 0.4020353108644486 0.55529391765594494 3.4701660552159415 3.0343218137373063 0.64590153098106395
decision_type=2 2 2 2 2 2 2 2 2
left_child=1 8 -2 -3 -5 6 7 -4 -1
right_child=2 3 5 4 -6 -7 -8 -9 -10
leaf_value=-0.0044763193743788251 -0.16120216024845607 -0.13382405975394812 -0.0011783360845071514 0.046992458826463357 -0.13846940875538152 -0.012366638992752685 -0.1562642974244807 0.064508096325944925 0.070538237313911997
leaf_weight=15497.115455868596 198.88424492022023 766.89202977070818 2285.3485391816357 581.89937898115022 265.07702765299473 4249.8644399314653 150.69972430169582 3616.0422946214676 895.65854883985594
leaf_count=110564 1540 22180 10869 9132 4350 16805 703 4403 2126
internal_value=0 -0.0658674 0.115819 -0.696596 -0.113109 0.149605 0.341473 0.390816 -0.00366271
internal_weight=0 18006.6 10500.8 1613.87 846.976 10302 6052.09 5901.39 16392.8
internal_count=182672 148352 34320 35662 13482 32780 15975 15272 112690
shrinkage=0.1


Tree=81
num_leaves=10
num_cat=0
split_feature=19 11 11 13 4 13 10 7 5
split_gain=218.557 288.605 766.601 582.415 574.236 476.01 605.31 451.376 496.583
threshold=1968.5317993164065 1.0747024416923525 0.96530088782310497 0.98909386992454529 2.9881232276967782 0.98785999417304993 0.14498313516378405 0.73674272978465416 4.276379991892763
decision_type=2 2 2 2 2 2 2 2 2
left_child=1 2 5 -3 -4 -1 -7 -5 -9
right_child=-2 3 4 7 -6 6 -8 8 -10
leaf_value=0.0087657021628206166 0.055938562531730289 -0.091119832564235004 0.049858923114266179 0.18357172735205673 -0.079445595121937787 0.012333407955413165 -0.054478990577158028 -0.032067270461302248 0.020226622088988136
leaf_weight=8579.1330907767988 681.02056819573045 930.72741324338131 4466.3494353373535 118.98318259860389 369.55470014759339 2217.1685122218332 3484.6897812881798 4404.67514158634 3085.7484600134194
leaf_count=51064 714 5517 8468 181 2986 62137 24804 20062 6739
internal_value=0 -0.0129102 0.0553659 -0.165717 0.39937 -0.0611756 -0.285051 -0.0742313 -0.105244
internal_weight=0 27657 19116.9 8540.13 4835.9 14281 5701.86 7609.41 7490.42
internal_count=182672 181958 149459 32499 11454 138005 86941 26982 26801
shrinkage=0.1


Tree=82
num_leaves=10
num_cat=0
split_feature=19 19 14 8 6 18 5 17 18
split_gain=218.011 355.941 296.148 398.177 544.154 374.966 364.425 641.463 439.671
threshold=1.0000000180025095e-35 618.71679687500011 1.5683122277259829 -0.023661769061404551 0.058547242445599022 16.932050704956058 3.4855458481287784 1.5200499892234807 24.5917501449585
decision_type=2 2 2 2 2 2 2 2 2
left_child=-1 -2 6 4 -4 -5 7 -3 -8
right_child=1 2 3 5 -6 -7 8 -9 -10
leaf_value=0.064047387638578659 -0.10212383348069301 0.021229730362774719 -0.04747876829788978 0.087769983612529814 0.0823852635195539 -0.24550699361259737 0.036251084488087351 -0.029387277135165431 -0.0040382513497299877
leaf_weight=520.41242002788931 341.72170105486293 3471.4754506004974 926.49816511789686 1078.2311158861266 491.50061262689997 32.221954515203834 3999.0687944469973 8962.1370776541589 8379.9165731875692
leaf_count=2771 51672 18421 12018 1683 1112 199 5510 62436 26850
internal_value=0 -0.0111146 0.00161188 0.327448 -0.0239062 0.775077 -0.0316232 -0.152531 0.0898232
internal_weight=0 27682.8 27341 2528.45 1418 1110.45 24812.6 12433.6 12379
