tree
version=v3
num_class=1
num_tree_per_iteration=1
label_index=0
max_feature_idx=20
objective=binary sigmoid:1
feature_names=delta_ip beta_N HA V_LOOP BOLD03 BOLD06 BOLU03 BOLU06 SX03 SX06 EFIT_BETA_T EFIT_BETA_P EFIT_ELONGATION EFIT_LI EFIT_Q0 EFIT_QBDRY BT DENSITY W_E FIR01 FIR03
feature_infos=[-0.98877693252640142:0.8065970866267459] [-1.1126188774055643:0.99804176716637183] [-0.80672246665760827:10.133221930591773] [-3.9937873535485369:13.661617792959287] [-0.25456691940786397:5.339137652122135] [-0.26507774655133648:6.1026610843312143] [-0.25594916960718322:2.073247384234703] [-0.30012338209153056:6.2522342666023691] [-6.3941282681595872:8.3449018050668275] [-6.4097902245742908:14.350153530575227] [-0.38790404796600342:0.32572656869888306] [-0.80794316530227661:1.2536157369613647] [0.99402987957000721:1.1035237312316897] [0.86903226375579834:1.0570286512374878] [0.70343887805938721:4.7980866432189941] [1.6327641010284424:12.531253814697266] [18.652299880981445:27.097099304199219] [-1.0532000064849854:8.9504995346069336] [-6.91510009765625:23.385599136352539] [-214748.359375:214748.359375] [-214748.359375:214748.359375]
tree_sizes=2192 2186 2214 2217 2246 2228 2244 2251 2242 2222 2237 2250 2234 2266 2251 2250 2255 2250 2249 2231 2240 2235 2236 2254 2240 2262 2271 2236 2237 2018 2248 2242 2224 2257 2258 2243 2251 2254 2263 2228 2253 2027 2239 2251 2246 2014 2245 2254 2264 2260 2254 2247 2250 2256 2257 2265 1921 2253 2257 1924 2241 2244 2253 2280 2257 2256 2268 2267 2256 2247 2264 2242 2244 2267 2248 2263 2259 2275 2239 2256 2270 2258 2274 2265 2264 2263 2255 2248 2261 2270 2251 2264 2256 2239 2251 2242 1926 2275 2151 2286 2269 2039 2276 2256 2273 2261 2272 2278 2266 2243 2252 2246 2253 2252 2252 2251 2265 2251 1826 2274 2263 2247 2262 2249 2255 2266 2271 2261 2256 2252 2035 2271 2143 2252 2256 2258 2268 2256 2241 2249 2248 2286 2043 2256 2243 2258 2278 2234 2288 2250 2239 2136 2162 2252 2252 2260 2284 2237 1934 2268 2266 2264 2259 2258 2289 2267

Tree=0
num_leaves=20
num_cat=0
split_feature=19 7 7 12 12 15 6 3 17 0 6 2 9 16 15 12 16 2 20
split_gain=778939 691350 455458 500859 282962 244982 214718 189207 182503 136702 309146 200239 122793 75948.5 107988 101381 52186.9 46139.5 32492.6
threshold=662.10128784179699 2.2065999649979706 1.3716645175058286 1.0155371427536013 1.0179041028022768 2.8342647552490239 0.23475378527695498 1.9014680728516022 0.75729998946189891 -0.019726346269504102 0.068039640975107882 0.29290180877583433 0.013648498271396118 22.599599838256839 3.907150506973267 1.0181422829627993 20.984000205993656 0.084622146501109941 1200.8613891601565
decision_type=2 2 2 2 2 2 2 2 2 2 2 2 2 2 2 2 2 2 2
left_child=1 2 5 6 -5 -1 -4 9 -7 18 -11 -12 16 14 -14 -15 -3 -9 -2
right_child=7 12 3 4 -6 8 -8 17 -10 10 11 -13 13 15 -16 -17 -18 -19 -20
leaf_value=1.0543218973462363 1.0281270536297145 0.9534698380353186 -2.5794531352364789 0.87055754636292804 -1.3019952683267282 -1.4102669417386142 0.8424636618201351 -2.3699376669258201 -2.68148826659103 -3.2415192744587715 -2.8028085336461599 0.04965069823641155 -2.3933561763345024 -0.99275696440698802 -3.94241972226133 -3.2543622967265557 -3.6198394235958857 0.72672579610770605 -0.4861069321638638
leaf_weight=251.67963100410998 456.93671197257936 103.393245594576 1248.8294102177024 1985.3991602305323 876.70190604776144 1972.6731231529266 213.23575618118048 53.32136351801455 2665.4827721267939 521.25700600259006 301.93770505674183 1399.0453004892915 637.04835350811481 326.72611826844513 1517.3547711912543 503.5837819352746 33.196294672787189 1626.9098050184548 256.54442231543362
leaf_count=1002 2049 436 50133 12432 24161 56554 1277 1989 109717 24307 12760 20011 24387 7959 81247 23546 1663 12463 4943
internal_value=0 22.2069 26.5639 34.0459 41.7395 19.9318 18.9344 37.4502 18.2603 32.5356 28.5955 35.1168 9.33322 7.97006 4.82711 16.0817 38.3672 45.969 44.6492
internal_weight=0 12335.3 9214 4324.17 2862.1 4889.84 1462.07 4615.95 4638.16 2935.72 2222.24 1700.98 3121.3 2984.71 2154.4 830.31 136.59 1680.23 713.481
internal_count=473036 394514 255276 88003 36593 167273 51410 78522 166271 64070 57078 32771 139238 137139 105634 31505 2099 14452 6992
shrinkage=1


Tree=1
num_leaves=20
num_cat=0
split_feature=16 18 3 19 19 19 14 5 4 17 16 19 5 14 20 20 5 9 14
split_gain=19280 14633.7 12006.6 21194.5 45119 13090.6 16032.6 11654.2 10939.4 10839.9 27149.4 8419.16 8165.83 7884.85 7745.98 5952.05 9803.41 5365.37 4349.3
threshold=19.483750343322757 6.886049985885621 2.242343482520746 352.85659790039068 662.10128784179699 67.178447723388686 1.2416518330574038 2.5590395902533278 0.6210714299398522 -0.73229998350143422 25.315500259399418 482.15673828125006 3.7538913884176277 1.7426931858062746 635.32086181640636 1051.7014160156252 2.5590395902533278 0.56308420833681672 1.471466660499573
decision_type=2 2 2 2 2 2 2 2 2 2 2 2 2 2 2 2 2 2 2
left_child=1 11 5 14 7 6 -2 -5 -3 10 -7 -1 -11 -8 18 16 -13 -17 -4
right_child=2 8 3 4 -6 9 13 -9 -10 12 -12 15 -14 -15 -16 17 -18 -19 -20
leaf_value=-0.120847415523556 0.90306647238662185 1.4754147276882368 0.39410115523567762 0.52266337804315499 0.10903559984111569 -0.12232860560881137 -0.052508196350606468 0.28619345309486705 0.30475600071732289 0.12281047485447859 1.2167322254355404 1.1622517591845836 -0.046660645832378 0.37033269558897608 0.35920062516152579 0.20151068594181815 0.4019846371083533 1.1998403632040142 -0.12314735874499989
leaf_weight=368.55604614317417 434.80931690335274 204.11975752934813 170.62921611592174 4763.736682863906 10511.953509882092 304.25956927984953 648.252486160025 3728.5274321362376 132.84156627953053 93963.883767193183 297.70807462930679 221.85517262481153 2930.5441057011485 1372.3672719430178 439.73121996410191 1160.6939008794725 717.82942973636091 53.855569146573544 2617.8991306573153
leaf_count=2974 186 195 386 18406 5699 2205 7271 6228 670 378756 244 192 19025 2561 1807 2323 1171 166 22571
internal_value=0 4.03452 1.40864 2.07338 2.47574 1.26072 3.54018 4.18969 10.2018 1.20322 5.42459 3.20044 1.17684 2.3479 -0.295362 3.95534 5.84382 2.4842 -0.91135
internal_weight=0 2859.75 122184 22232.5 19004.2 99951.8 2455.43 8492.26 336.961 97496.4 601.968 2522.79 96894.4 2020.62 3228.26 2154.23 939.685 1214.55 2788.53
internal_count=473036 7691 465345 55097 30333 410248 10018 24634 865 400230 2449 6826 397781 9832 24764 3852 1363 2489 22957
shrinkage=0.1


Tree=2
num_leaves=20
num_cat=0
split_feature=14 3 0 8 5 17 20 12 4 20 20 12 10 12 5 11 12 9 14
split_gain=11319.6 13677.8 13081.6 15082.6 10216.7 9945.31 16575.7 8262.87 8459.74 6355.4 8229.8 4030.27 3968.1 2987.71 2743.8 2729.57 2337.47 2528.29 1746.5
threshold=2.2203910350799565 2.2660962819841424 0.13929340602196374 0.10437656710430694 0.76760076725435267 1.1281500458717348 718.89349365234386 1.0155371427536013 0.60731848560071955 588.37631225585949 603.62350463867199 1.0140971541404726 0.058692084625363357 1.0208752155303957 2.8576005601238488 0.18691658228635791 1.0197314620018008 0.33246268961823028 1.4950864911079409
decision_type=2 2 2 2 2 2 2 2 2 2 2 2 2 2 2 2 2 2 2
left_child=1 2 3 4 -1 6 12 8 -4 -2 11 -11 -3 -9 -5 -8 18 -18 -7
right_child=9 5 7 14 -6 16 15 13 -10 10 -12 -13 -14 -15 -16 -17 17 -19 -20
leaf_value=0.049314087285637687 -0.13065024748003479 0.0072722683976809161 0.2198822056709876 0.052391476122864912 0.13321847303133455 0.25348905197131255 0.34961169435139478 0.25088430064312461 0.73104740559127712 -0.09971896896048392 -0.05098454321867503 0.4273143644633437 0.24303904246017974 0.057635225397255532 -0.14289354383588537 0.18462178617355993 0.087488579052809157 -0.18459341652671091 0.12901557148288062
leaf_weight=18001.280669668689 2556.0344039630145 2498.8064830657095 620.69108381122351 983.49626066535711 74974.955711809918 1502.3939928486943 8300.9643227383494 2984.0765969865024 681.86046470701694 178.12581421248615 1487.5364970676601 758.13403419218957 996.70745287463069 1095.4900305531919 2664.7813893854618 1152.1113521978259 2623.0561457965523 389.94079999439418 4561.186306912452
leaf_count=101774 20789 16181 245 6290 263712 667 10305 842 365 1000 11143 490 1026 1949 23437 3369 2673 2147 4632
internal_value=0 1.33044 1.17607 1.09149 1.16976 2.04514 2.60777 2.6932 4.88457 -0.207092 0.952456 3.27043 0.746391 1.99066 -0.902483 3.29564 1.24195 0.521371 1.59959
internal_weight=0 124032 102007 96624.5 92976.2 22025.2 12948.6 5382.12 1302.55 4979.83 2423.8 936.26 3495.51 4079.57 3648.28 9453.08 9076.58 3013 6063.58
internal_count=473036 439614 398614 395213 365486 41000 30881 3401 610 33422 12633 1490 17207 2791 29727 13674 10119 4820 5299
shrinkage=0.1


Tree=3
num_leaves=20
num_cat=0
split_feature=14 3 19 20 0 8 5 20 19 19 12 15 7 2 12 6 20 12 19
split_gain=9014.5 10541.8 11826.9 14142.1 9299.26 11998.6 7705.58 5275.02 6075.66 4320.28 4042.36 4011.16 3184.24 2462.6 2459.33 1602.23 1436.78 1144.02 984.322
threshold=2.2203910350799565 2.1997566547210909 662.10128784179699 722.09680175781261 0.13929340602196374 0.10730119044770466 0.76760076725435267 588.37631225585949 274.14479064941412 622.89929199218761 1.0208752155303957 3.6421773433685307 1.1645641132910012 0.064547856271807827 1.0140971541404726 0.12722049855234649 772.32855224609386 1.0155371427536013 35718.771484375007
decision_type=2 2 2 2 2 2 2 2 2 2 2 2 2 2 2 2 2 2 2
left_child=1 4 3 11 5 6 -1 -2 14 -5 17 -3 -7 -4 -9 -10 -12 -6 -15
right_child=7 2 13 9 10 12 -8 8 15 -11 16 -13 -14 18 -16 -17 -18 -19 -20
leaf_value=0.043413734496464178 -0.12725589935646675 0.39753554519865092 0.66823126040404213 0.27300916484006915 0.33512143975514658 0.24068298899855456 0.11687218473320993 -0.12319693101597656 -0.089584095836865732 0.48409451986100882 0.10434211044059001 0.036822423397364822 -0.12443694962435814 0.093925043205608419 0.32206982374658644 0.2182123315550662 -0.20512054108540412 0.2305376620786421 -0.34103874119009947
leaf_weight=17685.79056870006 2371.3663078155369 335.96897180005908 71.934794887900352 9468.8544299378991 1669.3838169276714 257.51094472408295 74246.422565683722 141.81997473537922 1308.3953760303557 1084.1859756074846 884.48455889523029 3437.7812417857349 2924.7059672465548 10433.132691018283 919.37944066338241 191.47748783789575 177.88906631805003 2925.9597220420837 49.629983156919479
leaf_count=100057 20789 352 169 18524 610 212 262411 980 10798 1891 626 19359 27271 5702 323 532 1322 842 266
internal_value=0 1.17946 1.76242 2.35415 1.03548 0.961336 1.02742 -0.198593 0.796112 2.94817 2.28087 0.692057 -0.947055 0.958796 2.62395 -0.49957 0.521212 2.68711 0.917756
internal_weight=0 125654 24881.5 14326.8 100772 95114.4 91932.2 4932.44 2561.07 10553 5657.72 3773.75 3182.22 10554.7 1061.2 1499.87 1062.37 4595.34 10482.8
internal_count=473036 439614 46263 40126 393351 389951 362468 33422 12633 20415 3400 19711 27483 6137 1303 11330 1948 1452 5968
shrinkage=0.1


Tree=4
num_leaves=20
num_cat=0
split_feature=20 17 7 14 14 2 3 16 2 2 5 19 19 8 3 20 0 17 19
split_gain=7485.51 12700.3 12570.2 12347.4 9559.57 11854.9 8479.1 8752.88 8567.71 6192.09 5475.5 4566.59 5755.82 4105.56 2914.56 2890.94 2719.35 2666.87 1889.73
threshold=695.45968627929699 1.2445499897003176 3.4707921554109489 1.3091624379158022 1.7340823411941531 0.18056955598781196 2.0201836570224683 21.126299858093265 0.10039337161669405 0.33674321133130186 3.0878623986009957 603.50460815429699 662.10128784179699 -0.05521849603934146 2.8804510528240361 1585.4956665039065 0.066773746854618996 3.7001500129699711 369.02000427246099
decision_type=2 2 2 2 2 2 2 2 2 2 2 2 2 2 2 2 2 2 2
left_child=3 2 6 -1 14 10 8 -8 -2 15 -6 -11 -13 -4 16 17 -5 -3 -7
right_child=1 9 13 4 5 18 7 -9 -10 11 -12 12 -14 -15 -16 -17 -18 -19 -20
leaf_value=0.23869548781298888 0.047704922310417147 -0.10946920439864885 0.14309377666192255 -0.073847699909953865 0.12080988035817485 -0.11743588470336289 0.29287017501366219 0.1517107600211825 0.15509954819005567 -0.098321275821177959 -0.056799271861761549 0.26348486552373562 0.080518669614439431 -0.11833882701091009 0.10542807418060221 0.077876829873827894 0.10923491827696073 0.1902202827789129 0.09885345678628106
leaf_weight=3671.8571892641485 10018.13975154981 3346.5637153442949 804.76472845114768 8086.3586883563548 20458.168725345284 3140.9792882408947 7510.1997538749129 10610.080048559234 28771.011858701706 1297.138270508498 1895.0484211985022 1852.7278109807521 23568.82761869207 2343.8840382201597 1283.9201482981443 1604.2768177054822 899.23961956426501 323.28751322813332 461.34295513108373
leaf_count=2522 43551 27126 938 63455 33986 28908 9407 19151 123486 14396 12738 8960 31075 37514 4389 6613 1026 1802 1993
internal_value=0 1.15897 1.43007 0.640287 0.46307 0.786174 1.53768 2.10252 1.27368 0.649956 1.05747 0.845404 0.938808 -0.514509 -0.353545 -0.340098 -0.554971 -0.829439 -0.896804
internal_weight=0 92050.9 60058.1 39896.9 36225.1 25955.5 56909.4 18120.3 38789.2 31992.8 22353.2 26718.7 25421.6 3148.65 10269.5 5274.13 8985.6 3669.85 3602.32
internal_count=473036 324019 234047 149017 146495 77625 195595 28558 167037 89972 46724 54431 40035 38452 68870 35541 64481 28928 30901
shrinkage=0.1


Tree=5
num_leaves=20
num_cat=0
split_feature=14 3 5 0 5 7 19 20 8 20 19 5 19 16 20 16 6 19 2
split_gain=6156.29 6396.96 7825.05 6138.9 6010.29 7144.08 6087.78 7707.73 5910.69 4021.18 4202.16 2910.89 2694.77 2253.35 1936.81 1524.15 1162.33 785.473 574.871
threshold=2.2203910350799565 2.0906062400510685 3.7538913884176277 0.13929340602196374 0.76760076725435267 3.1229515092119708 662.10128784179699 715.63076782226574 0.1014883929823673 588.37631225585949 274.14479064941412 0.19196313927956377 454.60690307617193 21.496200561523441 1631.230163574219 22.495300292968754 0.12722049855234649 35718.771484375007 0.075883026914244658
decision_type=2 2 2 2 2 2 2 2 2 2 2 2 2 2 2 2 2 2 2
left_child=1 2 3 8 5 13 7 -6 -1 -2 15 -7 -5 -3 -4 -11 18 -8 -12
right_child=9 4 14 12 6 11 17 -9 -10 10 16 -13 -14 -15 -16 -17 -18 -19 -20
leaf_value=0.0843121612366875 -0.12427799474791262 -0.0069732008682054899 -0.14153899343234402 0.2003177615774504 0.056570918483618206 0.19108700849112895 0.094794782773510236 0.23090259623926893 -0.063156143752495106 -0.12149468425258743 0.034108357795038652 -0.20990925760793058 -0.18465563710620292 -0.19499720060962017 0.11083338333197285 0.24011579373078154 0.16761931098011712 -0.27784708575283334 -0.1244721738844735
leaf_weight=86172.974904278293 2114.3250960670412 1960.0568950762972 1914.4276593439281 5427.961694277823 3212.4732182640582 2377.1412627547979 9525.8422048911452 12083.321953097358 2804.5194126395509 129.2757971920073 296.63758962228894 193.66677113249898 186.04401757195592 941.93954403884709 359.258464820683 1055.2305187210441 204.79352824576199 54.292482279241085 978.61819549929351
leaf_count=336472 20789 7161 17661 2044 16897 2596 5097 17486 23076 1017 1606 2296 1277 6785 478 286 532 288 9192
internal_value=0 0.942154 0.816589 0.860662 1.34281 0.393788 1.55153 1.94306 0.796622 -0.213851 0.603037 1.60683 1.87474 -0.681319 -1.01574 2.00455 -0.520254 0.926026 -0.875884
internal_weight=0 127214 96865.2 94591.5 30348.7 5472.8 24875.9 15295.8 88977.5 4778.88 2664.56 2570.81 5614.01 2902 2273.69 1184.51 1480.05 9580.13 1275.26
internal_count=473036 439614 381008 362869 58606 18838 39768 34383 359548 33422 12633 4892 3321 13946 18139 1303 11330 5385 10798
shrinkage=0.1


Tree=6
num_leaves=20
num_cat=0
split_feature=14 17 19 19 5 12 13 12 0 18 11 6 7 2 2 19 17 13 7
split_gain=4878.66 5208.39 10796.2 9067.77 9924.55 7524.11 9513.32 6201.62 8190.97 7338.94 4035.81 3370.4 3165.82 3136.39 2786.55 3427.63 2684.73 2047.95 1237.65
threshold=2.2203910350799565 1.2504499554634096 540.12741088867199 662.10128784179699 2.619374081246463 1.0208752155303957 0.98481398820877086 1.018366873264313 -0.088581777454712546 6.8069500923156747 0.36327406764030468 0.056569168955705233 3.6175905360639273 0.3298516125269792 0.18655550935374535 274.14479064941412 1.3425000309944155 0.98909166455268871 0.93950666682355377
decision_type=2 2 2 2 2 2 2 2 2 2 2 2 2 2 2 2 2 2 2
left_child=1 2 7 4 -4 11 16 9 -9 -1 -8 17 -5 -13 15 18 -7 -3 -2
right_child=14 5 3 12 -6 6 10 8 -10 -11 -12 13 -14 -15 -16 -17 -18 -19 -20
leaf_value=0.073693626878103172 0.20046468430905218 0.16795145352009705 0.24491923712288055 0.10366317311648561 0.042415212534094027 -0.0048300558718707984 0.085236978278314682 0.21634705194802795 0.011795287715521161 0.17700755698893711 -0.17697039554809282 -0.033839085852372573 -0.10968818239241854 0.088793618000216568 -0.10854379865989923 -0.063274310954470489 -0.1760927187138992 0.45494426928943849 -0.12921372424631386
leaf_weight=31947.848356482573 1122.5887813195586 1119.1164646390826 11444.667557587847 16387.635203551501 3070.704286115244 1271.4229534976184 5999.4134174436331 2157.6327344626188 20860.322245948948 8762.2214776221663 648.02469315379858 2369.6787869902328 724.11925285309553 17309.071538778022 2013.5006927745417 1329.76076671388 3267.1094018742442 319.70006217993796 124.78435740433633
leaf_count=111885 530 1278 49371 20441 15517 6443 12283 2840 124081 15147 6079 17664 3578 27230 22093 9748 25513 264 1051
internal_value=0 0.844378 0.961949 1.43959 2.02096 0.497274 -0.165814 0.724849 0.309933 0.95941 0.59612 0.848489 0.946182 0.740236 -0.204771 0.483706 -1.28148 2.32477 1.67268
internal_weight=0 127659 95355.2 31627.1 14515.4 32303.5 11186 63728 23018 40710.1 6647.44 21117.6 17111.8 19678.8 4590.63 2577.13 4538.53 1438.82 1247.37
internal_count=473036 439614 342860 88907 64888 96754 50318 253953 126921 127032 18362 46436 24019 44894 33422 11329 31956 1542 1581
shrinkage=0.1


Tree=7
num_leaves=20
num_cat=0
split_feature=5 15 9 9 3 5 16 16 12 16 12 12 16 2 16 7 9 16 16
split_gain=4656.5 19168.6 8750.57 8697.87 7527.45 8579.28 13670.3 8752.28 7375.07 6388.39 6228.02 5037.38 5827.47 9777.55 4932.21 4757.7 4677.47 5786.56 5580.24
threshold=0.76760076725435267 3.8304976224899301 1.3320484973762821 0.030527624289564688 1.3699572359102965 2.688018101437383 22.906299591064457 25.460899353027347 1.0315772891044619 20.727899551391605 1.0208752155303957 1.0204315185546877 22.738699913024906 0.35067583572279282 21.164199829101566 3.2960885102719475 1.4845294838039382 21.157899856567386 21.464599609375004
decision_type=2 2 2 2 2 2 2 2 2 2 2 2 2 2 2 2 2 2 2
left_child=1 11 3 -3 8 6 15 -8 10 -10 -2 -1 -13 -14 -11 -6 18 -18 -7
right_child=4 2 -4 -5 5 16 7 -9 9 14 -12 12 13 -15 -16 -17 17 -19 -20
leaf_value=0.16566129911535285 0.059036240663845801 0.074882584107032121 0.16490442646052592 -0.12624053333441862 0.15337126279268734 -0.020145415526726086 -0.19339557488244713 0.091095488542352526 -0.074207212182775678 0.26365329702672835 -0.0785779668863614 -0.051782104673281031 0.39000957492443239 -0.014948188268843633 0.088264192145519407 -0.017467196088659067 0.088972588835177752 -0.13492027332576509 0.092758942829786473
leaf_weight=8587.2897187024355 5960.4912106217816 2812.7837262265384 1679.1002789344639 9104.3679141160101 37171.397312846035 5193.5185845950618 2018.1682956777513 2323.514540839009 1851.9933761265129 2101.238888386637 7329.9073103107512 2964.4139716476202 1032.6157781258225 1405.1771957892925 6763.1621805066243 1704.3101048674434 2131.0481975637376 2512.2934585055336 27828.153029701672
leaf_count=7232 26669 6076 3834 86552 72684 31707 14256 2977 13897 4766 59827 14737 3793 5276 20872 13758 7355 23328 53440
internal_value=0 0.359083 -0.486431 -0.787632 0.820869 0.966816 1.27087 -0.411845 0.329096 0.946234 -0.168609 1.18077 0.423894 1.56834 1.29909 1.45881 0.617876 -0.321729 0.750015
internal_weight=0 27585.7 13596.3 11917.2 104889 80882.4 43217.4 4341.68 24006.8 10716.4 13290.4 13989.5 5402.21 2437.79 8864.4 38875.7 37665 4643.34 33021.7
internal_count=473036 127500 96462 92628 345536 219505 103675 17233 126031 39535 86496 31038 23806 9069 25638 86442 115830 30683 85147
shrinkage=0.1


Tree=8
num_leaves=20
num_cat=0
split_feature=20 14 19 13 12 0 5 15 8 16 16 16 5 5 19 0 15 16 12
split_gain=5185 9564.35 4809.24 4751.96 5693.24 9963.02 6276.1 22468.6 7177.17 5586.09 8164.55 4038.03 3433.12 3348.8 2938.99 2869.46 2365.82 1601.86 1546.92
threshold=559.62356567382824 1.3091624379158022 322.45309448242193 1.0154065489768984 1.0190942287445071 -0.006398459190718883 1.0776305534316271 3.8397123813629155 0.049851976248224496 20.971350669860843 21.164199829101566 22.46205043792725 3.0030374837892047 3.1238621857336479 680.72659301757824 -0.074025203826670799 3.9382287263870244 21.613200187683109 1.0187871456146242
decision_type=2 2 2 2 2 2 2 2 2 2 2 2 2 2 2 2 2 2 2
left_child=1 -1 16 4 6 12 7 -2 -8 -5 14 15 -6 -7 -11 -4 18 -12 -3
right_child=3 2 11 9 5 13 8 -9 -10 10 17 -13 -14 -15 -16 -17 -18 -19 -20
leaf_value=0.1737438660582788 0.14862976759846802 0.10774166265336105 0.20341514099111413 -0.1262899906210081 0.10252311515573509 0.011865172335076307 0.1177956414305972 -0.18290755212453946 0.034679125752122342 0.42542696123346568 -0.14570071334483817 0.11350672344891387 -0.089969492758606329 -0.098798136677934828 0.17314337073914376 -0.12456425875121638 -0.12630058156379914 0.11697254768019963 -0.12635651404952269
leaf_weight=2758.848073117435 4715.3058414198458 826.15398639626801 315.49799392186105 659.79659034870565 18777.966166285798 21994.663532509468 43521.273890392855 3604.0398344835266 13650.5315222973 1395.0142446951941 243.14404647052288 2927.4098732639104 972.53646592609584 3119.9343387270346 698.26736850291491 1649.8551565846428 4781.3287599002942 4283.1367112006992 425.33520001545548
leaf_count=1132 4620 1096 182 7274 46983 122601 84279 42097 47836 1445 2450 4552 5960 20944 808 18198 45021 12381 3177
internal_value=0 0.0747233 -0.345466 0.725106 0.673453 0.398992 0.861449 0.0499036 0.979532 1.50762 1.78418 0.39113 0.930331 -0.0189159 3.41614 -0.716993 -0.942773 1.02781 0.280742
internal_weight=0 13684.4 10925.6 117636 110356 44865.1 65491.2 8319.35 57171.8 7279.36 6619.56 4892.76 19750.5 25114.6 2093.28 1965.35 6032.82 4526.28 1251.49
internal_count=473036 73358 72226 399678 375320 196488 178832 46717 132115 24358 17084 22932 52943 143545 2253 18380 49294 14831 4273
shrinkage=0.1


Tree=9
num_leaves=20
num_cat=0
split_feature=20 14 3 5 13 12 9 5 16 7 16 16 4 16 17 20 16 20 5
split_gain=4076.7 7984.69 4629.29 5982.66 4339.71 7619.82 4113.61 3696.45 3998.31 3383.22 3195.87 2590.05 2511.1 2372.24 2220.16 2190.92 1933.13 1732.54 1482.73
threshold=559.62356567382824 1.3091624379158022 2.0906062400510685 3.8050262955887995 0.98992058634758007 1.0190942287445071 1.2403967078524001 0.76760076725435267 20.791150093078617 2.0769479788613308 25.742300033569339 25.742300033569339 0.16757304067548953 22.46205043792725 1.1889500021934511 698.87637329101574 25.862450599670414 1631.230163574219 2.4361688595472617
decision_type=2 2 2 2 2 2 2 2 2 2 2 2 2 2 2 2 2 2 2
left_child=1 -1 3 4 5 -2 10 9 18 -4 12 -6 -3 -8 -11 -10 -12 -5 -9
right_child=2 6 7 17 11 -7 13 8 15 14 16 -13 -14 -15 -16 -17 -18 -19 -20
leaf_value=0.16005531912007931 0.0745850048656828 0.03627608215530622 -0.10645726038294252 -0.15717799571004923 0.10164080804338482 0.008640457296635538 -0.093435139202709766 0.21689741973796625 -0.028185628574686691 0.12267252975218518 0.24832683031106415 0.31178234887417289 -0.11672517164296564 0.12909488632017793 -0.096724565858939779 0.10239032084933233 -0.13511942429764942 0.093878284211100116 0.11207690596490011
leaf_weight=2698.6019954830408 45226.987511729822 1312.8197005293332 1474.380193380639 1677.9491100069135 12442.69015320763 28604.523319579661 628.67044150270522 4395.966896103695 1397.5386934010312 2332.7961669620126 471.5972021818161 613.63045080006123 5833.6676171733998 1987.4455517455935 572.50431993510574 15800.060371453874 179.82983041554689 326.67860643565655 1962.14702655375
leaf_count=1132 131408 3812 7770 15814 44606 157274 9524 2723 9022 5310 224 428 55657 1719 2110 20439 1290 417 2357
internal_value=0 0.0685375 0.656597 0.544974 0.584391 0.490375 -0.328774 1.0117 1.16853 0.167957 -0.692767 1.11582 -0.88615 0.755758 0.79387 0.917762 1.42346 -1.1619 1.84613
internal_weight=0 13112.6 116828 88892.5 86887.8 73831.5 10414 27935.4 23555.7 4379.68 7797.91 13056.3 7146.49 2616.12 2905.3 17197.6 651.427 2004.63 6358.11
internal_count=473036 73358 399678 349947 333716 288682 72226 49731 34541 15190 60983 45034 59469 11243 7420 29461 1514 16231 5080
shrinkage=0.1


Tree=10
num_leaves=20
num_cat=0
split_feature=0 20 5 14 9 16 10 20 10 17 19 19 14 9 15 17 4 19 12
split_gain=3753.65 5944.99 4429.25 13724.4 8075.56 7457.65 6007.69 3993.59 3449.6 2795.32 2231.9 1367.74 1042.32 1122.13 803.806 541.09 416.958 326.029 263.134
threshold=0.17228790923884182 556.09848022460949 0.26849262929637224 1.5012839436531069 2.5688865551745468 21.496200561523441 0.16794335842132571 1160.3339843750002 0.04144690930843354 0.84264999628067028 322.45309448242193 454.60690307617193 1.4580841660499575 0.14341812916584648 3.7545218467712407 0.22425000369548803 1.1592290195524384 843.80834960937511 1.0208752155303957
decision_type=2 2 2 2 2 2 2 2 2 2 2 2 2 2 2 2 2 2 2
left_child=1 8 3 7 6 -5 -4 -3 12 10 -10 14 13 -1 16 -14 18 -13 -2
right_child=11 2 4 5 -6 -7 -8 -9 9 -11 -12 17 15 -15 -16 -17 -18 -19 -20
leaf_value=0.17832398385059378 0.15192365452852219 0.17696891184044913 0.07172736087427789 0.00099859707896164033 -0.16924505326244937 -0.19081938865118489 -0.19893376597060031 0.04246175794159808 -0.018986035286397668 -0.1325534080061041 0.11567803770346757 -0.19605545960067372 -0.012612910762388831 -0.12456046007083238 -0.11578739086730626 -0.12601810435583774 0.20661887001707072 0.056033639857099138 0.06796088292959479
leaf_weight=272.83978363312781 2536.1334637477994 3589.6118713468313 94243.769638057798 4636.8931428184733 1437.1936918385327 3597.9824934722856 824.67809934914112 5731.8855870850384 2209.3362979320809 930.79509624280035 2773.8332212613896 135.3600565828383 485.8165767993778 217.31225581467152 105.84669612813741 3172.656121453736 1370.2626731842756 79.973104823380709 445.53497891128063
leaf_count=185 603 10590 284960 34482 12928 37790 6009 12403 12399 11352 6771 956 3004 2186 1273 34265 225 173 482
internal_value=0 0.509103 0.574105 0.112071 0.658153 -0.828463 0.693737 0.942967 -0.227663 0.262711 0.559955 1.4219 -0.926417 0.440869 1.54086 -1.10981 1.60721 -1.02897 1.39454
internal_weight=0 124125 114062 17556.4 96505.6 8234.88 95068.4 9321.5 10062.6 5913.96 4983.17 4673.11 4148.62 490.152 4457.78 3658.47 4351.93 215.333 2981.67
internal_count=473036 469324 399162 95265 303897 72272 290969 22993 70162 30522 19170 3712 39640 2371 2583 37269 1310 1129 1085
shrinkage=0.1


Tree=11
num_leaves=20
num_cat=0
split_feature=19 20 13 0 12 5 7 3 9 14 6 8 9 4 3 1 6 2 2
split_gain=3958.66 10540.4 6938.79 5717.25 5390.93 5224.64 5299.38 5006.08 5476.88 4665.39 9766.45 4763.32 3730.01 3676.31 3069.18 2566.61 2346.59 2208.28 1922.18
threshold=540.12741088867199 1180.7393188476565 0.98220899701118491 0.11683164932526015 1.0199292302131655 0.76760076725435267 2.7255970094159712 1.3476794079109802 1.3839923407871118 1.6296324729919436 0.03984001038270505 0.067451881664182908 0.4951738351762684 0.16757304067548953 2.347650040477482 0.16633075854139781 0.11394632392056273 1.7900000506375962 0.35812984687933519
decision_type=2 2 2 2 2 2 2 2 2 2 2 2 2 2 2 2 2 2 2
left_child=3 9 4 5 16 6 -1 13 -9 10 -2 -12 15 -7 -14 -11 -3 -6 -4
right_child=1 2 18 -5 17 7 -8 8 -10 12 11 -13 14 -15 -16 -17 -18 -19 -20
leaf_value=-0.11417508007430854 -0.088668001462707188 -0.080027307227529043 -0.013914751262876111 0.13080182168145768 -0.15973873764286431 0.17162560936113247 0.063403744316986935 0.06141777591251453 -0.046499338029129332 0.1553532618070555 0.17499149821209639 -0.11553707491053905 -0.13532955426912072 -0.04614462754144099 0.13365964185378573 0.05156623420183018 0.069118972281512744 0.098266847961190784 0.071873007054415752
leaf_weight=4950.2265373580158 1676.2194134611636 1553.0829926244915 3131.3277598973364 5493.6495953458361 3611.9954100279137 841.97498053312302 2541.2939311340451 40820.518296613358 5312.9630195647478 3567.3649518210441 15807.679043447599 583.38372319703922 1506.3808662733063 9418.7875670231879 587.4973856844008 7178.902722299099 3273.9582533948123 363.40263597294688 15713.479524673894
leaf_count=46205 13763 6112 15183 5892 25491 900 28398 124632 35416 2688 35977 3480 15933 64335 524 19087 4918 261 23841
internal_value=0 0.682446 0.233815 0.329344 -0.49909 0.245132 -0.539347 0.349366 0.489874 1.0837 1.41123 1.64633 0.622624 -0.28233 -0.597784 0.860513 0.211126 -1.36101 0.576181
internal_weight=0 58554.7 27647.2 69379.4 8802.44 63885.8 7491.52 56394.2 46133.5 30907.4 18067.3 16391.1 12840.1 10260.8 2093.88 10746.3 4827.04 3975.4 18844.8
internal_count=473036 167258 75806 305778 36782 299886 74603 225283 160048 91452 53220 39457 38232 65235 16457 21775 11030 25752 39024
shrinkage=0.1


Tree=12
num_leaves=20
num_cat=0
split_feature=4 5 15 17 6 7 20 14 9 1 8 7 20 16 2 7 2 9 7
split_gain=3662.61 4833.46 7035.88 5863.21 5246.97 4817.34 4279.85 4892.24 4173.17 2753.67 2548.04 2390.13 2259.92 2054.22 1617.25 1616.81 1502.02 1455.91 1145.05
threshold=1.1074515582493902 0.12569142289806667 3.8397123813629155 1.2761500477790835 0.1922471946034611 2.1141916504045772 556.09848022460949 1.219959616661072 1.5080399112762304 0.24408682563758269 0.092597282241893966 2.8222463156098905 1504.4863281250002 20.552449226379398 0.19287029310486734 3.8789887362712414 0.53946633908151975 1.4845294838039382 1.2552194125455869
decision_type=2 2 2 2 2 2 2 2 2 2 2 2 2 2 2 2 2 2 2
left_child=1 2 3 11 6 -4 7 -3 -8 -7 15 -1 -5 -12 -6 -2 -17 -15 -19
right_child=10 4 5 12 14 9 8 -9 -10 -11 13 -13 -14 17 -16 16 -18 18 -20
leaf_value=0.058512810074503221 0.12117606370331796 0.13706088507645101 -0.15585158444941893 -0.19741748973331835 -0.0054982060507535041 0.053015074204373618 0.051774725152119394 -0.065009524366564098 -0.083126962506253468 -0.1717957187029634 0.092464019727649144 0.20422100255567888 0.077460375880852694 0.078580964035486867 0.19228786837622525 -0.15858011400511651 0.13742264448235353 0.24983549478209138 -0.14208320890281709
leaf_weight=2949.9410437382758 11313.424077394418 1462.1550669521093 4095.1411821059883 1009.7343478705734 477.7504531191662 2623.1322046071291 83518.753540843725 6577.100531748496 2355.4573778663762 684.72253868822008 1761.2175602633506 1821.2611527275294 422.69781427644193 535.78996393270791 3058.494356634561 408.5535773653537 291.2572757024318 77.024274095892906 1188.3959237355739
leaf_count=7118 15494 435 36767 7156 3318 21334 272466 56017 18700 7199 2514 3471 692 1356 3070 3634 404 181 11710
internal_value=0 0.382507 -0.175768 0.609615 0.460461 -0.833896 0.415402 -0.282225 0.480719 0.0637338 0.900319 1.1422 -1.16308 0.157417 1.65583 1.12053 -0.353249 -0.593023 -1.1773
internal_weight=0 111056 13606.6 6203.63 97449.7 7403 93913.5 8039.26 85874.2 3307.85 15575.7 4771.2 1432.43 3562.43 3536.24 12013.2 699.811 1801.21 1265.42
internal_count=473036 437743 83737 18437 354006 65300 347618 56452 291166 28533 35293 10589 7848 15761 6388 19532 4038 13247 11891
shrinkage=0.1


Tree=13
num_leaves=20
num_cat=0
split_feature=0 12 14 11 8 13 19 20 17 19 16 16 20 20 4 8 8 20 3
split_gain=3657.66 6287.56 6187.2 5826.66 4876.94 4785.38 4725.98 4596.17 6267.6 3996.05 2743.04 5905.39 4124.22 2698.22 2196.54 1354.76 1440.52 1419.97 1302.12
threshold=-0.010531803278954569 1.0189822316169741 1.4950864911079409 0.2167204022407532 0.067451881664182908 0.98371964693069469 365.95649719238287 1207.453308105469 1.0316500067710879 760.04690551757824 22.270799636840824 25.742300033569339 651.64511108398449 750.83560180664074 1.4932191609732972 -0.044996089356660225 0.015685150822027583 876.98840332031261 0.66760764648288873
decision_type=2 2 2 2 2 2 2 2 2 2 2 2 2 2 2 2 2 2 2
left_child=6 2 14 4 -4 7 13 8 -3 -5 12 -12 -7 -1 -2 17 18 -8 -17
right_child=1 5 3 9 -6 10 15 -9 -10 -11 11 -13 -14 -15 -16 16 -18 -19 -20
leaf_value=-0.10959514954652499 0.13302581783223769 -0.057958928786753454 0.066677135994012079 -0.092063238565968486 -0.026502492809672686 -0.084234375087442415 0.22479466360259093 -0.14563326356809103 0.05996849123653078 0.061650974225218785 -0.12383912882527717 0.19671198293040457 0.088303379629200554 0.13689955567905182 -0.12988512182121228 -0.041886716413736945 0.12922635875176722 0.098547360420555799 0.068969288598300371
leaf_weight=2065.6041774968617 9392.2823071219027 11749.143392882776 34929.136056880932 5264.1491746213287 6691.6734285657294 1603.3226803797297 1247.3799877539277 3011.249779002741 7307.6110910177231 2488.8064143098891 2252.8495798180811 768.51868057250977 10098.745214931667 562.94187560770661 326.77399464324117 1125.6748992633075 3885.0050623174757 3136.7523479973897 17585.922930708155
leaf_count=20790 8089 76496 94573 38674 40837 11079 1112 24191 33585 2845 17340 979 36809 1309 2767 5655 6886 3329 45691
internal_value=0 0.310246 0.512295 0.368688 0.516951 -0.0142904 0.712347 -0.30886 -0.127355 -0.42714 0.427194 -0.421965 0.64649 -0.567147 1.24151 0.837046 0.738169 1.34588 0.622949
internal_weight=0 95884.3 59092.8 49373.8 41620.8 36791.4 29609.3 22068 19056.8 7752.96 14723.4 3021.37 11702.1 2628.55 9719.06 26980.7 22596.6 4384.13 18711.6
internal_count=473036 388264 187785 176929 135410 200479 84772 134272 110081 41519 66207 18319 47888 22099 10856 62673 58232 4441 51346
shrinkage=0.1


Tree=14
num_leaves=20
num_cat=0
split_feature=19 20 13 14 17 13 16 6 14 15 9 6 13 9 19 14 17 3 17
split_gain=2948.23 7985.15 5367.38 4372.54 6803.58 4898.93 3933.51 3084.92 3912.9 3587.15 3034.32 2798.07 2012.89 1898.99 1882.94 3019.88 2211.35 1213.47 1046.12
threshold=546.27880859375011 1194.2449340820315 0.98105099797248851 1.2713410854339602 1.1145499944686892 0.96990138292312633 22.994800567626957 0.041940881754382174 1.6358915567398074 4.259366750717164 2.5688865551745468 0.11874820819551449 0.95959761738777172 0.57635701745420609 760.04690551757824 1.7997310161590578 2.714749932289124 0.87810027907220489 4.4263999462127694
decision_type=2 2 2 2 2 2 2 2 2 2 2 2 2 2 2 2 2 2 2
left_child=3 6 11 -1 5 -5 7 9 -9 -2 -7 18 17 -13 15 -4 -16 -6 -3
right_child=1 2 14 4 12 10 -8 8 -10 -11 -12 13 -14 -15 16 -17 -18 -19 -20
leaf_value=0.11187927997803215 -0.10369661035888281 -0.11054995108730795 -0.050665601509038517 -0.098645432774216363 0.48308655003401618 0.033567712225240041 -0.12983068999337041 0.13552952666336035 0.0540738152886059 0.092649918921374877 -0.16815066080010735 0.072911370379415669 -0.12699650705107202 -0.080720890739346615 0.078317494332575704 0.087773242980609567 -0.082923461319057257 -0.10714442480135988 -0.2865364236752343
leaf_weight=5134.8152399919927 1598.6179273594171 2889.94581215363 4430.4176422557794 3074.5314113977365 86.169296627864242 56202.641932230908 801.81821981631219 16681.01888386393 9130.4757792372257 2218.1494937539101 753.02100272243842 1691.726244719699 3709.8915320029482 1529.1383866705 10293.500046947971 2441.7983707846142 924.89439315348864 55.831788247451186 381.66175882518291
leaf_count=4351 13756 19916 18865 25464 406 234205 8010 37640 26158 4281 9114 1725 36975 6475 14304 4623 3834 721 2213
internal_value=0 0.541591 0.117688 0.231241 0.159853 0.242538 0.884 0.943176 1.06725 0.103956 0.308926 -0.662113 -1.128 -0.000328958 0.397608 -0.0146023 0.650066 2.53398 -1.31307
internal_weight=0 55013.2 24583.1 69016.9 63882.1 60030.2 30430.1 29628.3 25811.5 3816.77 56955.7 6492.47 3851.89 3220.86 18090.6 6872.22 11218.4 142.001 3271.61
internal_count=473036 161800 71955 311236 306885 268783 89845 81835 63798 18037 243319 30329 38102 8200 41626 23488 18138 1127 22129
shrinkage=0.1


Tree=15
num_leaves=20
num_cat=0
split_feature=4 5 14 3 9 5 16 16 12 16 20 7 12 12 9 5 9 16 10
split_gain=2889.13 3995.63 6309.46 4454.39 4263.01 4231.21 8489.16 5225.67 3994.39 3425.11 3365.18 3477.24 2787.51 2745.61 2630.07 1983.96 2032 1414.47 2365.66
threshold=1.1074515582493902 0.76760076725435267 1.5012839436531069 1.4261434446050398 0.013648498271396118 2.6608189862583909 22.906299591064457 21.477199554443363 1.0317775607109072 20.727899551391605 1194.2449340820315 2.8222463156098905 1.0118697285652163 1.0215077400207522 1.3320484973762821 3.7538913884176277 0.9588436635786115 21.050399780273441 0.13162153959274295
decision_type=2 2 2 2 2 2 2 2 2 2 2 2 2 2 2 2 2 2 2
left_child=1 2 10 8 -4 6 -5 -7 13 -10 11 -1 -12 -3 -6 17 -17 -2 -19
right_child=15 3 4 5 14 7 -8 -9 9 -11 12 -13 -14 -15 -16 16 -18 18 -20
leaf_value=0.032662138009793167 0.11784553186801278 0.01245697396921968 0.066714229008503198 0.087488727769393981 -0.11114008626962871 -0.060736340797730139 -0.077726125971394194 0.043102598347747316 -0.079479792922432874 0.072184169001097795 0.15902988995068698 0.19349112514357392 -0.14126867179657152 -0.07774555128718505 0.11433885371742217 0.18228146609889362 -0.12593089116752712 0.068741200471036587 -0.17386354910184124
leaf_weight=3736.7546777492389 6860.5357174873352 6251.5175473499112 1973.9245735313743 33651.44166946318 7908.7907048054039 6127.402043227572 3424.556878818199 23142.273606160656 1796.7645384073257 8635.595122333616 403.80518843978643 2098.2719821557403 1289.0346090532839 7327.5892780488357 551.29581981897354 280.59302780404687 870.98897091811523 6133.3283708048984 427.47038841433823
leaf_count=10936 8096 26167 4666 75334 87266 41966 15728 59933 14234 25777 292 5446 7396 60783 1819 185 8818 16131 2063
internal_value=0 0.278667 -0.152083 0.364297 -0.655431 0.497865 0.722237 0.213608 -0.00477403 0.460486 0.545565 0.905613 -0.694912 -0.362241 -0.964138 0.752917 -0.505715 0.860995 0.528668
internal_weight=0 108319 17961.9 90357.1 10434 66345.7 37076 29269.7 24011.5 10432.4 7527.87 5835.03 1692.84 13579.1 8460.09 14572.9 1151.58 13421.3 6560.8
internal_count=473036 437743 117821 319922 93751 192961 91062 101899 126961 40011 24070 16382 7688 86950 89085 35293 9003 26290 18194
shrinkage=0.1


Tree=16
num_leaves=20
num_cat=0
split_feature=0 12 15 5 19 18 12 5 8 5 16 16 19 5 5 3 17 2 3
split_gain=3095.34 4105.97 5472.24 10564.2 4208.66 5284.48 6250.4 4182.82 3992.73 2963.32 2163.31 2126.05 1987.61 1848.6 1574.52 1554.25 1260.83 1582.17 1346.8
threshold=-0.018490363651095978 1.0190942287445071 3.890959858894349 1.3637812635888233 445.38870239257818 5.3900499343872079 1.0401678085327151 1.0114898480473777 0.074751581658540442 3.8050262955887995 22.599599838256839 20.791150093078617 334.68585205078131 3.2174103352098493 3.5616240890543924 1.0510234201633886 1.0970000028610232 0.17868462462293641 1.7240944710581823
decision_type=2 2 2 2 2 2 2 2 2 2 2 2 2 2 2 2 2 2 2
left_child=12 2 9 10 7 15 -7 11 -5 14 -4 -3 13 -1 -2 -6 -14 18 -18
right_child=1 4 3 8 5 6 -8 -9 -10 -11 -12 -13 16 -15 -16 -17 17 -19 -20
leaf_value=-0.096687428009003942 0.10083451008737079 -0.13786666949102946 -0.15214493504777996 0.050414771227502798 -0.10120228286992615 -0.019484804374927348 0.14528662581889931 -0.1215970440442825 -0.042493973082667724 -0.12989143324066882 0.042350676356146651 0.025819605376028999 0.099020225336277579 0.31579027222306549 0.24572022330090568 0.12011100189714469 -0.14090060778765101 0.066677922219789604 0.050949197715510777
leaf_weight=1104.0093582654372 10673.550640968606 930.33457233943045 3741.0990232331678 39741.608699902892 335.84291125228629 21316.985949417111 2578.1243406366557 4977.7090743947774 5232.5267138360068 531.87644257768989 673.70035882107913 5300.7918270686641 10065.668823637534 117.76205781847239 805.88344296626747 5207.4587238249369 753.77985720103607 6676.8854990391992 706.51270399056375
leaf_count=12351 12244 8138 51551 95272 5042 127622 5321 39152 37204 4393 2596 22457 20523 193 825 12187 3761 10883 1321
internal_value=0 0.235163 0.398364 0.251109 -0.0113715 0.187185 -0.016921 -0.532771 0.396033 1.00366 -1.22456 0.0132946 0.670682 -0.563011 1.11063 1.06658 0.753562 0.460597 -0.481581
internal_weight=0 102047 61400.2 49388.9 40647.2 29438.4 23895.1 11208.8 44974.1 12011.3 4414.8 6231.13 19424.6 1221.77 11479.4 5543.3 18202.8 8137.18 1460.29
internal_count=473036 424004 204085 186623 219919 150172 132943 69747 132476 17462 54147 30595 49032 12544 13069 17229 36488 15965 5082
shrinkage=0.1


Tree=17
num_leaves=20
num_cat=0
split_feature=0 12 14 5 19 9 5 3 12 16 17 2 5 7 20 1 4 17 19
split_gain=2622.63 3990.81 4106.15 7328.11 3480.68 3345.26 3179 4477.55 4634.24 3835.61 3079.59 2920.02 2346.7 2317.68 2103.95 2038.74 1179.32 1604.53 1509.79
threshold=-0.010531803278954569 1.0189822316169741 1.4950864911079409 1.3065824498265697 365.95649719238287 1.3320484973762821 1.0376860959424057 2.052934470983677 1.0401678085327151 20.708950042724613 1.3985999822616579 0.3298516125269792 3.855601479872194 2.7255970094159712 750.83560180664074 0.59269389268575456 0.86403044810322671 1.9712499976158144 752.93386840820324
decision_type=2 2 2 2 2 2 2 2 2 2 2 2 2 2 2 2 2 2 2
left_child=4 2 12 13 14 -5 9 8 -8 15 -11 -9 -2 -4 -1 -3 17 -6 -19
right_child=1 6 3 5 16 -7 7 11 -10 10 -12 -13 -14 -15 -16 -17 -18 18 -20
leaf_value=-0.10825363024063767 0.10965182545376669 -0.14919691691850673 -0.15502592601242657 0.047932187006102911 0.058895168939726461 -0.032958955677927004 -0.07569281947267717 0.096129831163089693 0.12448181193694555 0.063330082679814978 -0.086706884901634834 -0.091968438851621592 -0.16463158961534027 0.0016524326000961305 0.11559998110071296 0.10459247093225382 0.10153051318341062 0.052668402828053698 -0.21785173609331734
leaf_weight=1913.8510845398996 8360.2803404927254 1649.733796692919 2760.9429637498688 37405.833399462979 18051.258019695524 5919.6710837096907 14027.503863744438 3581.0255465386435 1257.9376795245335 12065.340698213782 1540.4815211892128 1069.8050123862922 321.62240016646683 1433.8848796787206 535.16559020057321 389.39747269451618 6699.4462481937371 407.32894675247371 413.42870519310236
leaf_count=20790 7651 16613 31731 91721 47314 35552 110064 6251 3432 49644 10248 4051 3205 17925 1309 176 11801 1439 2119
internal_value=0 0.196235 0.362142 0.246575 0.545765 0.368784 -0.065831 -0.3306 -0.591993 0.27156 0.463281 0.528329 0.994412 -1.01503 -0.592597 -1.00655 0.654841 0.526747 -0.838687
internal_weight=0 91783.5 56202.2 47520.3 28020.5 43325.5 35581.2 19936.3 15285.4 15645 13605.8 4650.83 8681.9 4194.83 2449.02 2039.13 25571.5 18872 820.758
internal_count=473036 388264 187785 176929 84772 127273 200479 123798 113496 76681 59892 10302 10856 49656 22099 16789 62673 50872 3558
shrinkage=0.1


Tree=18
num_leaves=20
num_cat=0
split_feature=8 19 19 20 2 12 15 19 14 12 18 17 13 12 12 17 2 8 2
split_gain=2417.74 2648.92 2868.96 6143.61 4017.18 5833.06 5524.2 3483.31 2731.88 1807.97 1133.79 1372.55 937.77 846.826 823.971 720.189 631.71 534.77 227.39
threshold=-0.042810546474788359 1459.0875244140627 554.72067260742199 1180.7393188476565 0.19287029310486734 1.0175673961639407 4.3566761016845712 760.04690551757824 1.3167405724525454 1.0124562978744509 7.3886499404907235 1.4519000053405764 1.0112022757530215 1.0205313563346865 1.0317775607109072 0.42200000584125524 0.039361763378138383 -6.1769245369776575 1.3389522248529284
decision_type=2 2 2 2 2 2 2 2 2 2 2 2 2 2 2 2 2 2 2
left_child=9 2 4 8 5 -2 -6 -5 -4 15 11 12 -11 -12 -15 -1 -3 -13 -18
right_child=1 16 3 7 6 -7 -8 -9 -10 10 13 17 -14 14 -16 -17 18 -19 -20
leaf_value=0.12647623574533726 0.054047082715103389 0.069767089781086034 -0.070809050815134097 -0.043128372798289072 0.0098123296526292682 -0.019483650271789298 -0.10327734832703815 0.039012160232128106 0.087054470998265479 0.10437395465521737 0.11007204080040463 -0.16711417306814128 0.23698786618695156 -0.11811195358123744 0.053191909705253032 -0.15114180831908691 -0.18889801109819992 0.064159735245288216 -0.00011647921458368212
leaf_weight=114.61495305132121 27818.710403775796 120.52152534015477 1153.6269394913688 9039.2946891458705 12559.174146847799 17619.705093365628 6580.5425939825363 12030.47726856824 21311.512025214732 5730.7174517507665 598.65693941712379 239.88855042308569 587.80259130103514 589.49548542685807 531.55955477431417 463.05838869465515 779.01656375546008 168.00852311868221 69.513127254322171
leaf_count=183 80548 367 5701 39100 60899 100743 65417 25394 62408 10136 557 1937 404 5618 1531 3628 7897 394 174
internal_value=0 0.212465 0.227235 0.425629 0.0934751 0.255345 -0.290789 0.0377128 0.7894 0.751013 0.868122 1.05331 1.1681 0.143218 -0.369532 -0.957131 -1.43117 -0.720581 -1.73487
internal_weight=0 109082 108113 43534.9 64578.1 45438.4 19139.7 21069.8 22465.1 9023.8 8446.13 6726.42 6318.52 1719.71 1121.06 577.673 969.051 407.897 848.53
internal_count=473036 448648 440210 132603 307607 181291 126316 64494 68109 24388 20577 12871 10540 7706 7149 3811 8438 2331 8071
shrinkage=0.1


Tree=19
num_leaves=20
num_cat=0
split_feature=0 0 20 4 7 16 0 16 4 19 2 19 5 19 5 20 7 15 15
split_gain=2230.76 2462.11 2806.48 2976.55 3418.98 1742.27 1866.9 1566.47 1278.39 1429.86 1213.8 1975.19 1110.2 864.623 663.481 565.239 527.79 437.377 381.774
threshold=-0.019726346269504102 0.17228790923884182 559.62356567382824 0.29833964015674974 0.73720268442435943 25.742300033569339 0.066773746854618996 20.984000205993656 0.85891198359082799 334.68585205078131 0.056599494703330581 951.70660400390636 0.89796161334963787 454.60690307617193 2.9618572817347792 768.91540527343761 4.5166277474787293 3.7545218467712407 4.1557271480560312
decision_type=2 2 2 2 2 2 2 2 2 2 2 2 2 2 2 2 2 2 2
left_child=8 2 5 7 -5 6 -2 -4 9 15 14 -12 -7 17 -11 -1 -10 -3 -18
right_child=1 13 3 4 -6 12 -8 -9 16 10 11 -13 -14 -15 -16 -17 18 -19 -20
leaf_value=-0.1218460172519043 -0.080951102249077395 0.11926091956947944 -0.126865528237084 0.097481722183202849 0.018373863811836515 0.17852353250581277 0.067264085315560967 -0.01404771109702542 0.11277614095326521 0.12282688468015185 0.045576476779985664 -0.14295697163668594 -0.14817798853647696 -0.10218725739007534 -0.15565845384154872 0.070426526794950969 -0.20710891787524643 -0.11230785992938247 0.11582270071036072
leaf_weight=705.58641878329217 5834.314092126675 3125.1741838231683 1847.1313998615369 5877.0181635478511 77185.208557297941 512.2269172295928 992.46237382129766 3679.7661663228646 3845.4409245466813 2376.0817305920646 9578.6913454849273 587.22095315158367 128.06996108591557 195.61572009231895 86.443816320970654 192.97081062197685 88.776804071851075 81.654688141075894 58.659667507745326
leaf_count=10996 56324 1310 17174 18189 304254 519 3888 22839 4672 1816 24285 1914 823 1129 497 530 433 1273 171
internal_value=0 0.172454 0.142825 0.192454 0.239742 -0.445819 -0.593848 -0.517977 0.559425 0.41251 0.499272 0.346497 1.12815 1.0081 1.12885 -0.804611 1.0565 1.13271 -0.788404
internal_weight=0 99458.6 96056.2 88589.1 83062.2 7467.07 6826.78 5526.9 17519.9 13527 12628.4 10165.9 640.297 3402.44 2462.53 898.557 3992.88 3206.83 147.436
internal_count=473036 427722 424010 362456 322443 61554 60212 40013 45314 40038 28512 26199 1342 3712 2313 11526 5276 2583 604
shrinkage=0.1


Tree=20
num_leaves=20
num_cat=0
split_feature=4 5 15 6 19 7 7 19 19 11 16 2 2 8 3 19 7 2 15
split_gain=2076.43 2933.98 4891.9 3661.68 3012.23 2639.83 2585.34 2327.12 3491.88 1907.63 1879.53 1861.66 1574.74 1353.85 1197.74 1391.62 902.536 1051.64 930.533
threshold=1.1450696018013937 0.26849262929637224 3.8397123813629155 0.1922471946034611 642.96539306640636 2.8222463156098905 2.1141916504045772 951.70660400390636 603.50460815429699 0.19000795483589175 21.774399757385257 1.534077101827386 0.19287029310486734 0.092597282241893966 1.4329223722103146 879.49578857421886 3.8789887362712414 1.0913601470719796 3.4437450170516972
decision_type=2 2 2 2 2 2 2 2 2 2 2 2 2 2 2 2 2 2 2
left_child=1 2 4 7 5 -1 -4 8 -3 -8 -9 -6 -5 16 15 -15 18 -18 -2
right_child=13 3 6 12 11 -7 9 10 -10 -11 -12 -13 -14 14 -16 -17 17 -19 -20
leaf_value=0.011341677426603955 0.023758396670144125 0.009015315146932051 -0.14013811631888412 -0.031804952705412892 -0.13439143501409809 0.15373153463537534 0.025232684601717917 -0.031215822953932 0.054292041519513667 -0.14827150811344209 -0.24602342644530198 0.075515895701951177 0.15151821666027329 -0.14849185515981847 0.050701765753151898 0.11627304344571376 -0.13368863403871328 0.18252172440996439 0.10547822578915578
leaf_weight=3098.5362294092774 1771.5649817530066 60306.482233105227 3833.5935725625604 554.67176100518554 1420.16910522338 2243.5445279013366 2457.2919118297286 1843.9422953957692 23736.984344466589 850.82587424712256 520.45422020182014 598.82534328475595 2984.8788282512687 799.94206769065931 1796.1164424046874 261.4344530031085 380.549755374901 142.27619071118534 6559.8436561208218
leaf_count=10827 3218 256295 40815 4190 6917 7444 26187 12074 59484 12908 3603 662 1928 7175 6019 312 3017 192 9769
internal_value=0 0.16407 -0.253285 0.231369 0.318728 0.711914 -0.842766 0.19051 0.218045 -0.194776 -0.787342 -0.721141 1.22787 0.608079 0.00954649 -0.831397 0.801175 -0.471226 0.881157
internal_weight=0 104450 14502.8 89947.4 7361.08 5342.08 7141.71 86407.9 84043.5 3308.12 2364.4 2018.99 3539.55 11711.7 2857.49 1061.38 8854.23 522.826 8331.41
internal_count=473036 443334 105760 337574 25850 18271 79910 331456 315779 39095 15677 7579 6118 29702 13506 7487 16196 3209 12987
shrinkage=0.1


Tree=21
num_leaves=20
num_cat=0
split_feature=0 0 4 13 14 13 16 19 3 0 18 7 18 19 20 16 7 20 20
split_gain=2038.32 2109.45 2312.89 3090.09 2646.53 2383.15 2290.69 2164.61 1411.27 1405.36 993.15 930.403 862.422 727.228 449.684 408.981 400.279 409.096 311.621
threshold=-0.049506638884936296 0.17228790923884182 0.31379415090173185 1.0166105031967165 1.3167405724525454 0.98028424382209789 25.742300033569339 432.95664978027349 0.84842694521795481 0.097209824914913548 9.602149963378908 0.20668633420118518 4.0399498939514169 450.97000122070318 572.52069091796886 21.126299858093265 1.5654676491005135 422.21020507812506 1527.6753540039065
decision_type=2 2 2 2 2 2 2 2 2 2 2 2 2 2 2 2 2 2 2
left_child=8 2 5 4 -4 9 -7 -5 11 -2 12 -1 14 16 -10 -14 17 -3 -13
right_child=1 13 3 7 -6 6 -8 -9 10 -11 -12 18 15 -15 -16 -17 -18 -19 -20
leaf_value=0.088294723529656616 -0.10800458039877987 -0.24466900976361172 -0.066322414808066985 -0.1106371844899974 0.017541058974076318 -0.017294024210474771 0.15574752197271458 0.11983752411292557 -0.11809466339739738 0.076288220091227321 -0.1908612365595122 -0.13280812915676551 0.14052818444347781 -0.089619130918739812 0.04623087499743158 0.082174194865801964 0.13288012704749408 0.068103620842742379 0.054226590196681447
leaf_weight=392.6190548427403 3871.710859909188 41.175531121902168 3931.5557309063151 449.12216823222116 86427.974250742001 4935.2477743697818 902.48106504045427 4195.9626285657287 214.51164470077492 461.25713537307456 120.39322040975094 579.50456898007542 2583.3095509605482 196.29603523761034 710.19388808263466 2277.2535853728186 2045.543010866968 891.66972219571471 103.56812870129943
leaf_count=267 34414 728 19161 3586 355465 30426 604 9379 4613 1175 452 3621 1411 1147 1869 2624 687 1150 257
internal_value=0 0.155543 0.131287 0.179809 0.138902 -0.321881 0.0951814 0.975 0.712929 -0.88349 0.904756 -0.33981 0.964197 0.958305 0.0786796 1.13252 1.08126 0.536088 -1.04341
internal_weight=0 108350 105175 95004.6 90359.5 10170.7 5837.73 4645.08 6981.35 4332.97 5905.66 1075.69 5785.27 3174.68 924.706 4860.56 2978.39 932.845 683.073
internal_count=473036 457922 454210 387591 374626 66619 31030 12965 15114 35589 10969 4145 10517 3712 6482 4035 2565 1878 3878
shrinkage=0.1


Tree=22
num_leaves=20
num_cat=0
split_feature=2 4 5 15 7 17 5 7 17 8 16 3 16 16 17 4 12 17 11
split_gain=1858.1 1832.66 2436.26 3176.21 3099.69 7568.86 3750.3 2863.33 2678.37 1181.53 1030.17 990.555 778.262 866.314 767.606 608.239 444.866 413.872 212.358
threshold=0.019402851069758215 1.1450696018013937 0.12514328286688217 3.8397123813629155 3.3164949176609264 1.4756500124931338 3.2292932064752162 2.1141916504045772 1.2504499554634096 0.092597282241893966 20.552449226379398 2.4549809731863506 20.247300148010257 21.06305027008057 0.77820000052452099 0.27955391614501351 1.0105617046356203 1.2691000103950503 0.3801394402980805
decision_type=2 2 2 2 2 2 2 2 2 2 2 2 2 2 2 2 2 2 2
left_child=15 2 3 8 6 -6 -4 -5 -2 12 14 -12 18 -14 -11 17 -17 -1 -3
right_child=1 9 4 7 5 -7 -8 -9 -10 10 11 -13 13 -15 -16 16 -18 -19 -20
leaf_value=0.096310385719458214 0.065166218194066705 -0.11647881272258159 0.029134997769386807 -0.14654366573129837 -0.13886544933472864 0.099584575444828613 -0.039733036465320677 -0.0089978625032600089 -0.08994499145863219 0.11103784163074144 -0.098646397543167438 0.13622388673818409 0.10807785148314322 0.043721833042050517 -0.050806712215851979 -0.10338009163096712 0.20729663532441128 -0.11569744117306774 -0.47084521477439578
leaf_weight=436.18489351682365 4076.0214588362724 54.883519921451807 75744.394933520933 3199.9810639745556 3721.9406567015685 2069.0633459035307 8826.5647890968248 2870.2757137166336 1528.4360511181876 915.45720042102039 1183.2192094493657 209.09225467965007 4147.7965089902282 4229.9852678086609 428.41325467731804 47.430948873981833 757.6508208932355 113.99728306941688 23.621460732072592
leaf_count=476 9513 422 258119 35951 52509 3609 44862 28157 8482 414 11096 186 4920 10563 1806 167 236 1381 167
internal_value=0 0.157593 0.115449 -0.314386 0.170992 -0.536624 0.219462 -0.815405 0.228405 0.541675 -0.0294926 -0.631711 0.726438 0.756098 0.594427 1.33432 1.88697 0.520163 -2.35598
internal_weight=0 113229 102037 11674.7 90362 5791 84571 6070.26 5604.46 11192.5 2736.18 1392.31 8456.29 8377.78 1343.87 1355.26 805.082 550.182 78.505
internal_count=473036 470776 441202 82103 359099 56118 302981 64108 17995 29574 13502 11282 16072 15483 2220 2260 403 1857 589
shrinkage=0.1


Tree=23
num_leaves=20
num_cat=0
split_feature=17 19 7 12 12 19 16 16 12 5 16 9 6 7 17 14 13 14 20
split_gain=1807.4 3625.9 4245.45 2847.42 3971.04 2915.67 2591.07 5021.41 7411.63 5404.68 4397.13 3153.21 2195.35 2275.81 5607.09 2157.5 3471.96 1863.75 1755.38
threshold=1.283300042152405 546.27880859375011 3.4707921554109489 1.0215077400207522 1.0310156345367434 729.88827514648449 21.531000137329105 21.564150810241703 1.0138401985168459 3.1115976229372051 21.148399353027347 0.52458619085691449 0.055917553707378852 3.9269366815042939 4.4263999462127694 1.344004809856415 0.96438694000244152 1.1882848143577578 2189.881469726563
decision_type=2 2 2 2 2 2 2 2 2 2 2 2 2 2 2 2 2 2 2
left_child=1 6 15 12 18 -6 10 9 -9 -8 11 -1 -2 14 -14 -3 -17 -12 -5
right_child=3 2 -4 4 5 -7 7 8 -10 -11 17 -13 13 -15 -16 16 -18 -19 -20
leaf_value=0.034363227089147519 0.15376218080177206 -0.039946758104111621 -0.092286497526943873 -0.16189680445704613 -0.14357946993440368 0.057230295823212735 -0.15602005380557069 -0.090487293613378234 0.035955289182655469 0.37482965119663036 0.093878077613851932 -0.051811399910530825 0.0089651196671309743 0.10437374566886862 -0.23906039235805135 0.20745782169438259 0.058840454063212491 -0.12589870222123842 0.072642252219666706
leaf_weight=11806.873823123169 1060.5342503297143 1967.8289741361514 1935.1597093059681 3137.9951912527904 952.31884194072336 2973.3315568948165 253.84795891004615 5404.3380293690134 32498.964550534845 765.39565083105117 422.90556310303509 6627.1204270576127 10799.860015737824 1958.2425895771012 992.69487780705094 1681.3316540680826 23736.82463500509 4194.0716294706799 353.59531512390822
leaf_count=57430 1620 8352 16402 29227 9591 5619 2670 41110 99673 373 254 44926 34666 2856 5406 2708 64594 44448 1111
internal_value=0 0.217946 0.507662 -0.100016 -0.605658 0.084482 0.0808575 0.238207 0.179214 2.42551 -0.184829 0.0337968 0.153265 0.0462044 -0.119648 0.608831 0.686928 -1.05723 -1.38105
internal_weight=0 91294.7 29321.1 22228.6 7417.24 3925.65 61973.5 38922.5 37903.3 1019.24 23051 18434 14811.3 13750.8 11792.6 27386 25418.2 4616.98 3491.59
internal_count=473036 382940 92056 90096 45548 15210 290884 143826 140783 3043 147058 102356 44548 42928 40072 75654 67302 44702 30338
shrinkage=0.1


Tree=24
num_leaves=20
num_cat=0
split_feature=8 19 19 20 17 13 19 12 14 12 2 5 9 6 5 17 7 19 2
split_gain=1754.25 2076.17 1853.27 4758.6 3254.46 5932.98 2652.51 2572.25 2470.64 1427.27 1108.34 1260.23 1258.89 945.382 749.442 646.587 396.931 282 193.807
threshold=-0.042810546474788359 1459.0875244140627 586.15219116210949 1180.7393188476565 1.1234000325202944 0.96828243136405956 760.04690551757824 1.018366873264313 1.6436683535575869 1.0124562978744509 0.99602255429237341 2.7023333110314991 -0.13054539804541695 0.044732783293845342 2.3861713136249976 0.42200000584125524 0.29787193625427083 662.10128784179699 1.3389522248529284
decision_type=2 2 2 2 2 2 2 2 2 2 2 2 2 2 2 2 2 2 2
left_child=9 2 4 8 7 -6 -5 -2 -4 15 11 14 -13 -12 -11 -1 -3 -15 -18
right_child=1 16 3 6 5 -7 -8 -9 -10 10 13 12 -14 17 -16 -17 18 -19 -20
leaf_value=0.11974461679920526 0.025731370435105341 0.059777911527823961 0.089950950674336227 -0.04694098243651007 0.10581387211442679 -0.12732884523988477 0.028179681268990481 -0.015960505466297986 4.1016337763181758e-05 0.055580674882141461 -0.12199903479841197 -0.14627434602147668 0.11112909279011372 0.21825249081790932 0.17482160427820911 -0.15285632288617479 -0.17872519800175357 0.12692954370175533 -0.0022848968646412876
leaf_weight=106.61635112063959 36566.658814008813 86.784923084080219 12958.659855003934 8208.930439345073 1451.084793388145 4380.531263391953 10989.998282257468 24854.380205349298 3999.4201096100733 4680.6647163620219 118.95035069156438 574.32596707995981 280.82110911794007 643.85736466059461 592.37750645540655 430.99247179040685 730.04753626603633 749.85330025106668 68.151546373963356
leaf_count=183 143291 182 31846 36795 4285 43185 25394 140637 14777 13134 1639 4210 458 463 363 3628 8082 310 174
internal_value=0 0.105904 0.118974 0.301542 0.0208107 -0.692925 -0.0394182 0.088605 0.687501 0.58679 0.697669 0.508009 -0.616561 1.46367 0.690619 -0.984518 -1.41685 1.69471 -1.63724
internal_weight=0 104295 103410 36157 67252.7 5831.62 19198.9 61421 16958.1 8178.46 7640.85 6128.19 855.147 1512.66 5273.04 537.609 884.984 1393.71 798.199
internal_count=473036 448648 440210 108812 331398 47470 62189 283928 46623 24388 20577 18165 4668 2412 13497 3811 8438 773 8256
shrinkage=0.1


Tree=25
num_leaves=20
num_cat=0
split_feature=3 5 0 19 19 13 5 18 5 19 10 17 14 20 5 17 11 5 14
split_gain=1874.57 2732.72 2682.64 1924.55 2979.08 2266.28 1761.56 1760.88 1498.47 1452.69 1450.74 1983.25 1945.32 1287.35 1021.3 1296.51 862.227 710.673 602.593
threshold=2.0201836570224683 3.8050262955887995 0.0024097091380345208 169.66670227050784 320.01919555664068 0.98824611306190502 0.7901103111879092 5.4763498306274423 1.7329953679112224 372.25120544433599 0.041156470775604255 1.060000002384186 1.4685009121894839 718.89349365234386 1.5610084596002969 1.2204499840736391 0.28409139811992651 3.0030374837892047 1.8700957298278811
decision_type=2 2 2 2 2 2 2 2 2 2 2 2 2 2 2 2 2 2 2
left_child=1 3 9 7 8 -6 -4 -1 -5 13 12 -12 -8 -2 15 -11 -9 -16 -3
right_child=2 18 6 4 5 -7 10 16 -10 14 11 -13 -14 -15 17 -17 -18 -19 -20
leaf_value=-0.13069063297640796 -0.073028673040917327 -0.1444630604388242 -0.11596481668627651 -0.021220221506241223 0.00019788431343776446 0.044079297822770397 0.11276393562281795 0.10207278440314316 -0.13633962554943529 0.050871667480942233 0.093432294984517272 -0.034424462157533232 -0.095899417772478679 0.10429703428450271 0.099029865904383133 -0.087991361347383334 -0.12006674085926838 0.041813284588575556 0.10430106564549091
leaf_weight=387.44423874979839 1455.9115211472381 1416.0590064639691 1326.6081461806316 2451.0070467346814 58684.145160974003 14719.170832803706 566.50536248832941 3816.2537003303878 2098.3391796867363 4825.4643121799454 2924.9296881793998 2069.6368915764615 2077.000079233665 566.44704360887408 8208.8819322017953 778.53682509949431 180.8392148129642 2959.4913489930332 102.59706652350724
leaf_count=4648 17497 15264 13642 15250 271599 55751 688 5972 18433 11610 4825 5444 12520 1016 6709 2967 1946 6864 391
internal_value=0 0.0530417 0.35284 0.0775782 0.0413066 0.0899856 -0.0972586 0.722009 -0.743694 0.567511 0.0876119 0.40461 -0.511101 -0.232846 0.66404 0.315455 0.919454 0.838826 -1.27495
internal_weight=0 83855.9 27759.4 82337.2 77952.7 73403.3 8964.68 4384.54 4549.35 18794.7 7638.07 4994.57 2643.51 2022.36 16772.4 5604 3997.09 11168.4 1518.66
internal_count=473036 389254 83782 373599 361033 327350 37119 12566 33683 46663 23477 10269 13208 18513 28150 14577 7918 13573 15655
shrinkage=0.1


Tree=26
num_leaves=20
num_cat=0
split_feature=0 12 14 5 19 18 12 8 5 20 5 12 17 2 14 5 2 2 8
split_gain=1621.01 1973.87 3621.03 5733.52 3528.04 4164.17 4748.87 2886.64 2526.03 2483.58 1502.94 972.567 924.548 757.104 1393.15 1022.32 854.367 713.767 653.901
threshold=-0.040855397601644826 1.0197314620018008 1.5263945460319521 1.3791995075527157 445.38870239257818 5.3900499343872079 1.028269946575165 0.074751581658540442 0.98483473879850814 38.037500381469734 3.855601479872194 1.0361201167106631 0.67219999432563793 0.071658964115607265 1.6080026030540469 1.6143174311570447 0.52693179741264651 0.17281349426108722 -0.05521849603934146
decision_type=2 2 2 2 2 2 2 2 2 2 2 2 2 2 2 2 2 2 2
left_child=13 2 10 9 8 12 -7 -5 11 -4 -2 -3 -6 -1 17 18 -17 -15 -16
right_child=1 4 3 7 5 6 -8 -9 -10 -11 -12 -13 -14 14 15 16 -18 -19 -20
leaf_value=0.10146267640061105 0.081766484538788861 0.011793983069460733 0.054316487367102796 0.028139443783589558 -0.13754579237703476 -0.063797091349943685 0.024507662678482412 -0.050791981749944072 -0.11387187294583928 -0.1349457931336121 -0.10062549710423184 -0.082317295304474569 0.0888377030096279 -0.096672336354938326 0.088123919011691365 -0.026278608105260722 0.15221371914039511 0.10553328402214301 -0.088183672127399373
leaf_weight=2475.0957873445004 9932.8696301588789 4020.001665932592 854.40332703688182 40993.326145021012 183.63686712738127 9938.0235409331508 15719.132941651624 5221.0985999682453 4655.8339982002508 3645.2254319512285 471.00650108419359 1507.6825212668628 5950.0375588741153 187.28599022515118 243.74715119274333 540.11109269876033 528.42258733836934 2221.5740882642567 1447.1311258095084
leaf_count=2125 12685 18239 6712 107851 1117 67924 70079 39834 39798 56864 4123 11892 17002 835 376 2029 253 1990 11308
internal_value=0 0.082856 0.197524 0.0872589 -0.0841103 0.0799858 -0.0969932 0.192195 -0.596269 -0.989961 0.734842 -0.139029 0.820002 0.56007 0.341947 -0.14315 0.621544 0.897175 -0.626635
internal_weight=0 103092 61117.9 50714.1 41974.3 31790.8 25657.2 46214.4 10183.5 4499.63 10403.9 5527.68 6133.67 7643.37 5168.27 2759.41 1068.53 2408.86 1690.88
internal_count=473036 454120 228069 211261 226051 156122 138003 147685 69929 63576 16808 30131 18119 18916 16791 13966 2282 2825 11684
shrinkage=0.1


Tree=27
num_leaves=20
num_cat=0
split_feature=16 16 12 16 9 20 6 9 19 5 4 18 16 7 6 12 7 19 20
split_gain=1645.31 10165.4 4216.39 2292.95 4015.6 4028.21 3881.55 4839.43 2177.64 1880.23 2079.37 1933.24 1824.41 1457.67 1169.9 1354.42 1038.34 953.31 905.699
threshold=25.356599807739261 23.016949653625492 1.0136623978614809 22.033699989318851 1.5632321537997147 1415.304382324219 0.14699418977826514 0.50727653749980017 662.10128784179699 3.6632997274565748 0.74008316392911455 8.6628499031066895 21.926199913024906 1.4912224354679036 0.11948763341663146 1.0158631801605227 2.9867601367043757 662.10128784179699 1555.4979248046877
decision_type=2 2 2 2 2 2 2 2 2 2 2 2 2 2 2 2 2 2 2
left_child=1 3 17 6 5 -5 7 -1 14 10 11 -4 -8 -11 -3 -16 -6 -2 -12
right_child=2 8 9 4 16 -7 12 -9 -10 13 18 -13 -14 -15 15 -17 -18 -19 -20
leaf_value=0.0088439122436138155 -0.10539141945170023 -0.14000073378636399 0.1071415554303761 0.046025568081306208 -0.15508711656582763 -0.13431673579626477 0.049076052630657334 -0.06548569828924454 -0.2574935626850503 -0.22231433015252083 0.11154639643369174 -0.073711720002307621 -0.19355911081800969 0.10509288377871978 -0.14042791529770182 0.028490873846049997 0.10424082924902711 -0.36612883929126161 0.28204430131500519
leaf_weight=27722.705795620335 665.28122712764889 2540.5553536647931 1092.63805565238 35927.715384173207 1352.1735023553483 1280.134881189093 15223.220531078987 12802.147336003836 1008.8635850995779 360.71035137027502 4830.0830377796665 1280.9871887303889 313.64445480518043 215.12618010863662 776.42791040241718 1212.6256145506632 172.28915397613309 176.41815625876188 331.92513465881348
leaf_count=133934 4369 24658 1909 106664 14932 9149 56783 85810 5910 3690 2495 8136 2872 194 5435 4427 548 934 187
internal_value=0 0.0688493 0.51619 0.145803 0.332906 0.398112 0.0165246 -0.146403 -1.24766 0.73737 0.870514 0.0956617 0.44144 -1.00076 -0.950632 -0.375491 -1.2564 -1.6107 1.22656
internal_weight=0 100333 8953.17 94794 38732.3 37207.9 56061.7 40524.9 5538.47 8111.47 7535.63 2373.63 15536.9 575.837 4529.61 1989.05 1524.46 841.699 5162.01
internal_count=473036 451122 21914 410692 131293 115813 279399 219744 40430 16611 12727 10045 59655 3884 34520 9862 15480 5303 2682
shrinkage=0.1


Tree=28
num_leaves=20
num_cat=0
split_feature=16 16 17 0 12 16 6 16 12 12 16 19 17 5 5 5 1 9 0
split_gain=1570.44 2138.93 4422.35 3920.92 2359.47 2277.24 3177.48 2963.52 5211.69 3598.24 2901.6 1835.48 1362.24 1213.08 1206.77 1041.46 2036.32 593.221 524.677
threshold=19.483750343322757 20.65834999084473 1.5746499896049502 0.066773746854618996 1.0130551457405093 21.028249740600589 0.17959061898930856 22.033699989318851 1.0305139422416689 1.0138401985168459 20.993499755859379 478.27850341796881 0.83860000967979442 0.5940165311177058 2.8576005601238488 2.5590395902533278 0.17795825868709897 0.4087783411087858 0.017621192567125365
decision_type=2 2 2 2 2 2 2 2 2 2 2 2 2 2 2 2 2 2 2
left_child=11 2 3 4 -2 6 10 8 -7 -9 -3 -1 -5 18 -8 -13 17 -17 -4
right_child=1 5 13 12 -6 7 14 9 -10 -11 -12 15 -14 -15 -16 16 -18 -19 -20
leaf_value=-0.1256745898904644 -0.0077448659254306098 -0.0050960733190870168 0.12683171368218285 0.10786550172863385 -0.13458776923174434 -0.054573098423810966 0.13738031413216945 -0.045519391933802958 0.045642327947617828 0.029034077267972531 0.11041916909762382 0.14377378173313182 -0.20153779816543904 -0.17785070764937994 -0.055247491285001352 0.14875770648018893 -0.1147088994377537 -0.15090554926835864 -0.2680527205907029
leaf_weight=415.99556294828653 2068.6137771162903 9839.1084064544411 1842.0202533695847 1413.2709199930541 5038.8754850465339 16969.23363206943 3822.8417720084544 7566.5962091904366 7472.2848355253227 44728.914487912087 2788.5405169806909 1966.3561818879098 155.62222419027239 145.31532154045999 353.95256411726587 841.0699853785336 572.46137658134103 69.455364502966404 31.752637647092342
leaf_count=2995 12677 47501 713 1101 46163 122201 4020 47161 23178 146476 8983 563 911 949 3141 175 3592 366 170
internal_value=0 0.0726857 -0.35089 -0.661091 -0.976884 0.121126 0.454515 0.0481042 -0.239333 0.182451 0.204314 0.721586 0.768709 0.981161 1.2103 0.961004 0.327354 1.25506 1.19751
internal_weight=0 104237 10695.5 8676.38 7107.49 93541.5 16804.4 76737 24441.5 52295.5 12627.6 3865.34 1568.89 2019.09 4176.79 3449.34 1482.99 910.525 1873.77
internal_count=473036 465345 62684 60852 58840 402661 63645 339016 145379 193637 56484 7691 2012 1832 7161 4696 4133 541 883
shrinkage=0.1


Tree=29
num_leaves=18
num_cat=0
split_feature=2 16 16 17 12 9 6 9 5 17 5 12 4 12 17 2 6
split_gain=1511.15 1423.08 1859.9 3839.58 2991.06 1939.16 1813.25 1496.15 1044.57 729.079 1706.75 458.797 404.561 390.766 269.805 149.327 85.5955
threshold=0.019402851069758215 19.483750343322757 20.65834999084473 1.5746499896049502 1.0161307454109194 2.5688865551745468 0.19444752305481702 0.65322473083739252 0.5940165311177058 1.1145499944686892 2.1888176191180491 1.0174493193626406 0.27955391614501351 1.0105617046356203 1.2691000103950503 1.3601234962441173 0.028949172216341346
decision_type=2 2 2 2 2 2 2 2 2 2 2 2 2 2 2 2 2
left_child=12 7 3 4 -3 6 -4 9 -5 11 -11 -2 14 -14 16 -7 -1
right_child=1 2 5 8 -6 15 -8 -9 -10 10 -12 -13 13 -15 -16 -17 -18
leaf_value=0.11156230992194956 -0.017332917121529724 -0.0037801269937933393 0.0068757972284987159 0.11448926229786974 -0.12473499942135804 -0.14513019715868922 0.057291807997993188 -0.12667270367551517 -0.16858343890959968 0.1255283118515019 -0.12782599372790979 0.13739370855749572 -0.11622585369442756 0.18646080245487706 -0.11090231052092037 0.034795528098918796 -0.00077544630690638957
leaf_weight=274.88556207716465 211.23395664617419 4029.5897836931981 83299.539076357265 1737.6377829667181 4147.7177120328415 858.64861133042723 7799.328890132485 351.71545951999724 138.47805973887444 653.08519245870411 444.47320840507746 2000.2417905293405 43.676257684826851 678.58572031883523 85.354188836179674 47.688442307058722 89.629614162724465
leaf_count=173 785 21520 364491 799 39212 11115 24800 2521 949 193 3238 952 167 236 1381 201 303
internal_value=0 0.0747937 0.0528104 -0.355515 -0.651531 0.0974379 0.111938 0.687155 0.933753 0.89573 0.228621 1.2261 1.21519 1.67777 0.466698 -1.35582 0.841349
internal_weight=0 105719 102059 10053.4 8177.31 92005.2 91098.9 3660.75 1876.12 3309.03 1097.56 2211.48 1172.13 722.262 449.869 906.337 364.515
internal_count=473036 470776 463087 62480 60732 400607 389291 7689 1748 5168 3431 1737 2260 403 1857 11316 476
shrinkage=0.1


Tree=30
num_leaves=20
num_cat=0
split_feature=0 16 16 12 6 17 0 6 5 4 7 12 3 5 16 3 18 17 17
split_gain=1479.02 1662.24 7963.42 3130.54 2748.25 2241.69 2047.76 1790.84 1752.88 1857.71 1175.35 946.214 908.152 711.695 701.735 1073.58 697.542 612.643 575.92
threshold=-0.040855397601644826 25.356599807739261 23.016949653625492 1.0136623978614809 0.039149220671991052 3.7001500129699711 0.066773746854618996 0.11948763341663146 3.6632997274565748 0.74008316392911455 1.4912224354679036 1.0157805085182192 0.87810027907220489 0.82783888883740431 20.816400527954105 2.0415758112212843 2.0096499919891362 4.4263999462127694 1.1843499541282656
decision_type=2 2 2 2 2 2 2 2 2 2 2 2 2 2 2 2 2 2 2
left_child=12 2 4 13 6 -6 -2 17 9 -5 -10 -9 -1 -3 -14 18 -17 -4 -16
right_child=1 3 7 8 5 -7 -8 11 10 -11 -12 -13 14 -15 15 16 -18 -19 -20
leaf_value=-0.033287468981928157 -0.086555809333596676 0.10404887115032289 -0.13898668523607646 0.0063416653910398878 0.01012236252074542 0.11746496841217072 0.078367856526226465 -0.13822972975114456 -0.22134856347331899 0.11531077346002115 0.095684809940367266 0.0058740882754153836 0.10627122163338459 -0.17450140855854923 -0.010350941425189858 -0.12924480702505814 0.086827943312764139 -0.23825751137437892 -0.19686844539005185
leaf_weight=1075.7323096811306 4657.6749539787415 103.35933675058186 2340.7253195440862 2319.7129431096837 77739.28258428839 1992.7043602932245 895.63166481303051 701.13818963803351 333.76992239058018 4805.0902699781582 177.21413172781467 1291.2602589917369 2559.0679066675948 711.21973229758441 885.31972065940499 156.94089475891087 2387.7447198120644 857.96252925787121 200.95595293305814
leaf_count=4782 45305 166 23869 9908 343985 2729 1470 5323 3673 2682 188 4924 3275 4918 2775 2633 4554 4980 897
internal_value=0 0.0471207 0.00749913 0.471195 0.0807092 0.128092 -0.599306 -1.19468 0.670098 0.79849 -1.1147 -0.449574 0.514491 -1.3892 0.661839 0.378702 0.733742 -1.65798 -0.45273
internal_weight=0 98926.7 90476.4 8450.37 85285.3 79732 5553.31 5191.09 7635.79 7124.8 510.984 1992.4 7265.76 814.579 6190.03 3630.96 2544.69 3198.69 1086.28
internal_count=473036 454120 432585 21535 393489 346714 46775 39096 16451 12590 3861 10247 18916 5084 14134 10859 7187 28849 3672
shrinkage=0.1


Tree=31
num_leaves=20
num_cat=0
split_feature=18 4 5 11 7 5 5 7 19 16 16 12 13 19 9 10 4 9 13
split_gain=1411.97 1351.47 1738.37 2294.41 2061.05 3604.1 2167.29 1853.83 1675.81 873.735 914.087 2054.57 1138.29 197.212 167.272 150.587 128.119 48.1764 26.5677
threshold=15.593899726867678 1.1450696018013937 0.12569142289806667 0.19000795483589175 3.3164949176609264 2.1888176191180491 3.0286668190735377 2.7433077024610761 788.41848754882824 20.247300148010257 21.075699806213382 1.0134602189064028 0.97312834858894359 625.72839355468761 5.3372697930388826 0.2047187685966492 0.8059386791699622 0.78742399134826091 0.98347017168998729
decision_type=2 2 2 2 2 2 2 2 2 2 2 2 2 2 2 2 2 2 2
left_child=1 2 3 7 6 -6 -4 -1 -5 15 12 -12 -11 16 18 17 -2 -3 -15
right_child=13 9 4 8 5 -7 -8 -9 -10 10 11 -13 -14 14 -16 -17 -18 -19 -20
leaf_value=-0.047678809217149495 -0.13097038394461036 0.0078260222791499325 0.02111789865351776 -0.12367268733802635 -0.13162991815586916 0.039723725576847273 -0.021786536639315002 0.053324249063697662 0.076155816632378776 -0.14011564112565475 -0.10199285455571815 0.05413257741649033 0.088060994821770655 -0.16310505958390531 -0.015169814716861336 -0.37118908567342546 0.061975390255399811 -0.15896109329010444 -0.22020390846069687
leaf_weight=3887.6840858727228 62.811093874275684 20.352599992416799 64608.379639092833 3187.9567510769702 2680.513023026404 2260.4888274671976 14394.720241940115 3407.1665211403742 481.30705301417038 226.83256901800632 1120.6959900476504 3372.6164582420606 4708.1991917935666 257.82484658248723 63.818790134042501 33.204566039144993 69.896957918070257 103.34002279490232 193.77641851827502
leaf_count=27753 632 168 230946 33620 41807 13778 70272 21710 842 1344 9615 8607 7539 1550 252 203 249 1182 967
internal_value=0 0.0810408 0.0448926 -0.329535 0.0938071 -0.532574 0.133 -0.00501102 -0.97422 0.438842 0.478003 0.15153 0.774996 -1.39637 -1.67512 -1.88161 -0.301378 -1.31925 -1.88809
internal_weight=0 104493 94908.2 10964.1 83944.1 4941 79003.1 7294.85 3669.26 9585.24 9428.34 4493.31 4935.03 648.128 515.42 156.897 132.708 123.693 451.601
internal_count=473036 469386 440728 83925 356803 55585 301218 49463 34462 28658 27105 18222 8883 3650 2769 1553 881 1350 2517
shrinkage=0.1


Tree=32
num_leaves=20
num_cat=0
split_feature=2 0 8 4 7 17 5 6 3 7 17 4 12 14 17 12 3 17 13
split_gain=1314.11 1221.71 1728.5 1519.01 2356.15 1633.61 1087.98 737.377 622.657 461.431 591.234 328.393 356.416 264.475 223.05 139.685 71.8979 70.2653 52.8965
threshold=0.019402851069758215 0.17228790923884182 0.092597282241893966 0.9407029182027008 3.2301011826000616 3.7001500129699711 3.1238621857336479 0.25732924757580611 2.5028156511141231 1.5531156833123634 0.84645000100135814 0.27955391614501351 1.0105617046356203 1.2416518330574038 1.2691000103950503 1.0254452228546145 4.2647183966321727 0.39740000665187841 0.96185979247093212
decision_type=2 2 2 2 2 2 2 2 2 2 2 2 2 2 2 2 2 2 2
left_child=11 2 3 4 -2 -5 7 -4 -8 10 13 14 -13 -3 17 16 -11 -1 -12
right_child=1 9 6 5 -6 -7 8 -9 -10 15 18 12 -14 -15 -16 -17 -18 -19 -20
leaf_value=-0.02928218356458348 0.004880139690535263 0.073917134757907413 -0.051254126662565472 0.023235864100838902 -0.065754415091192259 0.1308868341578481 -0.13796115313464932 0.068845910781472813 0.11667457533235114 0.10768478516955773 -0.24660096591178582 -0.11280157293040352 0.1766347732612101 -0.1312037734898944 -0.10847168563961125 -0.051360118888199663 0.25396577440811846 0.098185140703267823 -0.092913666935860673
leaf_weight=49.54550551623106 73256.358079408063 518.44408592954278 1850.2771353730932 16960.751546570566 5045.0753418813692 1534.9508089609444 1549.1037960716058 703.30285533284768 100.30009275861084 1549.120626576012 74.543821968138218 43.713134564459324 639.85072684288025 68.896828238386661 75.362844839692116 53.135278748348355 33.273539659800008 285.28624279797077 38.558493554592133
leaf_count=178 300644 396 16048 62333 63030 1321 22445 1068 265 789 518 167 236 969 1381 354 183 298 413
internal_value=0 0.0534361 0.0368892 0.0641561 0.00326841 0.321883 -0.590703 -0.181363 -1.22305 0.767968 0.0882377 1.15396 1.57739 0.49346 0.442384 1.05841 1.11203 0.792289 -1.97718
internal_weight=0 103336 101000 96797.1 78301.4 18495.7 4202.98 2553.58 1649.4 2335.97 700.443 1093.76 683.564 587.341 410.195 1635.53 1582.39 334.832 113.102
internal_count=473036 470776 467154 427328 363674 63654 39826 17116 22710 3622 2296 2260 403 1365 1857 1326 972 476 931
shrinkage=0.1


Tree=33
num_leaves=20
num_cat=0
split_feature=0 12 17 15 5 12 13 6 2 14 5 4 12 3 5 19 3 2 17
split_gain=1276.12 1758.57 2382.23 2009.74 3240.85 2221.8 1642.12 2174.68 1918.97 1106.28 1069.38 928.059 1129.09 1325.56 811.697 781.738 674.416 485.54 450.582
threshold=-0.018490363651095978 1.0190942287445071 0.57440000772476207 3.7233057022094731 1.3791995075527157 1.0161307454109194 0.98340556025505077 0.055220562900095617 0.55173560420269563 1.5583280920982363 3.855601479872194 0.85891198359082799 1.0308482050895693 1.4960388582446094 0.13180908851730147 334.68585205078131 4.7573299790894454 0.19069157751576998 1.09280002117157
decision_type=2 2 2 2 2 2 2 2 2 2 2 2 2 2 2 2 2 2 2
left_child=11 3 -3 10 9 -6 7 -4 -8 -5 -2 12 13 17 -14 -15 -16 -1 -13
right_child=1 2 6 4 5 -7 8 -9 -10 -11 -12 18 14 15 16 -17 -18 -19 -20
leaf_value=-0.130246656672353 0.074756873996836809 -0.13021479834167302 -0.092078550901731809 0.011943357898613097 -0.0044089267712526968 0.043014064510660983 0.041475995320283454 -0.011438842578446866 -0.031828718990127174 -0.10802109309943544 -0.15409855332036396 0.1130595047458882 -0.15326493589781284 -0.112565990812212 0.062776035737005492 0.03444884245045747 -0.12294831057860461 -0.029472063111284461 0.040292730414404558
leaf_weight=956.21426459797658 5917.2827247586101 1722.538826051401 4274.692646675976 1019.2406722854357 24998.38274488505 16331.440189393237 9743.3129814879503 15333.532751989085 5633.8156253090128 3117.5515528911492 208.9389493833296 1781.3522969107144 187.993926356663 397.06678057659883 5682.8262626021169 3792.9028470464982 199.96702052967157 957.82092086342163 1636.2752175685018
leaf_count=7927 6619 14571 46675 3396 103760 33948 43961 86494 28218 53754 2608 2848 1911 7539 9461 8913 2240 4895 3298
internal_value=0 0.0122661 -0.155033 0.131301 0.058834 0.143318 -0.0984542 -0.290294 0.146178 -0.784748 0.668848 0.322557 0.193201 -0.110487 0.498467 0.204507 0.564073 -0.799345 0.782825
internal_weight=0 88300.7 36707.9 51592.8 45466.6 41329.8 34985.4 19608.2 15377.1 4136.79 6126.22 15592.4 12174.8 6104 6070.79 4189.97 5882.79 1914.04 3417.63
internal_count=473036 424004 219919 204085 194858 137708 205348 133169 72179 57150 9227 49032 42886 29274 13612 16452 11701 12822 6146
shrinkage=0.1


Tree=34
num_leaves=20
num_cat=0
split_feature=17 7 19 12 12 19 13 7 17 2 15 15 11 20 7 16 15 17 4
split_gain=1268.54 2414.5 2780.99 1789.94 2558.02 2147.62 1592.2 2030.64 2091.57 1510.6 4088.05 2605.93 1415.79 1259.17 1169.58 2120.81 1279.79 845.163 843.318
threshold=1.283300042152405 3.8427190847601258 586.15219116210949 1.0215077400207522 1.0311940312385561 729.88827514648449 0.98909166455268871 3.9269366815042939 4.4263999462127694 0.19069157751576998 3.7342730760574345 4.3566761016845712 0.36327406764030468 2189.881469726563 1.1879786034667912 21.06305027008057 3.3684734106063847 1.4631000161170962 1.6461236316226431
decision_type=2 2 2 2 2 2 2 2 2 2 2 2 2 2 2 2 2 2 2
left_child=1 2 9 6 13 -6 7 8 -2 11 -11 -1 -7 -5 16 -16 -4 -9 -3
right_child=3 18 14 4 5 12 -8 17 -10 10 -12 -13 -14 -15 15 -17 -18 -19 -20
leaf_value=-0.021998139718928819 -0.010840976097098868 -0.12985336071160042 -0.11097953068400249 -0.14530201566347564 -0.13958440385294119 0.069188801737889161 0.088526902115334649 -0.17018070697247409 -0.15584869415803385 0.047018996156211412 -0.051258758386769722 0.030811903179483166 -0.1817769859154274 0.06961727885231378 0.079020122654460234 -0.010646583396862282 0.081857703864881559 0.11372645358616365 0.13247308497213908
leaf_weight=13939.603033287684 8337.9837429429172 1520.8587139624869 356.90515047498047 2860.0736917313188 830.48735210462473 2331.9488676209003 1897.6397846471518 110.38015871401876 1126.7500315718353 6185.5635761590675 13390.831780694309 28329.126518078614 246.05823891051114 299.63946275040507 4335.7581914733164 6727.287565252278 8186.3898327406496 1482.795005524531 131.04130065906793
leaf_count=92595 32746 26056 2393 29629 9337 3278 3692 993 5575 19457 100393 85770 2189 1115 8704 31657 15148 1542 767
internal_value=0 0.107353 0.131643 -0.175895 -0.601024 -2.08101e-05 0.0397165 -0.105571 -0.281447 0.0275968 -0.202035 0.133956 0.450642 -1.24877 0.459789 0.245058 0.737679 0.937924 -1.08854
internal_weight=0 83103.4 81451.5 19523.8 6568.21 3408.49 12955.5 11057.9 9464.73 61845.1 19576.4 42268.7 2578.01 3159.71 19606.3 11063 8543.29 1593.18 1651.9
internal_count=473036 382940 356117 90096 45548 14804 44548 40856 38321 298215 119850 178365 5467 30744 57902 40361 17541 2535 26823
shrinkage=0.1


Tree=35
num_leaves=20
num_cat=0
split_feature=16 16 17 0 18 16 6 16 16 13 12 20 5 17 5 5 7 11 0
split_gain=1155.34 1744.35 2751.52 2928.09 2059.24 1486.58 2607.21 2266.38 2147.63 4196.23 2406.22 1151.13 1003.61 958.049 897.262 848.017 2138.72 456.623 79.9064
threshold=19.483750343322757 20.65834999084473 1.5746499896049502 0.066773746854618996 5.4934501647949228 21.028249740600589 0.17959061898930856 20.993499755859379 22.033699989318851 0.98378321528434765 1.0139306187629702 886.17868041992199 2.8448925961360527 0.83860000967979442 0.5940165311177058 2.5590395902533278 1.4284702162188612 0.52330011129379284 0.00024670261929627768
decision_type=2 2 2 2 2 2 2 2 2 2 2 2 2 2 2 2 2 2 2
left_child=11 2 3 4 -2 6 7 -3 9 -7 -10 -1 -8 -5 17 18 -17 -4 -13
right_child=1 5 14 13 -6 8 12 -9 10 -11 -12 15 -14 -15 -16 16 -18 -19 -20
leaf_value=-0.12009877589619269 -0.015497922445820697 -0.010747973359791966 0.1097500634748033 0.099218352808608121 -0.13373631957104176 -0.062087421668573145 0.12442659184570398 0.092090305203195277 -0.039674892990550152 0.023057834067837062 0.022239226231640097 0.13904265956867076 -0.056463357578054756 -0.17447113003760598 -0.16395394227495075 -0.11865631258349743 0.13156623600013198 -0.3416129412901201 0.084302301805266447
leaf_weight=312.18945208471268 2301.5166597850621 9463.4853712191107 1460.9495410956442 1213.8489516989794 4092.990906017134 12873.663307925861 3387.3136364633683 2767.396401885082 7378.8538406024454 10512.420440270682 41949.903026160318 1350.2933208178729 335.6216889754869 140.36879180558026 135.10881095007062 603.24340656213462 780.15594004932791 20.127723705023527 353.56056276056916
leaf_count=2651 18796 47501 706 1101 40044 97792 3998 8983 47919 47587 145718 319 3163 911 949 4239 226 177 256
internal_value=0 0.0287309 -0.381656 -0.629209 -0.912056 0.0720856 0.34849 0.125359 0.0114304 -0.238149 0.12976 0.621497 1.08089 0.705481 0.80425 0.806715 0.224332 1.02986 1.27841
internal_weight=0 98033.6 9364.91 7748.73 6394.51 88668.7 15953.8 12230.9 72714.8 23386.1 49328.8 3399.44 3722.94 1354.22 1616.19 3087.25 1383.4 1481.08 1703.85
internal_count=473036 465345 62684 60852 58840 402661 63645 56484 339016 145379 193637 7691 7161 2012 1832 5040 4465 883 575
shrinkage=0.1


Tree=36
num_leaves=20
num_cat=0
split_feature=8 19 8 7 19 20 2 12 15 13 6 6 15 5 12 7 3 12 7
split_gain=1281.89 1254.92 1204.52 2959.1 1147.06 2724.98 2543.67 3324.81 2942.41 2132.21 1865.54 623.737 1087.61 823.92 506.571 509.603 420.235 408.546 402.33
threshold=-0.043455151512304009 1459.0875244140627 -6.1769245369776575 1.4284702162188612 554.72067260742199 1207.453308105469 0.19287029310486734 1.0175673961639407 4.3144829273223886 0.98098802566528331 0.042660409799347078 0.041940881754382174 4.3469254970550546 0.23751462545953561 1.0127550363540652 3.6175905360639273 0.86367439704296867 1.0205313563346865 0.29787193625427083
decision_type=2 2 2 2 2 2 2 2 2 2 2 2 2 2 2 2 2 2 2
left_child=2 4 3 -1 6 10 7 -2 -8 -7 -6 12 17 -13 -5 -16 -14 -4 -3
right_child=1 18 11 14 5 9 8 -9 -10 -11 -12 13 16 -15 15 -17 -18 -19 -20
leaf_value=-0.15012357163579093 0.031139737613870584 0.065137932416927877 0.066594970831011069 -0.12504732151784778 -0.062812636473631972 -0.079720401171210598 -0.0086811009433220773 -0.028493295763147849 -0.096672983716420371 0.0057033357433495351 0.047498330129359362 -0.035237826012168801 -0.017590940395029116 0.12645535226040142 0.14417752021966393 -0.16122073001701767 0.10309083801656178 -0.12914298401335186 -0.15160208411515363
leaf_weight=915.51338301738724 23479.008079401217 96.252956425771117 137.49272784218192 87.86498544877395 1658.4220850258134 3917.2177097303793 10973.971382512245 15532.436513955239 5811.3287479155697 11474.995174561627 19931.603258732008 362.98861095379107 374.2665972339455 2334.7638690962922 814.72079036012292 56.287654899060726 1245.692084106151 450.46741957496852 683.66097404062748
leaf_count=7476 80569 192 203 880 14148 23731 57480 101281 69041 35201 60622 2380 1784 1947 235 775 1180 5635 8276
internal_value=0 0.0137929 0.464007 -0.217632 0.0244298 0.161 -0.0660926 0.0739638 -0.391564 -0.160467 0.390177 0.724433 0.329661 1.04684 1.00869 1.23988 0.752249 -0.832672 -1.24713
internal_weight=0 93558.9 6780.06 1874.39 92779 36982.2 55796.7 39011.4 16785.3 15392.2 21590 4905.67 2207.92 2697.75 958.873 871.008 1619.96 587.96 779.914
internal_count=473036 450541 22495 9366 442073 133702 308371 181850 126521 58932 74770 13129 8802 4327 1890 1010 2964 5838 8468
shrinkage=0.1


Tree=37
num_leaves=20
num_cat=0
split_feature=8 16 16 12 7 5 16 5 8 6 12 9 18 17 19 9 12 12 12
split_gain=1111.18 1145.49 6500.28 2557.14 1617.1 2698.57 1521.55 4522.13 2728.4 1350.44 1004.47 780.363 684.52 710.549 599.296 500.02 424.063 382.999 332.731
threshold=-0.042810546474788359 25.356599807739261 23.016949653625492 1.0134602189064028 1.7006596451462059 3.1238621857336479 22.112699508666996 3.0514741286904803 0.042513198251286001 0.11948763341663146 1.0124562978744509 1.2837047161621451 7.3886499404907235 1.4519000053405764 232.37940216064456 0.050012525912131088 1.0205313563346865 1.0315772891044619 1.0230270624160769
decision_type=2 2 2 2 2 2 2 2 2 2 2 2 2 2 2 2 2 2 2
left_child=10 2 6 14 5 -5 8 -8 -2 -4 15 -11 13 17 -3 -1 -14 -12 -6
right_child=1 3 9 4 18 -7 7 -9 -10 11 12 -13 16 -15 -16 -17 -18 -19 -20
leaf_value=-0.18007828962895781 0.002405966164289577 0.10101278953124414 -0.15778091396193739 0.050432678364096845 0.13786501411258531 -0.18809965298529274 0.035610850649269138 -0.075964516506566312 -0.068811141863748856 -0.018524584671297403 0.057949902953999301 -0.19196029918151322 0.072812240345360477 -0.076405076858195684 -0.18128632810975973 0.032262126297172317 -0.054101639347919041 0.11704913824082637 -0.089372522740793159
leaf_weight=285.84923167340457 41401.300206577056 84.102748091798276 2930.72871847637 4475.418988681864 1986.7670373395085 527.72197262570262 28219.637015929853 4166.4548406733666 6180.0140926155727 1518.804212346673 3158.2920990814455 310.29979170393199 381.32805908191949 312.80749698961154 599.74835872813128 178.85695736692287 834.44296617386863 1688.0893694208935 64.776873220689595
leaf_count=2894 216880 166 29763 10158 395 4843 91953 25144 53102 7451 9299 2929 557 2331 4840 917 7149 1241 1024
internal_value=0 0.0113758 -0.0222662 0.379593 0.558711 0.251816 0.0453268 0.212514 -0.0684736 -1.15723 0.429003 -0.481955 0.532569 0.69157 -1.46295 -0.986401 -0.142172 0.785912 1.30577
internal_weight=0 92465.8 84727.2 7738.54 7054.68 5003.14 79967.4 32386.1 47581.3 4759.83 6839.67 1829.1 6374.96 5159.19 683.851 464.706 1215.77 4846.38 2051.54
internal_count=473036 448648 427222 21426 16420 15001 387079 117097 269982 40143 24388 10380 20577 12871 5006 3811 7706 10540 1419
shrinkage=0.1


Tree=38
num_leaves=20
num_cat=0
split_feature=3 0 5 16 16 4 16 16 17 15 5 5 16 3 20 17 18 13 7
split_gain=1175.79 1856.93 1488.71 1852.99 1866.01 3646.94 1356.39 1319.19 1220.32 1627.9 1002.37 873.046 835.579 1078.65 812.744 803.309 982.271 625.019 613.48
threshold=2.0201836570224683 0.0024097091380345208 3.8050262955887995 25.641150474548343 23.016949653625492 0.76951740950399838 22.033699989318851 20.791150093078617 0.37119999527931219 3.494597434997559 1.5610084596002969 3.3461951746589849 20.750050544738773 2.5581099970475267 664.86050415039074 1.1889500021934511 3.4494999647140507 0.97459462285041809 1.0333845765020639
decision_type=2 2 2 2 2 2 2 2 2 2 2 2 2 2 2 2 2 2 2
left_child=2 10 3 4 6 -6 -1 -3 14 -10 15 17 -12 -14 -9 16 -2 -5 -17
right_child=1 7 -4 11 5 -7 -8 8 9 -11 12 -13 13 -15 -16 18 -18 -19 -20
leaf_value=-0.012216479950740416 -0.081474812649799333 0.050011535867365488 -0.11299272815392035 -0.12491286660207515 -0.15403588525523904 0.0035699206284175236 0.017244480956754082 -0.096397370835712759 0.069330276183108788 -0.092642099055604596 0.1046418119787661 -0.15803384865991693 0.009424581235174985 0.086795211903496511 0.090187258583913729 0.030437881622165021 0.043999545975097587 0.089342809593044858 -0.14197377767395447
leaf_weight=35455.339601963293 734.60212341521401 2153.1761214993894 1198.5985156816896 139.73168272338808 2372.834793290589 3843.3136305087246 27939.981541376328 305.6392375753494 740.5970244044438 3767.7752379816957 3064.1877310341224 158.28581858426332 4218.7158230862115 3143.6846186995972 960.30330135533586 324.41164489171933 4055.7333073787158 3252.4680700581521 560.30768238095334
leaf_count=220358 9837 6514 15655 1427 25173 14375 106436 4263 1117 24291 2724 1099 13291 3737 934 1077 12639 4731 3358
internal_value=0 0.228659 -0.0257771 -0.00764536 -0.0435991 -0.56633 0.00767878 -0.167482 -0.416548 -0.660077 0.423693 0.696744 0.607729 0.424819 0.450248 0.0854322 0.247212 0.804212 -0.788526
internal_weight=0 24029.1 74360.6 73162 69611.5 6216.15 63395.3 7927.49 5774.31 4508.37 16101.6 3550.49 10426.6 7362.4 1265.94 5675.05 4790.34 3392.2 884.719
internal_count=473036 83782 389254 373599 366342 39548 326794 37119 30605 25408 46663 7257 19752 17028 5197 26911 22476 6158 4435
shrinkage=0.1


Tree=39
num_leaves=20
num_cat=0
split_feature=2 16 16 17 0 8 9 4 9 5 17 5 20 4 20 16 6 20 17
split_gain=1067.26 1023.16 1413.71 2475.6 2162.23 1496.54 1740.56 1343.16 1100.59 708.168 627.305 1199.14 479.255 220.851 187.42 106.247 75.2864 51.1827 16.7159
threshold=0.019402851069758215 19.483750343322757 20.670999526977543 1.5746499896049502 0.066773746854618996 0.092597282241893966 1.016957701830423 0.9407029182027008 0.65322473083739252 0.5940165311177058 1.1145499944686892 2.1888176191180491 927.94052124023449 0.33144808754970295 286.64680480957037 20.740550041198734 0.027991660844215917 422.21020507812506 1.3985999822616579
decision_type=2 2 2 2 2 2 2 2 2 2 2 2 2 2 2 2 2 2 2
left_child=13 8 3 4 -3 7 -7 -4 10 -5 12 -12 -2 14 -1 -15 18 -18 -16
right_child=1 2 5 9 -6 6 -8 -9 -10 -11 11 -13 -14 15 16 -17 17 -19 -20
leaf_value=-0.11647194337045519 -0.02967408921485945 -0.083474256766742638 0.00075971568200047324 0.099173707558376734 0.063820646162747782 0.087202335872230113 -0.10084628170050416 0.03344201081913608 -0.12357832220939509 -0.15178312418359635 0.11210533273200894 -0.12479645366254924 0.12604756456901653 0.056313654486333159 0.11398674625414021 0.16663724946066497 -0.15694523314066292 0.034880511174860906 -0.0599739857515331
leaf_weight=56.691479341126978 221.5433656219393 6385.9127206112025 65692.073692510312 1401.9783674050122 1178.6705929352902 611.03570047835819 2489.5253095501103 15549.038033700665 298.06426248559728 119.76595835899934 475.29181388393044 383.55108746699989 1756.9338970817626 111.34039669670165 210.3693242771551 477.79311271803454 13.908944170922039 80.742620677687228 4.0300243608653536
leaf_count=791 1012 60645 307091 805 2001 2531 33759 55306 2521 949 193 3238 725 186 238 168 264 384 229
internal_value=0 0.0226124 0.00374686 -0.370964 -0.605082 0.0441265 -0.637412 0.0701587 0.584255 0.791799 0.776486 0.0624246 1.08592 1.08351 0.46806 1.46155 0.775383 0.0298734 1.09977
internal_weight=0 96563.4 93428 9086.33 7564.58 84341.7 3100.56 81241.1 3135.38 1521.74 2837.32 858.843 1978.48 954.876 365.742 589.134 309.051 94.6516 214.399
internal_count=473036 470776 463087 64400 62646 398687 36290 362397 7689 1754 5168 3431 1737 2260 1906 354 1115 648 467
shrinkage=0.1


Tree=40
num_leaves=20
num_cat=0
split_feature=19 19 5 17 0 1 7 2 12 12 6 19 5 17 19 0 5 5 12
split_gain=1110.65 1917.5 1654.22 1922.43 1255.95 1629.5 1783.51 1717.43 1103.43 1084.51 966.79 937.799 1424 1034.08 782.356 737.371 555.209 350.271 169.82
threshold=152.950798034668 320.01919555664068 1.7329953679112224 0.66784998774528515 -0.0072378893597219275 0.26830296487038291 1.8569711601011363 0.073610643357773495 1.0148258209228518 1.0208752155303957 0.072083862699459392 423.27330017089849 2.0315706142415344 0.81255000829696666 -41773.187499999993 0.066773746854618996 0.11849194130727254 0.26849262929637224 1.0156982541084292
decision_type=2 2 2 2 2 2 2 2 2 2 2 2 2 2 2 2 2 2 2
left_child=8 2 3 16 11 7 -7 -6 15 14 -5 12 -3 -13 -10 -1 -2 -17 -16
right_child=1 4 -4 10 5 6 -8 -9 9 -11 -12 13 -14 -15 18 17 -18 -19 -20
leaf_value=-0.14240954964484315 0.046234681181829024 0.019287522908718172 -0.13093617730778354 -0.091083367292162445 -0.047803753973276832 -0.0098843222603984954 -0.087602255449218958 0.012031554307353684 -0.12749812892894666 -0.096354250375251208 0.1090253184971308 0.075872239169444355 -0.11491834591783463 0.020371843082801683 0.074571051361975199 0.10315246310443907 -0.11110461614120096 -0.16237391254464795 0.13352812515871179
leaf_weight=405.05916470638476 263.97606894816272 2449.2632607499836 1950.9486879343167 300.28303876559949 5391.6450805689674 9818.5200851042755 4220.5282562864013 43306.869933813228 135.29915917548351 296.14038178010378 1192.2009029483888 4150.4867367071565 1164.2497817107942 17534.536423708079 686.185834096279 280.60671347391326 1438.573742789391 57.641372095793486 1817.3531410924625
leaf_count=5982 1863 12758 22016 3727 39925 50678 39110 183159 2048 5601 2485 7826 8629 61235 590 458 23272 964 710
internal_value=0 0.00866857 -0.584494 -0.141114 0.0433585 -0.0324899 -0.332614 0.0540449 0.568704 0.844201 0.686676 0.231438 -0.24007 0.310031 1.04788 -0.518157 -0.866722 0.569401 1.17471
internal_weight=0 93182.1 5145.98 3195.03 88036.1 62737.6 14039 48698.5 3678.29 2934.98 1492.48 25298.5 3613.51 21685 2638.84 743.307 1702.55 338.248 2503.54
internal_count=473036 456683 53363 31347 403320 312872 89788 223084 16353 8949 6212 90448 21387 69061 3348 7404 25135 1422 1300
shrinkage=0.1


Tree=41
num_leaves=18
num_cat=0
split_feature=16 17 0 12 5 8 20 3 16 7 4 9 15 3 6 12 5
split_gain=972.501 2185.69 965.114 1048.53 2764.16 1651.97 788.326 689.066 554.093 447.165 278.12 262.768 212.455 42.4243 92.7897 42.2262 32.251
threshold=26.287699699401859 5.6792500019073495 -0.040855397601644826 1.0185719132423403 3.0878623986009957 0.054374071642020121 747.07980346679699 0.87810027907220489 20.816400527954105 0.20668633420118518 0.81207760417099395 1.1525486742918678 5.4169390201568612 1.9014680728516022 0.068039640975107882 1.0146875977516177 2.2206112279016401
decision_type=2 2 2 2 2 2 2 2 2 2 2 2 2 2 2 2 2
left_child=1 2 7 5 -5 -4 11 9 -9 -1 13 12 -2 14 -3 -13 -15
right_child=6 10 3 4 -6 -7 -8 8 -10 -11 -12 15 -14 16 -16 -17 -18
leaf_value=0.073862675274082176 -0.13073093121362375 -0.12880097274679275 0.019799906782616231 -0.0038987912733259231 -0.10012817578807826 -0.026737633551401581 0.1812192616557016 0.093425724012860839 0.027590661212673492 -0.079355520395461926 -0.0095325161173795275 -0.11236496631970604 0.083142228743223343 -0.18483655466489957 -0.24711319212975047 -0.28132397149461008 -0.32284850535037041
leaf_weight=260.20529619976878 58.211487710475922 112.88965447340161 37632.416299029777 37999.713012473774 3236.757658702787 9564.0250342477812 543.53357002139091 2196.7096270784386 3061.5327704260708 690.14286327688023 65.13826091773808 45.778160963207483 193.04754083417356 38.986342310905457 209.10191958397627 25.604091182351112 88.69444790109992
leaf_count=268 298 1449 144108 215521 29571 60663 170 3275 10711 4476 172 416 220 169 949 165 435
internal_value=0 0.0174597 0.028667 0.00190397 -0.114584 0.103683 1.08019 0.409694 0.551297 -0.373082 -2.03189 -0.157835 0.326921 -2.31004 -2.071 -1.81283 -2.85567
internal_weight=0 95156.3 94641.5 88432.9 41236.5 47196.4 866.175 6208.59 5258.24 950.348 514.811 322.641 251.259 449.672 321.992 71.3823 127.681
internal_count=473036 471767 468593 449863 245092 204771 1269 18730 13986 4744 3174 1099 518 3002 2398 581 604
shrinkage=0.1


Tree=42
num_leaves=20
num_cat=0
split_feature=18 0 19 17 1 18 17 9 13 7 20 6 17 19 19 9 4 19 12
split_gain=976.31 992.878 1182.85 3017.12 2045.64 1876.16 1823.57 1267.34 917.775 365.251 633.07 515.469 449.846 169.384 130.678 119.698 103.59 82.6824 55.8057
threshold=15.593899726867678 0.17228790923884182 542.12429809570324 1.1145499944686892 0.1646042861853203 9.5394001007080096 0.81255000829696666 0.9215994237744457 0.95959761738777172 1.5531156833123634 422.21020507812506 0.03852453958469277 0.84645000100135814 482.15673828125006 625.72839355468761 5.3372697930388826 0.8059386791699622 741.14529418945324 1.0151047110557558
decision_type=2 2 2 2 2 2 2 2 2 2 2 2 2 2 2 2 2 2 2
left_child=1 2 3 5 7 -1 -6 -4 -5 10 11 -3 -12 18 16 -16 -2 -15 -11
right_child=14 9 4 8 6 -7 -8 -9 -10 13 12 -13 -14 17 15 -17 -18 -19 -20
leaf_value=0.00067796330123025327 -0.12757209381972262 -1.2287587502209805 0.069042227897576483 0.081051978389525839 0.11686306607850286 -0.12030936536891253 -0.0016167951740123513 -0.086732528063220682 -0.12691259264436924 0.062055142992785819 0.061748551787957143 -0.077986720667134746 -0.18779490707080035 -0.13772286618975424 -0.16801523554135539 -0.0011602509886833761 0.056332614650393568 0.052568025093882011 0.11982550443734358
leaf_weight=47314.67598623113 55.730455152224749 4.570789690129458 7773.1765020405874 229.5667488372419 1351.297517827712 1314.6144885384711 31975.782200162532 557.53503295010887 2549.9644689835259 209.48578918876592 480.41149479337037 9.1586965078022313 82.191200210247189 38.208584437612444 412.46829698234797 48.043424497358501 61.828926359070465 49.143595911562443 1084.0589514318854
leaf_count=255430 632 169 17440 1172 3163 11897 135406 5466 35929 344 679 553 781 419 2517 252 249 169 369
internal_value=0 0.0323754 0.0175406 -0.0839413 0.142775 -0.0259936 0.0319641 0.585911 -1.09672 0.736734 0.067462 -6.03678 0.245431 1.01534 -1.26805 -1.50726 -0.317578 -0.323141 1.10625
internal_weight=0 95023.8 93066.6 51408.8 41657.8 48629.3 33327.1 8330.71 2779.53 1957.23 576.332 13.7295 562.603 1380.9 578.071 460.512 117.559 87.3522 1293.54
internal_count=473036 469386 465903 304428 161475 267327 138569 22906 37101 3483 2182 722 1460 1301 3650 2769 881 588 713
shrinkage=0.1


Tree=43
num_leaves=20
num_cat=0
split_feature=16 9 16 17 7 16 16 5 7 17 5 19 17 17 2 19 0 5 19
split_gain=925.268 2492.71 1993.1 3068.3 3269.09 1353.94 3115.34 2888.23 2654.83 2433.74 2232.49 1555.63 946.14 764.249 921.039 734.566 890.343 628.651 481.385
threshold=19.798399925231937 0.53702257655672081 20.65834999084473 1.5746499896049502 1.6511057688754309 21.157899856567386 21.436100006103519 2.3861713136249976 3.4992251307908968 1.044749975204468 0.12465318300582028 705.45779418945324 0.76534998416900646 1.1145499944686892 0.5943786245368452 480.24734497070318 0.11683164932526015 0.5940165311177058 628.67645263671886
decision_type=2 2 2 2 2 2 2 2 2 2 2 2 2 2 2 2 2 2 2
left_child=1 13 3 4 18 7 11 8 -4 -9 -8 -7 -6 15 -15 16 -1 -5 -2
right_child=2 -3 5 17 12 6 10 9 -10 -11 -12 -13 -14 14 -16 -17 -18 -19 -20
leaf_value=-0.13138781147318021 -0.12533416536386999 -0.10451451641017658 0.059312195109360824 0.094404712010844161 0.077136925889027333 -0.11019217572311574 -0.053482859595030546 -0.11509128096632233 -0.14854969415297045 0.023885670716279898 0.010224517559902994 0.01224856768099798 -0.065189446082121072 -0.12234987962876326 0.089676398195456919 0.12645928314430513 0.10166907093598934 -0.14765457007726704 -0.2092251742548239
leaf_weight=269.45861310488544 2097.9194509605877 909.41468129074201 13752.316082766163 1325.4448913242668 1041.8042134139687 3810.4410740617313 6136.9694179192302 2253.7121137329377 640.57120265916456 2851.6450018039905 52836.010613538849 1424.8193976010662 842.11597802070901 374.25436564348638 445.93536641821265 2471.4425361668691 409.22620462346822 114.24587073177099 1032.2651678831317
leaf_count=2375 25299 7008 44174 883 3991 42384 50898 22581 12451 10479 213884 5810 13219 3521 486 1630 309 949 10705
internal_value=0 0.446033 -0.00092162 -0.536261 -0.905646 0.0403693 -0.0297174 0.271139 0.50034 -0.374931 0.0359261 -0.768795 0.135129 0.788093 -0.0715449 1.01179 0.0897545 0.749466 -1.53162
